svm_type c_svc
kernel_type rbf
gamma 1.5e-005
nr_class 2
total_sv 20
rho 0.00164786
label 0 1
nr_sv 10 10
SV
3.5 1:0.21999228 2:0.27391868 3:0.40930347 4:0.54842361 5:0.39398863 6:0.35933172 7:0.47597379 8:0.36783464 9:0.60144428 10:0.41309901 11:0.3696175 12:0.32147823 13:0.3564278 14:0.24717531 15:0.39366399 16:0.26548568 17:0.21481907 18:0.20986964 19:0.22575475 20:0.19095353 21:0.19496629 22:0.28727767 23:0.26884475 24:0.27730208 25:0.20697148 26:0.24867514 27:0.31485365 28:0.32998487 29:0.13947092 30:0.1125605 31:0.29402115 32:0.32164987 33:0.53752445 34:0.58848134 35:0.45224498 36:0.46147828 37:0.4901714 38:0.42728124 39:0.49739738 40:0.43446248 41:0.33026376 42:0.37855242 43:0.55324952 44:0.39302467 45:0.43898672 46:0.48756995 47:0.43805794 48:0.38310475 49:0.42562137 50:0.37438627 51:0.27153827 52:0.26011916 53:0.28708376 54:0.21503432 55:0.21758114 56:0.20290594 57:0.18691356 58:0.24056561 59:0.12818433 60:0.11792781 61:0.21808381 62:0.39479587 63:0.37645784 64:0.44801832 65:0.40359036 66:0.35035662 67:0.33441284 68:0.31750458 69:0.4817896 70:0.39302267 71:0.33300138 72:0.31881186 73:0.44035967 74:0.30748914 75:0.38131078 76:0.50725905 77:0.45646254 78:0.39026862 79:0.43037978 80:0.45014325 81:0.34383912 82:0.41689003 83:0.41563004 84:0.49804111 85:0.2738681 86:0.29204797 87:0.40973465 88:0.2648602 89:0.27242816 90:0.26748546 91:0.1418534 92:0.16832121 93:0.20802126 94:0.1310504 95:0.13307888 96:0.093124052 97:0.076944774 98:0.039430988 99:0.03150027 100:0.062133544 101:0.078748005 102:0.064855938 103:0.10695797 104:0.11629875 105:0.1448011 106:0.18880457 107:0.23389002 108:0.23844887 109:0.20171445 110:0.23907879 111:0.29026726 112:0.38645423 113:0.35828813 114:0.32955678 115:0.33495665 116:0.32939074 117:0.39717374 118:0.33538518 119:0.32527852 120:0.20046166 121:0.71296193 122:1.113437 123:1.1660237 124:1.4406973 125:1.2710254 126:1.4833616 127:1.3443428 128:1.415925 129:1.749975 130:1.5730074 131:1.4726936 132:1.2666437 133:1.1268688 134:0.81688009 135:0.91262839 136:0.91718189 137:0.79480114 138:0.66953345 139:0.50744681 140:0.26769838 141:0.2518071 142:0.23313866 143:0.20487893 144:0.19272736 145:0.21746729 146:0.15296615 147:0.17121646 148:0.2471753 149:0.24881815 150:0.22729603 151:0.18681734 152:0.12107898 153:0.15681419 154:0.13267072 155:0.095164286 156:0.08586122 157:0.078821932 158:0.085953623 159:0.092736419 160:0.086356474 161:0.17385558 162:0.17339843 163:0.223748 164:0.18191587 165:0.2287084 166:0.27655303 167:0.27945555 168:0.2663431 169:0.33775414 170:0.335059 171:0.29319666 172:0.39069624 173:0.44869069 174:0.52730655 175:0.7261436 176:0.52589958 177:0.79709842 178:0.6941255 179:0.70677586 180:0.61942034 181:0.8842837 182:1.0696296 183:1.3123109 184:1.0316343 185:0.80052768 186:0.79012352 187:0.50934706 188:0.45033325 189:0.38168972 190:0.25785727 191:0.2560462 192:0.14056441 193:0.14152968 194:0.11894282 195:0.21459677 196:0.15300637 197:0.14223018 198:0.11307973 199:0.12734897 200:0.12809234 201:0.14153791 202:0.14879494 203:0.23689243 204:0.20128188 205:0.18931113 206:0.46500341 207:0.48155337 208:0.84178222 209:0.28902203 210:0.25151971 211:0.085565751 212:0.17115654 213:0.15384523 214:0.1705925 215:0.16213509 216:0.13511105 217:0.12737618 218:0.09848238 219:0.1554189 220:0.10497612 221:0.080626853 222:0.071502734 223:0.083852454 224:0.05448326 225:0.059379321 226:0.051825313 227:0.063390836 228:0.054591622 229:0.059762443 230:0.058878165 231:0.061957984 232:0.073741831 233:0.10256376 234:0.031620597 235:0.058792534 236:0.10933519 237:0.14154932 238:0.18222048 239:0.074677727 240:0.10015551 241:0.36449877 242:0.32117003 243:0.47521874 244:0.33979825 245:0.28373721 246:0.36934231 247:0.3001195 248:0.37236141 249:0.38266616 250:0.31171372 251:0.26666231 252:0.12439605 253:0.16587362 254:0.16435241 255:0.22414134 256:0.20260791 257:0.38749579 258:0.23303358 259:0.29224328 260:0.29418696 261:0.16304825 262:0.20750961 263:0.18922698 264:0.16509177 265:0.20202087 266:0.3186183 267:0.44459512 268:0.35663035 269:0.36756124 270:0.21091463 
3.5 1:0.91413186 2:1.5701774 3:1.8997055 4:2.1907462 5:2.3158882 6:2.5654029 7:2.1724759 8:2.3820469 9:2.5127381 10:2.2514651 11:1.8899237 12:1.7254868 13:1.529858 14:1.4439022 15:1.0935438 16:0.99816456 17:1.0509109 18:0.9365674 19:0.89001848 20:0.87526091 21:0.77110128 22:0.97368348 23:0.88850646 24:1.001861 25:0.77365365 26:0.84260581 27:1.2460991 28:0.76489009 29:0.85016554 30:0.44751663 31:1.1219322 32:1.7216555 33:1.9550294 34:2.0145217 35:1.9394076 36:2.0070109 37:1.5777877 38:1.4220517 39:1.5005674 40:1.4412157 41:1.0826285 42:1.1028781 43:1.1572777 44:1.0915026 45:1.4355153 46:1.4309817 47:1.299286 48:1.2317047 49:1.279554 50:1.1831151 51:1.1491087 52:1.0208328 53:0.97485812 54:0.87073347 55:0.84978547 56:0.85104075 57:0.84873022 58:0.73161404 59:0.43817561 60:0.24504094 61:0.55075144 62:1.0050012 63:1.0333632 64:1.2578995 65:1.5656013 66:1.5562445 67:1.4608536 68:1.4343979 69:1.4387705 70:1.6006414 71:1.4612897 72:1.4519341 73:1.548608 74:1.5282535 75:1.5141774 76:1.8129045 77:1.659016 78:1.4929512 79:1.7508683 80:1.6153005 81:1.7354102 82:1.9359777 83:1.8317262 84:1.7552428 85:1.3686784 86:1.535012 87:1.5147861 88:1.1855802 89:1.1139109 90:0.7658615 91:0.2013417 92:0.27549173 93:0.23211151 94:0.16551818 95:0.1788039 96:0.098917475 97:0.047321438 98:0.073881506 99:0.087500143 100:0.067708548 101:0.075802489 102:0.093978548 103:0.097310525 104:0.15449082 105:0.158207 106:0.1661397 107:0.19066338 108:0.23859171 109:0.18525269 110:0.26497724 111:0.34631513 112:0.28340728 113:0.31235605 114:0.33097928 115:0.34985993 116:0.38053272 117:0.36751106 118:0.37072263 119:0.3645911 120:0.34083851 121:0.90220341 122:1.4053024 123:1.5103772 124:1.7079693 125:1.7821628 126:1.9560589 127:1.7946271 128:1.7618672 129:2.5443567 130:2.0485261 131:1.9871364 132:1.6425355 133:1.6047903 134:1.2266689 135:1.4655685 136:1.3083119 137:1.0258684 138:0.92264662 139:0.5442715 140:0.46195532 141:0.4292263 142:0.18812254 143:0.26247294 144:0.18655483 145:0.2095653 146:0.18779474 147:0.31267005 148:0.22328451 149:0.282317 150:0.2555365 151:0.21131335 152:0.27524385 153:0.24756668 154:0.16986075 155:0.11600766 156:0.089864976 157:0.077285201 158:0.088855312 159:0.11930916 160:0.16331876 161:0.19853904 162:0.25802222 163:0.21693107 164:0.25217215 165:0.31383436 166:0.37302975 167:0.40735787 168:0.4513275 169:0.42896043 170:0.47371859 171:0.45411285 172:0.52433068 173:0.54026629 174:0.5280474 175:0.73950343 176:0.64515725 177:0.89097958 178:0.78404549 179:0.69721712 180:0.68189651 181:1.8247562 182:2.3421032 183:2.5941623 184:2.2020299 185:2.0578457 186:1.5427533 187:1.1363425 188:0.96305126 189:0.90178889 190:0.55507172 191:0.39710747 192:0.3060461 193:0.22764245 194:0.23645308 195:0.22274392 196:0.18194551 197:0.19587617 198:0.19868274 199:0.16698351 200:0.20038176 201:0.29360107 202:0.37043131 203:0.39479534 204:0.57769943 205:0.49708629 206:0.52828272 207:0.9200308 208:0.68982948 209:0.59723257 210:0.42045683 211:0.30764263 212:0.42862795 213:0.38923372 214:0.45364659 215:0.40826467 216:0.31327991 217:0.33528521 218:0.26609324 219:0.29686809 220:0.21483033 221:0.23497359 222:0.12839491 223:0.15740968 224:0.094667117 225:0.11379673 226:0.12921306 227:0.10386577 228:0.12518378 229:0.079989039 230:0.079083161 231:0.11659161 232:0.11005708 233:0.10518494 234:0.069915551 235:0.11688051 236:0.12452443 237:0.16115486 238:0.18070353 239:0.11429219 240:0.12824071 241:0.7471853 242:1.0158836 243:1.1375095 244:0.95681901 245:0.86063409 246:0.73700669 247:0.62946215 248:0.51684277 249:0.51761702 250:0.26550636 251:0.2846158 252:0.22092331 253:0.23621217 254:0.10528226 255:0.32766764 256:0.36898135 257:0.45134997 258:0.53037517 259:0.43258206 260:0.33803933 261:0.4173897 262:0.34456792 263:0.3301371 264:0.31217366 265:0.57219371 266:0.60588923 267:0.72701364 268:0.93261888 269:0.79455561 270:0.56039005 
3.5 1:0.0889848 2:0.075540674 3:0.14049578 4:0.16081254 5:0.077066112 6:0.082320382 7:0.070225828 8:0.089603979 9:0.28293203 10:0.19627335 11:0.12226469 12:0.050352649 13:0.14514035 14:0.056353341 15:0.12290568 16:0.098080571 17:0.14139264 18:0.091440432 19:0.095286094 20:0.04539658 21:0.076413416 22:0.095855315 23:0.089985717 24:0.14746444 25:0.090129094 26:0.11149487 27:0.2165668 28:0.17318374 29:0.15456179 30:0.074298283 31:0.093723129 32:0.10217088 33:0.14565273 34:0.21584505 35:0.069281454 36:0.079519026 37:0.071572226 38:0.054949335 39:0.22062814 40:0.16964658 41:0.15155034 42:0.090364668 43:0.17347248 44:0.10460408 45:0.17324271 46:0.15392075 47:0.18693327 48:0.17388661 49:0.099026125 50:0.071380464 51:0.083680678 52:0.14165589 53:0.12471265 54:0.13141279 55:0.18308224 56:0.15994195 57:0.33636065 58:0.30512878 59:0.17888698 60:0.10609534 61:0.14237997 62:0.13612412 63:0.16658016 64:0.18518876 65:0.094362665 66:0.099141498 67:0.10350673 68:0.11440573 69:0.19332354 70:0.1750813 71:0.15810277 72:0.071680567 73:0.15517338 74:0.073440107 75:0.1299661 76:0.12826299 77:0.15544527 78:0.1273077 79:0.077530044 80:0.07115373 81:0.075432241 82:0.11896809 83:0.11605181 84:0.14113522 85:0.078994725 86:0.11414986 87:0.16018543 88:0.084158245 89:0.14889223 90:0.066276412 91:0.17465173 92:0.18374893 93:0.21995746 94:0.1507423 95:0.13922195 96:0.092317807 97:0.065927175 98:0.057152202 99:0.060315094 100:0.062125215 101:0.063816036 102:0.069855439 103:0.10298218 104:0.11590307 105:0.1343049 106:0.14050463 107:0.16435978 108:0.14134778 109:0.21627807 110:0.20124344 111:0.21177385 112:0.2470475 113:0.28741402 114:0.27843849 115:0.27733922 116:0.2411063 117:0.3779545 118:0.21399499 119:0.28892474 120:0.18595961 121:0.73661561 122:1.0618883 123:1.2870528 124:1.457948 125:1.1690876 126:1.3979118 127:1.1815255 128:1.2814544 129:1.2050599 130:1.1120509 131:0.91377172 132:1.1877667 133:1.3608789 134:0.91836218 135:0.78594912 136:0.70565015 137:0.63854159 138:0.48721469 139:0.4565316 140:0.28296376 141:0.20685785 142:0.2604562 143:0.19030051 144:0.18926834 145:0.17298779 146:0.21608297 147:0.2503649 148:0.23381965 149:0.24585086 150:0.23267415 151:0.22677602 152:0.17409004 153:0.14205243 154:0.11873794 155:0.11322804 156:0.090888916 157:0.045511465 158:0.051333549 159:0.071029407 160:0.12494886 161:0.092558088 162:0.2078351 163:0.16944005 164:0.16925956 165:0.18922769 166:0.22134896 167:0.23576245 168:0.20826371 169:0.37521544 170:0.3296969 171:0.39739939 172:0.34073342 173:0.39076012 174:0.41137663 175:0.43112806 176:0.46248723 177:0.61044049 178:0.58992912 179:0.54928285 180:0.35064377 181:3.1293817 182:3.4109166 183:4.0119154 184:3.9189677 185:2.7536188 186:2.1206405 187:1.6876226 188:1.1741478 189:0.8074148 190:0.67791552 191:0.438176 192:0.4194725 193:0.42256369 194:0.29996114 195:0.21985947 196:0.18778704 197:0.17647654 198:0.2233916 199:0.2308947 200:0.21805614 201:0.31412973 202:0.48382572 203:0.51497779 204:0.65381084 205:0.61720037 206:0.70084688 207:1.311192 208:1.0464169 209:0.73498115 210:0.50194477 211:0.35694957 212:0.48191608 213:0.52197794 214:0.56874585 215:0.45094978 216:0.41421591 217:0.39100357 218:0.2957396 219:0.28492325 220:0.19708483 221:0.1590898 222:0.11256756 223:0.10834719 224:0.083734645 225:0.10397985 226:0.10610126 227:0.090076586 228:0.0862485 229:0.059852355 230:0.06845116 231:0.061792707 232:0.066265513 233:0.06591778 234:0.066240362 235:0.08042884 236:0.11360234 237:0.18925245 238:0.21925863 239:0.10082309 240:0.061888465 241:1.0899537 242:1.3015544 243:1.4565864 244:1.2687991 245:1.1396424 246:1.028792 247:0.91376073 248:0.560641 249:0.51307581 250:0.57228618 251:0.38707259 252:0.34560495 253:0.34804926 254:0.30456691 255:0.27093262 256:0.41460663 257:0.45846181 258:0.57123116 259:0.60262059 260:0.57786387 261:0.4168625 262:0.54289927 263:0.43187392 264:0.30897392 265:0.4048402 266:0.55618117 267:0.64576639 268:0.84851197 269:0.73666752 270:0.60508132 
3.5 1:0.40936515 2:0.45437139 3:0.59957658 4:0.68993346 5:0.69314984 6:0.64332425 7:0.76552752 8:0.76416412 9:0.84666303 10:0.74198991 11:0.63541524 12:0.52991999 13:0.56201659 14:0.43879505 15:0.41592016 16:0.34492114 17:0.34903837 18:0.34483633 19:0.31752128 20:0.28302731 21:0.39676422 22:0.30986892 23:0.44018625 24:0.34967238 25:0.36780738 26:0.47363676 27:0.59806892 28:0.47118106 29:0.30000981 30:0.16530352 31:0.42677814 32:0.50501314 33:0.57010921 34:0.61798463 35:0.60961207 36:0.54918068 37:0.52264356 38:0.52461887 39:0.56867601 40:0.6454609 41:0.52684235 42:0.39734594 43:0.40420355 44:0.53208141 45:0.6995442 46:0.62376754 47:0.53411247 48:0.70390908 49:0.43451208 50:0.50930658 51:0.45721904 52:0.39997361 53:0.48460502 54:0.37219722 55:0.4928242 56:0.53833765 57:0.44884003 58:0.52646112 59:0.28525878 60:0.23640758 61:0.24060755 62:0.42435315 63:0.42432685 64:0.36364768 65:0.70745638 66:0.50782931 67:0.69203448 68:0.43249094 69:0.58738187 70:0.57570851 71:0.57069143 72:0.52969244 73:0.60778297 74:0.48083343 75:0.62966013 76:0.52757697 77:0.55527183 78:0.61653647 79:0.52492618 80:0.53942641 81:0.59927413 82:0.45865959 83:0.6155943 84:0.73154425 85:0.44705171 86:0.47300319 87:0.61030562 88:0.40857519 89:0.45208083 90:0.30109235 91:0.26505281 92:0.37346231 93:0.32486438 94:0.29670698 95:0.22232991 96:0.15496304 97:0.098554179 98:0.072158268 99:0.098134899 100:0.052660289 101:0.057130574 102:0.11636238 103:0.15070856 104:0.13306526 105:0.14377184 106:0.1618299 107:0.22264304 108:0.21232151 109:0.23454279 110:0.24388893 111:0.3443405 112:0.31620867 113:0.35481855 114:0.3763616 115:0.32432625 116:0.41760993 117:0.47828223 118:0.3717651 119:0.47633979 120:0.27085936 121:1.0648433 122:1.4889181 123:1.7581252 124:2.015536 125:1.9869245 126:1.9895309 127:2.3055323 128:2.0513545 129:2.2091721 130:2.0677207 131:2.1618717 132:1.8986974 133:1.8728419 134:1.6424866 135:1.4023147 136:1.2967933 137:1.105695 138:0.85888398 139:0.54980062 140:0.47015038 141:0.44919634 142:0.2197914 143:0.23409786 144:0.1518892 145:0.22055597 146:0.20450072 147:0.20264707 148:0.22828482 149:0.33199823 150:0.23713712 151:0.24225164 152:0.2725652 153:0.25519569 154:0.18072328 155:0.13029089 156:0.11077302 157:0.063345656 158:0.064413275 159:0.078646695 160:0.10473901 161:0.13032336 162:0.18320905 163:0.26032112 164:0.23513125 165:0.26560159 166:0.38543357 167:0.3231598 168:0.46616057 169:0.48320285 170:0.44808562 171:0.58668143 172:0.58650512 173:0.66349244 174:0.60973442 175:0.77667662 176:0.85528903 177:0.90965586 178:0.79643092 179:0.90993982 180:0.61803464 181:1.3437965 182:1.802023 183:1.8724054 184:1.7386581 185:1.1840552 186:1.2382319 187:0.78351586 188:0.65987479 189:0.56364062 190:0.34139127 191:0.28348613 192:0.185662 193:0.20525638 194:0.18748493 195:0.17958896 196:0.14259432 197:0.16906646 198:0.12640216 199:0.17043891 200:0.14070933 201:0.16579378 202:0.24501352 203:0.27513218 204:0.3758914 205:0.42305415 206:0.53914273 207:0.94972043 208:0.84905852 209:0.57070344 210:0.40275396 211:0.21499853 212:0.24086365 213:0.30964685 214:0.27872419 215:0.23597001 216:0.30015522 217:0.24528718 218:0.19518896 219:0.25090589 220:0.16791859 221:0.16996825 222:0.12691501 223:0.13396715 224:0.07798666 225:0.11815038 226:0.11291146 227:0.080475743 228:0.074960625 229:0.08533385 230:0.087012767 231:0.085615286 232:0.088588752 233:0.095999041 234:0.078513235 235:0.10887674 236:0.16740173 237:0.24127686 238:0.24589174 239:0.10605678 240:0.092288832 241:0.61066239 242:0.85862895 243:0.8089238 244:0.68207404 245:0.67530756 246:0.59130794 247:0.62592557 248:0.52465844 249:0.47824257 250:0.25622315 251:0.28753516 252:0.30137312 253:0.26066378 254:0.20479713 255:0.31007251 256:0.31517542 257:0.32025689 258:0.29050504 259:0.28669488 260:0.3354191 261:0.26932227 262:0.35711091 263:0.27390031 264:0.23335821 265:0.30230114 266:0.47621304 267:0.65260838 268:0.74381197 269:0.76358415 270:0.46088797 
3.5 1:0.1013264 2:0.067708849 3:0.14226453 4:0.15069229 5:0.072553697 6:0.084660912 7:0.10183544 8:0.085418448 9:0.2239004 10:0.19034 11:0.19743883 12:0.059859779 13:0.1480439 14:0.11889169 15:0.13954581 16:0.10185106 17:0.1526046 18:0.12119295 19:0.070411526 20:0.052970636 21:0.093527592 22:0.10630364 23:0.13498737 24:0.090125595 25:0.12154818 26:0.12782171 27:0.17791602 28:0.22842762 29:0.10702419 30:0.10212373 31:0.077914595 32:0.097274494 33:0.17095676 34:0.15863619 35:0.060280915 36:0.085212732 37:0.068579813 38:0.082825819 39:0.1248434 40:0.16833811 41:0.1399074 42:0.093692625 43:0.15036154 44:0.081689511 45:0.20248765 46:0.20724855 47:0.13889057 48:0.17790864 49:0.11884864 50:0.14131662 51:0.14252738 52:0.15732126 53:0.17134477 54:0.20925999 55:0.20207246 56:0.19567544 57:0.21481834 58:0.25642429 59:0.12453281 60:0.08626103 61:0.1289592 62:0.18122489 63:0.18732612 64:0.13001656 65:0.096972634 66:0.11842098 67:0.12549034 68:0.09370814 69:0.15832475 70:0.20544252 71:0.18885092 72:0.095000293 73:0.098993781 74:0.097633747 75:0.16236405 76:0.12800635 77:0.17651465 78:0.16349389 79:0.13252253 80:0.092123576 81:0.13396375 82:0.078072421 83:0.12117531 84:0.12997831 85:0.076349359 86:0.073402679 87:0.14877899 88:0.11637481 89:0.097017566 90:0.085227964 91:0.23595346 92:0.14811291 93:0.23286669 94:0.18337429 95:0.11916057 96:0.094687715 97:0.085417037 98:0.057855356 99:0.075616541 100:0.063384621 101:0.047561561 102:0.070004958 103:0.11351904 104:0.11424757 105:0.15510173 106:0.15404469 107:0.14686184 108:0.14321496 109:0.16153563 110:0.21091793 111:0.24634287 112:0.20660461 113:0.21240646 114:0.29449508 115:0.31215442 116:0.30636574 117:0.33627977 118:0.26419302 119:0.25025462 120:0.19520304 121:0.72684952 122:0.94263197 123:1.2456908 124:1.3067897 125:1.2603426 126:1.3392374 127:1.2761401 128:1.3503857 129:1.4146777 130:1.2488309 131:1.20495 132:1.2223324 133:1.2845355 134:1.0218534 135:0.73838035 136:0.72245645 137:0.8101395 138:0.59618129 139:0.49714556 140:0.27786276 141:0.24897576 142:0.28122309 143:0.16779795 144:0.26509008 145:0.22196343 146:0.31314655 147:0.17799637 148:0.26777032 149:0.26191533 150:0.20385433 151:0.1983599 152:0.19012102 153:0.24891769 154:0.14216918 155:0.1175547 156:0.073439021 157:0.074071576 158:0.069220687 159:0.087107229 160:0.092433024 161:0.14897662 162:0.1407563 163:0.21117147 164:0.20390601 165:0.18320758 166:0.22612204 167:0.27130081 168:0.30941107 169:0.31282792 170:0.29444097 171:0.32218613 172:0.39201439 173:0.43239864 174:0.48456781 175:0.45165751 176:0.59008323 177:0.56209934 178:0.49376187 179:0.58968325 180:0.37296405 181:2.8137507 182:3.5901817 183:3.7896407 184:3.146535 185:3.2304989 186:2.363406 187:1.8211706 188:1.5068749 189:1.0783174 190:0.79688276 191:0.63145965 192:0.4217805 193:0.2584185 194:0.26347605 195:0.26677362 196:0.19268815 197:0.24031823 198:0.23852793 199:0.34778208 200:0.31312797 201:0.29512004 202:0.41387706 203:0.51602805 204:0.51769321 205:0.60589309 206:0.67951083 207:1.1492464 208:1.2941629 209:0.68160625 210:0.50430967 211:0.32051314 212:0.46093274 213:0.54711007 214:0.51273334 215:0.56878311 216:0.50610093 217:0.31521378 218:0.38131156 219:0.36839387 220:0.23093843 221:0.27604947 222:0.17699194 223:0.15636597 224:0.16953132 225:0.11050162 226:0.11669071 227:0.092523075 228:0.090659625 229:0.088825072 230:0.074640412 231:0.038195287 232:0.078752172 233:0.07823494 234:0.092483141 235:0.12230195 236:0.10095529 237:0.27146267 238:0.18588984 239:0.15489908 240:0.092112295 241:1.2059739 242:1.4396141 243:1.4590133 244:1.2322258 245:1.3946013 246:1.0185865 247:0.90373149 248:0.84165831 249:0.72085313 250:0.50475835 251:0.40819515 252:0.37111024 253:0.27472861 254:0.26422796 255:0.28759951 256:0.35467436 257:0.42124924 258:0.54037649 259:0.36121788 260:0.53828334 261:0.44344152 262:0.30438247 263:0.3213467 264:0.28828806 265:0.3508559 266:0.5063317 267:0.58949826 268:0.96701393 269:0.88320633 270:0.65689764 
3.5 1:0.077469893 2:0.066526072 3:0.13667695 4:0.17379796 5:0.079355432 6:0.11247238 7:0.13642553 8:0.11136161 9:0.25399619 10:0.25476384 11:0.14454333 12:0.079034315 13:0.12497639 14:0.10439124 15:0.16315563 16:0.1001414 17:0.16070405 18:0.13759989 19:0.1104965 20:0.095061264 21:0.077200012 22:0.14290424 23:0.14480693 24:0.14607021 25:0.0811486 26:0.15613454 27:0.19458461 28:0.19598231 29:0.14456404 30:0.065458757 31:0.094646589 32:0.10765123 33:0.17385514 34:0.17260859 35:0.08778346 36:0.10648993 37:0.10237087 38:0.094578216 39:0.17575916 40:0.10923552 41:0.10318153 42:0.086800995 43:0.15181493 44:0.10557217 45:0.16583826 46:0.17951905 47:0.16121959 48:0.11902678 49:0.16766703 50:0.15182742 51:0.1083365 52:0.15890304 53:0.18247871 54:0.23046039 55:0.12168679 56:0.18002626 57:0.2997148 58:0.23553604 59:0.1440135 60:0.1068195 61:0.13178421 62:0.15515369 63:0.19467192 64:0.17131391 65:0.17871729 66:0.14375939 67:0.16464578 68:0.16705718 69:0.20751434 70:0.18374129 71:0.16718921 72:0.08786152 73:0.13052487 74:0.10300251 75:0.19849878 76:0.15139572 77:0.21235381 78:0.14060278 79:0.10788909 80:0.11566319 81:0.087364113 82:0.089610832 83:0.10196147 84:0.21388551 85:0.088490787 86:0.10628102 87:0.17107187 88:0.15765621 89:0.085321685 90:0.094082316 91:0.16180408 92:0.16685749 93:0.18978761 94:0.15025134 95:0.1418741 96:0.077765286 97:0.075339082 98:0.078953148 99:0.029346601 100:0.049671035 101:0.072574944 102:0.057238588 103:0.099884274 104:0.071757878 105:0.11179548 106:0.16064678 107:0.18228063 108:0.17986079 109:0.18652116 110:0.15976625 111:0.20824748 112:0.1972091 113:0.21263186 114:0.22973153 115:0.22892895 116:0.23218775 117:0.23863877 118:0.27287434 119:0.23238841 120:0.2165981 121:0.68682296 122:0.83498733 123:0.91391727 124:1.102118 125:0.9726851 126:0.85728872 127:1.2298119 128:0.93783241 129:1.0101436 130:1.0154466 131:1.0834066 132:1.0577797 133:0.97678504 134:0.78160976 135:0.58551297 136:0.61994324 137:0.63923221 138:0.66071151 139:0.40705163 140:0.26033465 141:0.19413392 142:0.18492255 143:0.19872064 144:0.26373015 145:0.18691536 146:0.19848213 147:0.32976385 148:0.2561278 149:0.25832446 150:0.21581342 151:0.17603127 152:0.13437761 153:0.1336473 154:0.16772652 155:0.10562409 156:0.095886503 157:0.078077602 158:0.060181498 159:0.075652251 160:0.082481463 161:0.1156896 162:0.11867035 163:0.15713498 164:0.14631414 165:0.14179829 166:0.1626018 167:0.23039284 168:0.32823413 169:0.30193663 170:0.19346328 171:0.28361478 172:0.24755332 173:0.28004867 174:0.32891046 175:0.36152073 176:0.38770216 177:0.50087249 178:0.33241071 179:0.45474793 180:0.27851237 181:1.5088722 182:2.1077824 183:1.9728275 184:1.8750792 185:1.788241 186:1.5676029 187:0.81018111 188:0.75064773 189:0.74907061 190:0.5769729 191:0.35024326 192:0.24604149 193:0.18988414 194:0.15459228 195:0.19603305 196:0.22165131 197:0.20366361 198:0.17648534 199:0.1995854 200:0.16308275 201:0.234512 202:0.2568089 203:0.33677313 204:0.33239894 205:0.45175988 206:0.55599289 207:0.66006665 208:1.0601389 209:0.37779029 210:0.23964413 211:0.23153901 212:0.30693864 213:0.36900375 214:0.35188738 215:0.31235156 216:0.29064419 217:0.25587379 218:0.19026632 219:0.33424919 220:0.20215395 221:0.19974803 222:0.15136591 223:0.11068317 224:0.11420641 225:0.10746143 226:0.078811738 227:0.10117851 228:0.12491789 229:0.097672398 230:0.046586482 231:0.071381425 232:0.11005481 233:0.063146273 234:0.077680132 235:0.09034917 236:0.078859813 237:0.13480279 238:0.17621339 239:0.091662224 240:0.066203961 241:0.68779002 242:0.77583779 243:0.69240627 244:0.82905567 245:0.68939457 246:0.72951724 247:0.61740236 248:0.4618113 249:0.49082111 250:0.32215167 251:0.26443539 252:0.31516698 253:0.19749707 254:0.25936182 255:0.30686972 256:0.35037921 257:0.49651371 258:0.2672427 259:0.40021861 260:0.29254602 261:0.38828137 262:0.28182738 263:0.33675277 264:0.28923569 265:0.27483378 266:0.44344648 267:0.65016688 268:0.47778089 269:0.60532443 270:0.49732484 
3.5 1:0.58486644 2:0.97914915 3:1.366757 4:1.3270379 5:1.7576654 6:1.6902928 7:1.5927499 8:1.5706702 9:1.7742265 10:1.5960003 11:1.3107647 12:1.1620513 13:1.0738163 14:1.1359006 15:0.92028294 16:0.74157371 17:0.76664464 18:0.66525276 19:0.60092826 20:0.62075184 21:0.62734466 22:0.62596144 23:0.71537039 24:0.66599345 25:0.57856365 26:0.70890134 27:0.82019251 28:0.63624725 29:0.49075702 30:0.36186411 31:0.94255743 32:1.0893202 33:1.4698908 34:1.4673047 35:1.3612455 36:1.2835527 37:1.3394801 38:1.0569483 39:1.0226492 40:0.89311055 41:0.72603247 42:0.58540478 43:0.79510195 44:0.76333301 45:0.97605016 46:1.1559653 47:1.142478 48:0.93603459 49:0.99517032 50:1.1066583 51:0.88033405 52:0.87353878 53:0.99057174 54:0.8006549 55:0.73195203 56:0.81958512 57:0.57079768 58:0.76072551 59:0.31101228 60:0.24548842 61:0.42289619 62:0.792152 63:0.65823704 64:0.67149227 65:1.0913584 66:0.9438208 67:1.0054774 68:0.94409062 69:1.1125695 70:1.1613363 71:1.0206565 72:0.92320867 73:1.1632675 74:0.96970095 75:1.1809893 76:1.2286888 77:1.210297 78:1.2211183 79:1.0307151 80:1.0517428 81:1.2288362 82:0.97999824 83:1.1095979 84:1.0376319 85:0.95138629 86:0.85256852 87:1.2091527 88:0.76420323 89:0.76576599 90:0.50625969 91:0.25896425 92:0.34172553 93:0.31859071 94:0.20676301 95:0.20111545 96:0.15954733 97:0.10456371 98:0.073453052 99:0.062732587 100:0.10499619 101:0.06512845 102:0.074774535 103:0.12236377 104:0.089927758 105:0.092693802 106:0.20109399 107:0.16658792 108:0.20208824 109:0.19379695 110:0.20201152 111:0.26991368 112:0.31589031 113:0.3057415 114:0.30876703 115:0.3403345 116:0.31248082 117:0.3915334 118:0.3118488 119:0.4003605 120:0.37385184 121:0.93152068 122:1.2812859 123:1.4089125 124:1.4826699 125:1.5940037 126:1.8242777 127:1.6591528 128:1.617157 129:2.2657431 130:2.0988392 131:2.0266428 132:1.6174721 133:1.4674421 134:1.125675 135:1.0665179 136:1.1357609 137:1.0350725 138:0.75839074 139:0.52842702 140:0.50696713 141:0.32475139 142:0.21661429 143:0.18648756 144:0.21236219 145:0.20221724 146:0.23660416 147:0.2759447 148:0.32869833 149:0.32793677 150:0.26465369 151:0.22258111 152:0.26543395 153:0.22121682 154:0.11607336 155:0.11694516 156:0.072870153 157:0.076591331 158:0.058523577 159:0.083850471 160:0.13100106 161:0.20222765 162:0.19502872 163:0.27389395 164:0.27851409 165:0.37983767 166:0.39943558 167:0.49684943 168:0.67112269 169:0.547983 170:0.67199247 171:0.61777796 172:0.6905652 173:0.70477316 174:0.76107765 175:0.74507508 176:0.78945129 177:0.95565129 178:0.98218519 179:0.87573241 180:0.83174016 181:2.039586 182:2.6581258 183:2.5136807 184:2.2210828 185:1.632017 186:1.4769558 187:0.92507444 188:0.90876168 189:0.86399083 190:0.52047127 191:0.37013531 192:0.29230585 193:0.20340066 194:0.15450539 195:0.18179278 196:0.16189447 197:0.17398313 198:0.13448896 199:0.14130861 200:0.16665797 201:0.16650916 202:0.35843883 203:0.34052545 204:0.42740723 205:0.30134499 206:0.41289772 207:1.1029716 208:1.0007001 209:0.62637042 210:0.39574179 211:0.37889092 212:0.53191094 213:0.57228081 214:0.53797718 215:0.45486858 216:0.48943634 217:0.40677628 218:0.3590587 219:0.34162482 220:0.29049835 221:0.19107195 222:0.19014636 223:0.13470975 224:0.12002263 225:0.13185705 226:0.1264125 227:0.12254394 228:0.096595841 229:0.081062658 230:0.07733947 231:0.083210223 232:0.088607414 233:0.077356839 234:0.073660427 235:0.079421976 236:0.10751274 237:0.23066442 238:0.19141087 239:0.16299933 240:0.089395197 241:1.2184238 242:1.41375 243:1.32994 244:1.0017618 245:0.85402858 246:0.81531724 247:0.54224488 248:0.35816464 249:0.37103318 250:0.39379645 251:0.29709499 252:0.21605634 253:0.25125935 254:0.19958555 255:0.30423213 256:0.47495928 257:0.56121815 258:0.41871383 259:0.52549515 260:0.53764673 261:0.36920435 262:0.33412739 263:0.40317237 264:0.52389589 265:0.57682192 266:0.75327596 267:1.1413006 268:1.3120481 269:0.90543109 270:0.86976476 
3.5 1:0.51529363 2:0.63304756 3:0.88718165 4:1.0304217 5:0.95682089 6:1.0159265 7:0.97346502 8:0.94147564 9:1.1626862 10:1.0302991 11:0.9999423 12:0.69895225 13:0.64101733 14:0.67232185 15:0.46099671 16:0.44228053 17:0.49342233 18:0.44894479 19:0.37055835 20:0.28325992 21:0.32621027 22:0.38784701 23:0.4217957 24:0.4395832 25:0.28509813 26:0.34855228 27:0.54617994 28:0.36907209 29:0.40413895 30:0.21791421 31:0.54788693 32:0.69897521 33:0.8822466 34:0.87155508 35:0.83417295 36:0.85502353 37:0.93704451 38:0.72981559 39:0.83953271 40:0.7891966 41:0.70471565 42:0.5973119 43:0.84857606 44:0.66619596 45:0.93320455 46:0.79476825 47:0.83101287 48:0.8727034 49:0.88100176 50:0.76392738 51:0.73715291 52:0.56975005 53:0.80397412 54:0.70686868 55:0.49911143 56:0.57787502 57:0.65404224 58:0.53995603 59:0.35629549 60:0.24431401 61:0.25859289 62:0.41784194 63:0.49950074 64:0.56557786 65:0.50453532 66:0.64980326 67:0.60855402 68:0.67819528 69:0.78092239 70:0.7324537 71:0.6877862 72:0.68280908 73:0.7503598 74:0.75003292 75:0.69909567 76:0.77886151 77:0.7508757 78:0.70383902 79:0.67272255 80:0.73592648 81:0.66804617 82:0.61979277 83:0.70792015 84:0.79051557 85:0.58496715 86:0.52196185 87:0.698764 88:0.44863506 89:0.48011577 90:0.36435768 91:0.16979582 92:0.19414853 93:0.23236159 94:0.18826122 95:0.09657871 96:0.096424109 97:0.084023701 98:0.056713573 99:0.060407735 100:0.073867662 101:0.040639707 102:0.07296742 103:0.087898593 104:0.10207207 105:0.1315364 106:0.10029853 107:0.12892324 108:0.1391346 109:0.16098159 110:0.15353717 111:0.16118123 112:0.18286973 113:0.25683828 114:0.26257502 115:0.23618067 116:0.20560292 117:0.3526659 118:0.24875081 119:0.20493612 120:0.19986699 121:0.61815957 122:0.90996017 123:1.0723601 124:1.4036123 125:0.94620071 126:1.1567239 127:1.1746442 128:1.1755833 129:1.4229128 130:1.1400152 131:1.0826455 132:1.0824389 133:1.0609473 134:0.79220388 135:0.68183989 136:0.78906969 137:0.65336222 138:0.4961351 139:0.48559198 140:0.2970664 141:0.23515241 142:0.21763778 143:0.18059295 144:0.16798177 145:0.19924413 146:0.28491462 147:0.25975522 148:0.26989386 149:0.26070961 150:0.21792394 151:0.15348286 152:0.15859936 153:0.17232803 154:0.11547164 155:0.13057847 156:0.07237416 157:0.060197401 158:0.08417188 159:0.095011976 160:0.12580858 161:0.087887347 162:0.18685957 163:0.15539435 164:0.19104019 165:0.18763842 166:0.27825809 167:0.33642986 168:0.33025454 169:0.33378443 170:0.3372288 171:0.33264019 172:0.43098697 173:0.35534015 174:0.42522573 175:0.40675419 176:0.42520138 177:0.5689001 178:0.58901522 179:0.57844877 180:0.33191004 181:0.12731837 182:0.12024345 183:0.2886604 184:0.25518778 185:0.11080755 186:0.12669694 187:0.12095641 188:0.087156725 189:0.15176058 190:0.13074792 191:0.14363725 192:0.071999323 193:0.073858076 194:0.080355682 195:0.087106476 196:0.086443559 197:0.092207775 198:0.11692604 199:0.087783714 200:0.11299116 201:0.085208096 202:0.10168956 203:0.13165842 204:0.097633093 205:0.17777784 206:0.26856946 207:0.47600644 208:0.62531137 209:0.30587732 210:0.2018573 211:0.054991242 212:0.042866141 213:0.084196694 214:0.087290315 215:0.055697861 216:0.045640724 217:0.04464474 218:0.063704702 219:0.06783682 220:0.066066954 221:0.060715732 222:0.051014996 223:0.063795281 224:0.058291274 225:0.052921272 226:0.066032168 227:0.10097973 228:0.087493081 229:0.057538966 230:0.055587602 231:0.06077566 232:0.079199825 233:0.071896617 234:0.070391481 235:0.12740404 236:0.14543505 237:0.15896753 238:0.24433714 239:0.11751977 240:0.072365488 241:0.13717956 242:0.17463416 243:0.2595905 244:0.26379326 245:0.18305411 246:0.13706994 247:0.084602041 248:0.12856801 249:0.19520842 250:0.18133091 251:0.15270961 252:0.15257632 253:0.18380317 254:0.13360266 255:0.18565473 256:0.2078415 257:0.17907647 258:0.16163337 259:0.16545361 260:0.14199 261:0.1553227 262:0.20487336 263:0.15077269 264:0.22105335 265:0.25526669 266:0.27242576 267:0.23886612 268:0.39667679 269:0.24341149 270:0.18787739 
3.5 1:0.42435429 2:0.71506264 3:0.85808203 4:1.031359 5:1.1763236 6:1.2951091 7:1.2118351 8:1.3166577 9:1.3622741 10:1.3409711 11:1.0084698 12:0.90969549 13:0.83576357 14:0.7070909 15:0.67400888 16:0.56010013 17:0.59596758 18:0.47970845 19:0.49325415 20:0.40947833 21:0.43593418 22:0.41581463 23:0.5866374 24:0.47063861 25:0.61808216 26:0.6235623 27:0.57386871 28:0.63988606 29:0.46771967 30:0.39615773 31:0.43475733 32:0.69344799 33:0.71189266 34:0.83926743 35:0.64398059 36:0.78301971 37:0.63987897 38:0.58401216 39:0.71511822 40:0.64469347 41:0.51083382 42:0.57948953 43:0.42441899 44:0.55904978 45:0.61456611 46:0.73464366 47:0.68483906 48:0.57509805 49:0.57727038 50:0.52698718 51:0.49765044 52:0.50152491 53:0.47523811 54:0.36846229 55:0.44483395 56:0.40137862 57:0.31436105 58:0.47253165 59:0.20853013 60:0.14973148 61:0.2726692 62:0.46302607 63:0.38542268 64:0.44426503 65:0.580087 66:0.65017574 67:0.69344713 68:0.61261997 69:0.8232708 70:0.89479625 71:0.75619226 72:0.60803666 73:0.71916556 74:0.71856272 75:0.58676072 76:0.72055248 77:0.82227157 78:0.81227965 79:0.70536115 80:0.70367329 81:0.77097526 82:0.75636317 83:0.77427385 84:0.81893552 85:0.68734135 86:0.60228611 87:0.6067637 88:0.51035698 89:0.36493021 90:0.36573947 91:0.16002852 92:0.30860064 93:0.23384882 94:0.24799117 95:0.07021496 96:0.1012908 97:0.095203937 98:0.05726342 99:0.0675109 100:0.05890637 101:0.071489506 102:0.073667312 103:0.09916802 104:0.10450508 105:0.089438912 106:0.12770598 107:0.15073055 108:0.18682982 109:0.19308305 110:0.29938361 111:0.28490598 112:0.31110882 113:0.30541299 114:0.37781506 115:0.29023202 116:0.34913973 117:0.53594621 118:0.27180827 119:0.4628098 120:0.24838711 121:0.80269493 122:1.1501046 123:1.4679582 124:1.5515783 125:1.4398797 126:1.5945513 127:1.2360294 128:1.5059121 129:1.6571629 130:1.5388953 131:1.3352532 132:1.376599 133:1.501546 134:1.0275856 135:1.0029407 136:0.96276945 137:0.74038494 138:0.47848635 139:0.41307793 140:0.44414002 141:0.33298671 142:0.18071238 143:0.27459143 144:0.21523047 145:0.19084523 146:0.25712128 147:0.27643554 148:0.29792209 149:0.27401579 150:0.22335198 151:0.20167761 152:0.23486695 153:0.21526202 154:0.13577864 155:0.10288343 156:0.08162774 157:0.081050759 158:0.046723868 159:0.10772147 160:0.1206973 161:0.11986076 162:0.17375239 163:0.22125106 164:0.28312943 165:0.27173154 166:0.27713972 167:0.36248061 168:0.37939621 169:0.42079554 170:0.5401845 171:0.49607825 172:0.5347369 173:0.6121611 174:0.76816699 175:0.56629807 176:0.69627037 177:0.82057127 178:0.77515739 179:0.7094209 180:0.46884616 181:0.192035 182:0.14667441 183:0.40363982 184:0.36827089 185:0.11787493 186:0.13505353 187:0.07663127 188:0.1239788 189:0.26126725 190:0.19111677 191:0.13001465 192:0.074236238 193:0.11402046 194:0.085081165 195:0.14027674 196:0.09186679 197:0.099887436 198:0.09641275 199:0.094118568 200:0.10763312 201:0.097147056 202:0.10893398 203:0.12198985 204:0.12171106 205:0.26134983 206:0.24410902 207:0.43446928 208:0.66379804 209:0.30634525 210:0.20609777 211:0.05209058 212:0.05319613 213:0.093675015 214:0.11860048 215:0.054935464 216:0.048570515 217:0.054522353 218:0.049312686 219:0.080315906 220:0.077368322 221:0.048430605 222:0.057828781 223:0.071572463 224:0.038751281 225:0.048835252 226:0.092843853 227:0.060626424 228:0.046401478 229:0.056497978 230:0.02706767 231:0.05384829 232:0.072464043 233:0.048771387 234:0.044277914 235:0.086365649 236:0.12185295 237:0.12349428 238:0.14706499 239:0.085713779 240:0.070947674 241:0.17666628 242:0.09927448 243:0.31757876 244:0.22362427 245:0.21868761 246:0.19377074 247:0.11872382 248:0.15586735 249:0.22523973 250:0.23552132 251:0.17545615 252:0.12125766 253:0.2194796 254:0.10492095 255:0.12491876 256:0.13611889 257:0.18448414 258:0.21486875 259:0.1625626 260:0.15843157 261:0.13151515 262:0.15159017 263:0.21080742 264:0.20489857 265:0.19255843 266:0.30985933 267:0.32660709 268:0.40644488 269:0.32610519 270:0.23051142 
3.5 1:0.27104164 2:0.25545025 3:0.50954885 4:0.66207305 5:0.7044954 6:0.72961188 7:0.78749743 8:0.84170406 9:0.97242933 10:0.9582833 11:0.8474566 12:0.72247081 13:0.7409841 14:0.4832209 15:0.5492636 16:0.53041652 17:0.40005242 18:0.36951326 19:0.31042469 20:0.26222377 21:0.33574039 22:0.27285586 23:0.42192764 24:0.37785361 25:0.40820979 26:0.39934722 27:0.44737064 28:0.50531121 29:0.35655165 30:0.30127213 31:0.23143295 32:0.27027884 33:0.36971952 34:0.50560976 35:0.31344507 36:0.26646435 37:0.25533991 38:0.26727867 39:0.28009346 40:0.24409418 41:0.27183242 42:0.23530438 43:0.32744274 44:0.29466789 45:0.30853951 46:0.38148777 47:0.40272746 48:0.42826657 49:0.27241532 50:0.15304925 51:0.18988536 52:0.28132406 53:0.24911026 54:0.27539465 55:0.20512744 56:0.26872998 57:0.30400291 58:0.21145825 59:0.20673142 60:0.10858544 61:0.15611818 62:0.1747938 63:0.22966271 64:0.35298823 65:0.25831757 66:0.24728156 67:0.26975225 68:0.37520312 69:0.38320687 70:0.3745078 71:0.41167067 72:0.33734322 73:0.34085779 74:0.34822191 75:0.34975912 76:0.30302947 77:0.31305005 78:0.31555748 79:0.21651663 80:0.28051214 81:0.21133628 82:0.22935065 83:0.2809988 84:0.38768174 85:0.19947841 86:0.20869084 87:0.32005618 88:0.26899985 89:0.27294791 90:0.17518679 91:0.10610406 92:0.18026833 93:0.14580466 94:0.1674078 95:0.066069849 96:0.064850438 97:0.065676313 98:0.044521653 99:0.10837441 100:0.052846803 101:0.05058473 102:0.093960966 103:0.0759384 104:0.098591436 105:0.11584633 106:0.15121557 107:0.142253 108:0.15077239 109:0.16598077 110:0.21269855 111:0.18350464 112:0.2235829 113:0.17466239 114:0.19934232 115:0.22924892 116:0.24362437 117:0.32282878 118:0.21509164 119:0.29825934 120:0.26331753 121:0.70266248 122:0.87494302 123:0.99512403 124:0.94862569 125:0.98075294 126:0.99210349 127:1.0726921 128:1.097374 129:1.4320684 130:1.2211563 131:1.2204287 132:1.036435 133:1.0351097 134:0.76335798 135:0.89127578 136:0.67831865 137:0.66660577 138:0.54979771 139:0.51672941 140:0.31105501 141:0.26192338 142:0.18355051 143:0.22138043 144:0.21272458 145:0.16739382 146:0.19653212 147:0.24238334 148:0.31768651 149:0.32614047 150:0.2094869 151:0.1662538 152:0.23263345 153:0.25140203 154:0.25386071 155:0.2068525 156:0.15806413 157:0.060999811 158:0.20932335 159:0.38636399 160:0.46771816 161:0.56003748 162:0.53788408 163:0.53072767 164:0.59006925 165:0.663638 166:0.59178813 167:0.74645467 168:0.65095409 169:0.83282417 170:0.67620068 171:0.6392263 172:0.54970799 173:0.63623414 174:0.67507969 175:0.57516277 176:0.60541876 177:0.65220673 178:0.49576888 179:0.48788833 180:0.36644441 181:0.67617407 182:0.55888564 183:0.81311645 184:0.71749055 185:0.48838974 186:0.45318234 187:0.39454041 188:0.1637699 189:0.2359668 190:0.21238218 191:0.18354237 192:0.11698382 193:0.12949784 194:0.11500616 195:0.084904375 196:0.11780687 197:0.10824705 198:0.13714995 199:0.10653235 200:0.10562655 201:0.15619887 202:0.20261609 203:0.21788972 204:0.21854891 205:0.31451867 206:0.37239707 207:0.69605359 208:0.79624564 209:0.34202958 210:0.19109895 211:0.13191341 212:0.17162061 213:0.28620275 214:0.32287359 215:0.18566144 216:0.2438075 217:0.21977376 218:0.18562711 219:0.19948482 220:0.18266956 221:0.16500586 222:0.1910876 223:0.25536921 224:0.16622085 225:0.17178748 226:0.21809628 227:0.12766558 228:0.076059995 229:0.10552724 230:0.082509429 231:0.081689939 232:0.063112622 233:0.079154971 234:0.089894632 235:0.19086388 236:0.33518803 237:0.20924819 238:0.30782354 239:0.10142611 240:0.084967351 241:0.33494848 242:0.4487426 243:0.4779412 244:0.55043729 245:0.36195858 246:0.20842335 247:0.26810277 248:0.24628304 249:0.21763472 250:0.18145982 251:0.15729289 252:0.2376015 253:0.23351188 254:0.24543958 255:0.28808842 256:0.202103 257:0.4137743 258:0.36494197 259:0.3023022 260:0.25479459 261:0.17574305 262:0.24906462 263:0.19164871 264:0.26188922 265:0.35861662 266:0.4165378 267:0.42907823 268:0.57072077 269:0.50351247 270:0.34732728 
-3.5 1:0.91413186 2:1.5701774 3:1.8997055 4:2.1907462 5:2.3158882 6:2.5654029 7:2.1724759 8:2.3820469 9:2.5127381 10:2.2514651 11:1.8899237 12:1.7254868 13:1.529858 14:1.4439022 15:1.0935438 16:0.99816456 17:1.0509109 18:0.9365674 19:0.89001848 20:0.87526091 21:0.77110128 22:0.97368348 23:0.88850646 24:1.001861 25:0.77365365 26:0.84260581 27:1.2460991 28:0.76489009 29:0.85016554 30:0.44751663 31:1.1219322 32:1.7216555 33:1.9550294 34:2.0145217 35:1.9394076 36:2.0070109 37:1.5777877 38:1.4220517 39:1.5005674 40:1.4412157 41:1.0826285 42:1.1028781 43:1.1572777 44:1.0915026 45:1.4355153 46:1.4309817 47:1.299286 48:1.2317047 49:1.279554 50:1.1831151 51:1.1491087 52:1.0208328 53:0.97485812 54:0.87073347 55:0.84978547 56:0.85104075 57:0.84873022 58:0.73161404 59:0.43817561 60:0.24504094 61:0.55075144 62:1.0050012 63:1.0333632 64:1.2578995 65:1.5656013 66:1.5562445 67:1.4608536 68:1.4343979 69:1.4387705 70:1.6006414 71:1.4612897 72:1.4519341 73:1.548608 74:1.5282535 75:1.5141774 76:1.8129045 77:1.659016 78:1.4929512 79:1.7508683 80:1.6153005 81:1.7354102 82:1.9359777 83:1.8317262 84:1.7552428 85:1.3686784 86:1.535012 87:1.5147861 88:1.1855802 89:1.1139109 90:0.7658615 91:0.2013417 92:0.27549173 93:0.23211151 94:0.16551818 95:0.1788039 96:0.098917475 97:0.047321438 98:0.073881506 99:0.087500143 100:0.067708548 101:0.075802489 102:0.093978548 103:0.097310525 104:0.15449082 105:0.158207 106:0.1661397 107:0.19066338 108:0.23859171 109:0.18525269 110:0.26497724 111:0.34631513 112:0.28340728 113:0.31235605 114:0.33097928 115:0.34985993 116:0.38053272 117:0.36751106 118:0.37072263 119:0.3645911 120:0.34083851 121:0.90220341 122:1.4053024 123:1.5103772 124:1.7079693 125:1.7821628 126:1.9560589 127:1.7946271 128:1.7618672 129:2.5443567 130:2.0485261 131:1.9871364 132:1.6425355 133:1.6047903 134:1.2266689 135:1.4655685 136:1.3083119 137:1.0258684 138:0.92264662 139:0.5442715 140:0.46195532 141:0.4292263 142:0.18812254 143:0.26247294 144:0.18655483 145:0.2095653 146:0.18779474 147:0.31267005 148:0.22328451 149:0.282317 150:0.2555365 151:0.21131335 152:0.27524385 153:0.24756668 154:0.16986075 155:0.11600766 156:0.089864976 157:0.077285201 158:0.088855312 159:0.11930916 160:0.16331876 161:0.19853904 162:0.25802222 163:0.21693107 164:0.25217215 165:0.31383436 166:0.37302975 167:0.40735787 168:0.4513275 169:0.42896043 170:0.47371859 171:0.45411285 172:0.52433068 173:0.54026629 174:0.5280474 175:0.73950343 176:0.64515725 177:0.89097958 178:0.78404549 179:0.69721712 180:0.68189651 181:1.8247562 182:2.3421032 183:2.5941623 184:2.2020299 185:2.0578457 186:1.5427533 187:1.1363425 188:0.96305126 189:0.90178889 190:0.55507172 191:0.39710747 192:0.3060461 193:0.22764245 194:0.23645308 195:0.22274392 196:0.18194551 197:0.19587617 198:0.19868274 199:0.16698351 200:0.20038176 201:0.29360107 202:0.37043131 203:0.39479534 204:0.57769943 205:0.49708629 206:0.52828272 207:0.9200308 208:0.68982948 209:0.59723257 210:0.42045683 211:0.30764263 212:0.42862795 213:0.38923372 214:0.45364659 215:0.40826467 216:0.31327991 217:0.33528521 218:0.26609324 219:0.29686809 220:0.21483033 221:0.23497359 222:0.12839491 223:0.15740968 224:0.094667117 225:0.11379673 226:0.12921306 227:0.10386577 228:0.12518378 229:0.079989039 230:0.079083161 231:0.11659161 232:0.11005708 233:0.10518494 234:0.069915551 235:0.11688051 236:0.12452443 237:0.16115486 238:0.18070353 239:0.11429219 240:0.12824071 241:0.7471853 242:1.0158836 243:1.1375095 244:0.95681901 245:0.86063409 246:0.73700669 247:0.62946215 248:0.51684277 249:0.51761702 250:0.26550636 251:0.2846158 252:0.22092331 253:0.23621217 254:0.10528226 255:0.32766764 256:0.36898135 257:0.45134997 258:0.53037517 259:0.43258206 260:0.33803933 261:0.4173897 262:0.34456792 263:0.3301371 264:0.31217366 265:0.57219371 266:0.60588923 267:0.72701364 268:0.93261888 269:0.79455561 270:0.56039005 
-3.5 1:0.0889848 2:0.075540674 3:0.14049578 4:0.16081254 5:0.077066112 6:0.082320382 7:0.070225828 8:0.089603979 9:0.28293203 10:0.19627335 11:0.12226469 12:0.050352649 13:0.14514035 14:0.056353341 15:0.12290568 16:0.098080571 17:0.14139264 18:0.091440432 19:0.095286094 20:0.04539658 21:0.076413416 22:0.095855315 23:0.089985717 24:0.14746444 25:0.090129094 26:0.11149487 27:0.2165668 28:0.17318374 29:0.15456179 30:0.074298283 31:0.093723129 32:0.10217088 33:0.14565273 34:0.21584505 35:0.069281454 36:0.079519026 37:0.071572226 38:0.054949335 39:0.22062814 40:0.16964658 41:0.15155034 42:0.090364668 43:0.17347248 44:0.10460408 45:0.17324271 46:0.15392075 47:0.18693327 48:0.17388661 49:0.099026125 50:0.071380464 51:0.083680678 52:0.14165589 53:0.12471265 54:0.13141279 55:0.18308224 56:0.15994195 57:0.33636065 58:0.30512878 59:0.17888698 60:0.10609534 61:0.14237997 62:0.13612412 63:0.16658016 64:0.18518876 65:0.094362665 66:0.099141498 67:0.10350673 68:0.11440573 69:0.19332354 70:0.1750813 71:0.15810277 72:0.071680567 73:0.15517338 74:0.073440107 75:0.1299661 76:0.12826299 77:0.15544527 78:0.1273077 79:0.077530044 80:0.07115373 81:0.075432241 82:0.11896809 83:0.11605181 84:0.14113522 85:0.078994725 86:0.11414986 87:0.16018543 88:0.084158245 89:0.14889223 90:0.066276412 91:0.17465173 92:0.18374893 93:0.21995746 94:0.1507423 95:0.13922195 96:0.092317807 97:0.065927175 98:0.057152202 99:0.060315094 100:0.062125215 101:0.063816036 102:0.069855439 103:0.10298218 104:0.11590307 105:0.1343049 106:0.14050463 107:0.16435978 108:0.14134778 109:0.21627807 110:0.20124344 111:0.21177385 112:0.2470475 113:0.28741402 114:0.27843849 115:0.27733922 116:0.2411063 117:0.3779545 118:0.21399499 119:0.28892474 120:0.18595961 121:0.73661561 122:1.0618883 123:1.2870528 124:1.457948 125:1.1690876 126:1.3979118 127:1.1815255 128:1.2814544 129:1.2050599 130:1.1120509 131:0.91377172 132:1.1877667 133:1.3608789 134:0.91836218 135:0.78594912 136:0.70565015 137:0.63854159 138:0.48721469 139:0.4565316 140:0.28296376 141:0.20685785 142:0.2604562 143:0.19030051 144:0.18926834 145:0.17298779 146:0.21608297 147:0.2503649 148:0.23381965 149:0.24585086 150:0.23267415 151:0.22677602 152:0.17409004 153:0.14205243 154:0.11873794 155:0.11322804 156:0.090888916 157:0.045511465 158:0.051333549 159:0.071029407 160:0.12494886 161:0.092558088 162:0.2078351 163:0.16944005 164:0.16925956 165:0.18922769 166:0.22134896 167:0.23576245 168:0.20826371 169:0.37521544 170:0.3296969 171:0.39739939 172:0.34073342 173:0.39076012 174:0.41137663 175:0.43112806 176:0.46248723 177:0.61044049 178:0.58992912 179:0.54928285 180:0.35064377 181:3.1293817 182:3.4109166 183:4.0119154 184:3.9189677 185:2.7536188 186:2.1206405 187:1.6876226 188:1.1741478 189:0.8074148 190:0.67791552 191:0.438176 192:0.4194725 193:0.42256369 194:0.29996114 195:0.21985947 196:0.18778704 197:0.17647654 198:0.2233916 199:0.2308947 200:0.21805614 201:0.31412973 202:0.48382572 203:0.51497779 204:0.65381084 205:0.61720037 206:0.70084688 207:1.311192 208:1.0464169 209:0.73498115 210:0.50194477 211:0.35694957 212:0.48191608 213:0.52197794 214:0.56874585 215:0.45094978 216:0.41421591 217:0.39100357 218:0.2957396 219:0.28492325 220:0.19708483 221:0.1590898 222:0.11256756 223:0.10834719 224:0.083734645 225:0.10397985 226:0.10610126 227:0.090076586 228:0.0862485 229:0.059852355 230:0.06845116 231:0.061792707 232:0.066265513 233:0.06591778 234:0.066240362 235:0.08042884 236:0.11360234 237:0.18925245 238:0.21925863 239:0.10082309 240:0.061888465 241:1.0899537 242:1.3015544 243:1.4565864 244:1.2687991 245:1.1396424 246:1.028792 247:0.91376073 248:0.560641 249:0.51307581 250:0.57228618 251:0.38707259 252:0.34560495 253:0.34804926 254:0.30456691 255:0.27093262 256:0.41460663 257:0.45846181 258:0.57123116 259:0.60262059 260:0.57786387 261:0.4168625 262:0.54289927 263:0.43187392 264:0.30897392 265:0.4048402 266:0.55618117 267:0.64576639 268:0.84851197 269:0.73666752 270:0.60508132 
-3.5 1:0.40936515 2:0.45437139 3:0.59957658 4:0.68993346 5:0.69314984 6:0.64332425 7:0.76552752 8:0.76416412 9:0.84666303 10:0.74198991 11:0.63541524 12:0.52991999 13:0.56201659 14:0.43879505 15:0.41592016 16:0.34492114 17:0.34903837 18:0.34483633 19:0.31752128 20:0.28302731 21:0.39676422 22:0.30986892 23:0.44018625 24:0.34967238 25:0.36780738 26:0.47363676 27:0.59806892 28:0.47118106 29:0.30000981 30:0.16530352 31:0.42677814 32:0.50501314 33:0.57010921 34:0.61798463 35:0.60961207 36:0.54918068 37:0.52264356 38:0.52461887 39:0.56867601 40:0.6454609 41:0.52684235 42:0.39734594 43:0.40420355 44:0.53208141 45:0.6995442 46:0.62376754 47:0.53411247 48:0.70390908 49:0.43451208 50:0.50930658 51:0.45721904 52:0.39997361 53:0.48460502 54:0.37219722 55:0.4928242 56:0.53833765 57:0.44884003 58:0.52646112 59:0.28525878 60:0.23640758 61:0.24060755 62:0.42435315 63:0.42432685 64:0.36364768 65:0.70745638 66:0.50782931 67:0.69203448 68:0.43249094 69:0.58738187 70:0.57570851 71:0.57069143 72:0.52969244 73:0.60778297 74:0.48083343 75:0.62966013 76:0.52757697 77:0.55527183 78:0.61653647 79:0.52492618 80:0.53942641 81:0.59927413 82:0.45865959 83:0.6155943 84:0.73154425 85:0.44705171 86:0.47300319 87:0.61030562 88:0.40857519 89:0.45208083 90:0.30109235 91:0.26505281 92:0.37346231 93:0.32486438 94:0.29670698 95:0.22232991 96:0.15496304 97:0.098554179 98:0.072158268 99:0.098134899 100:0.052660289 101:0.057130574 102:0.11636238 103:0.15070856 104:0.13306526 105:0.14377184 106:0.1618299 107:0.22264304 108:0.21232151 109:0.23454279 110:0.24388893 111:0.3443405 112:0.31620867 113:0.35481855 114:0.3763616 115:0.32432625 116:0.41760993 117:0.47828223 118:0.3717651 119:0.47633979 120:0.27085936 121:1.0648433 122:1.4889181 123:1.7581252 124:2.015536 125:1.9869245 126:1.9895309 127:2.3055323 128:2.0513545 129:2.2091721 130:2.0677207 131:2.1618717 132:1.8986974 133:1.8728419 134:1.6424866 135:1.4023147 136:1.2967933 137:1.105695 138:0.85888398 139:0.54980062 140:0.47015038 141:0.44919634 142:0.2197914 143:0.23409786 144:0.1518892 145:0.22055597 146:0.20450072 147:0.20264707 148:0.22828482 149:0.33199823 150:0.23713712 151:0.24225164 152:0.2725652 153:0.25519569 154:0.18072328 155:0.13029089 156:0.11077302 157:0.063345656 158:0.064413275 159:0.078646695 160:0.10473901 161:0.13032336 162:0.18320905 163:0.26032112 164:0.23513125 165:0.26560159 166:0.38543357 167:0.3231598 168:0.46616057 169:0.48320285 170:0.44808562 171:0.58668143 172:0.58650512 173:0.66349244 174:0.60973442 175:0.77667662 176:0.85528903 177:0.90965586 178:0.79643092 179:0.90993982 180:0.61803464 181:1.3437965 182:1.802023 183:1.8724054 184:1.7386581 185:1.1840552 186:1.2382319 187:0.78351586 188:0.65987479 189:0.56364062 190:0.34139127 191:0.28348613 192:0.185662 193:0.20525638 194:0.18748493 195:0.17958896 196:0.14259432 197:0.16906646 198:0.12640216 199:0.17043891 200:0.14070933 201:0.16579378 202:0.24501352 203:0.27513218 204:0.3758914 205:0.42305415 206:0.53914273 207:0.94972043 208:0.84905852 209:0.57070344 210:0.40275396 211:0.21499853 212:0.24086365 213:0.30964685 214:0.27872419 215:0.23597001 216:0.30015522 217:0.24528718 218:0.19518896 219:0.25090589 220:0.16791859 221:0.16996825 222:0.12691501 223:0.13396715 224:0.07798666 225:0.11815038 226:0.11291146 227:0.080475743 228:0.074960625 229:0.08533385 230:0.087012767 231:0.085615286 232:0.088588752 233:0.095999041 234:0.078513235 235:0.10887674 236:0.16740173 237:0.24127686 238:0.24589174 239:0.10605678 240:0.092288832 241:0.61066239 242:0.85862895 243:0.8089238 244:0.68207404 245:0.67530756 246:0.59130794 247:0.62592557 248:0.52465844 249:0.47824257 250:0.25622315 251:0.28753516 252:0.30137312 253:0.26066378 254:0.20479713 255:0.31007251 256:0.31517542 257:0.32025689 258:0.29050504 259:0.28669488 260:0.3354191 261:0.26932227 262:0.35711091 263:0.27390031 264:0.23335821 265:0.30230114 266:0.47621304 267:0.65260838 268:0.74381197 269:0.76358415 270:0.46088797 
-3.5 1:0.1013264 2:0.067708849 3:0.14226453 4:0.15069229 5:0.072553697 6:0.084660912 7:0.10183544 8:0.085418448 9:0.2239004 10:0.19034 11:0.19743883 12:0.059859779 13:0.1480439 14:0.11889169 15:0.13954581 16:0.10185106 17:0.1526046 18:0.12119295 19:0.070411526 20:0.052970636 21:0.093527592 22:0.10630364 23:0.13498737 24:0.090125595 25:0.12154818 26:0.12782171 27:0.17791602 28:0.22842762 29:0.10702419 30:0.10212373 31:0.077914595 32:0.097274494 33:0.17095676 34:0.15863619 35:0.060280915 36:0.085212732 37:0.068579813 38:0.082825819 39:0.1248434 40:0.16833811 41:0.1399074 42:0.093692625 43:0.15036154 44:0.081689511 45:0.20248765 46:0.20724855 47:0.13889057 48:0.17790864 49:0.11884864 50:0.14131662 51:0.14252738 52:0.15732126 53:0.17134477 54:0.20925999 55:0.20207246 56:0.19567544 57:0.21481834 58:0.25642429 59:0.12453281 60:0.08626103 61:0.1289592 62:0.18122489 63:0.18732612 64:0.13001656 65:0.096972634 66:0.11842098 67:0.12549034 68:0.09370814 69:0.15832475 70:0.20544252 71:0.18885092 72:0.095000293 73:0.098993781 74:0.097633747 75:0.16236405 76:0.12800635 77:0.17651465 78:0.16349389 79:0.13252253 80:0.092123576 81:0.13396375 82:0.078072421 83:0.12117531 84:0.12997831 85:0.076349359 86:0.073402679 87:0.14877899 88:0.11637481 89:0.097017566 90:0.085227964 91:0.23595346 92:0.14811291 93:0.23286669 94:0.18337429 95:0.11916057 96:0.094687715 97:0.085417037 98:0.057855356 99:0.075616541 100:0.063384621 101:0.047561561 102:0.070004958 103:0.11351904 104:0.11424757 105:0.15510173 106:0.15404469 107:0.14686184 108:0.14321496 109:0.16153563 110:0.21091793 111:0.24634287 112:0.20660461 113:0.21240646 114:0.29449508 115:0.31215442 116:0.30636574 117:0.33627977 118:0.26419302 119:0.25025462 120:0.19520304 121:0.72684952 122:0.94263197 123:1.2456908 124:1.3067897 125:1.2603426 126:1.3392374 127:1.2761401 128:1.3503857 129:1.4146777 130:1.2488309 131:1.20495 132:1.2223324 133:1.2845355 134:1.0218534 135:0.73838035 136:0.72245645 137:0.8101395 138:0.59618129 139:0.49714556 140:0.27786276 141:0.24897576 142:0.28122309 143:0.16779795 144:0.26509008 145:0.22196343 146:0.31314655 147:0.17799637 148:0.26777032 149:0.26191533 150:0.20385433 151:0.1983599 152:0.19012102 153:0.24891769 154:0.14216918 155:0.1175547 156:0.073439021 157:0.074071576 158:0.069220687 159:0.087107229 160:0.092433024 161:0.14897662 162:0.1407563 163:0.21117147 164:0.20390601 165:0.18320758 166:0.22612204 167:0.27130081 168:0.30941107 169:0.31282792 170:0.29444097 171:0.32218613 172:0.39201439 173:0.43239864 174:0.48456781 175:0.45165751 176:0.59008323 177:0.56209934 178:0.49376187 179:0.58968325 180:0.37296405 181:2.8137507 182:3.5901817 183:3.7896407 184:3.146535 185:3.2304989 186:2.363406 187:1.8211706 188:1.5068749 189:1.0783174 190:0.79688276 191:0.63145965 192:0.4217805 193:0.2584185 194:0.26347605 195:0.26677362 196:0.19268815 197:0.24031823 198:0.23852793 199:0.34778208 200:0.31312797 201:0.29512004 202:0.41387706 203:0.51602805 204:0.51769321 205:0.60589309 206:0.67951083 207:1.1492464 208:1.2941629 209:0.68160625 210:0.50430967 211:0.32051314 212:0.46093274 213:0.54711007 214:0.51273334 215:0.56878311 216:0.50610093 217:0.31521378 218:0.38131156 219:0.36839387 220:0.23093843 221:0.27604947 222:0.17699194 223:0.15636597 224:0.16953132 225:0.11050162 226:0.11669071 227:0.092523075 228:0.090659625 229:0.088825072 230:0.074640412 231:0.038195287 232:0.078752172 233:0.07823494 234:0.092483141 235:0.12230195 236:0.10095529 237:0.27146267 238:0.18588984 239:0.15489908 240:0.092112295 241:1.2059739 242:1.4396141 243:1.4590133 244:1.2322258 245:1.3946013 246:1.0185865 247:0.90373149 248:0.84165831 249:0.72085313 250:0.50475835 251:0.40819515 252:0.37111024 253:0.27472861 254:0.26422796 255:0.28759951 256:0.35467436 257:0.42124924 258:0.54037649 259:0.36121788 260:0.53828334 261:0.44344152 262:0.30438247 263:0.3213467 264:0.28828806 265:0.3508559 266:0.5063317 267:0.58949826 268:0.96701393 269:0.88320633 270:0.65689764 
-3.5 1:0.077469893 2:0.066526072 3:0.13667695 4:0.17379796 5:0.079355432 6:0.11247238 7:0.13642553 8:0.11136161 9:0.25399619 10:0.25476384 11:0.14454333 12:0.079034315 13:0.12497639 14:0.10439124 15:0.16315563 16:0.1001414 17:0.16070405 18:0.13759989 19:0.1104965 20:0.095061264 21:0.077200012 22:0.14290424 23:0.14480693 24:0.14607021 25:0.0811486 26:0.15613454 27:0.19458461 28:0.19598231 29:0.14456404 30:0.065458757 31:0.094646589 32:0.10765123 33:0.17385514 34:0.17260859 35:0.08778346 36:0.10648993 37:0.10237087 38:0.094578216 39:0.17575916 40:0.10923552 41:0.10318153 42:0.086800995 43:0.15181493 44:0.10557217 45:0.16583826 46:0.17951905 47:0.16121959 48:0.11902678 49:0.16766703 50:0.15182742 51:0.1083365 52:0.15890304 53:0.18247871 54:0.23046039 55:0.12168679 56:0.18002626 57:0.2997148 58:0.23553604 59:0.1440135 60:0.1068195 61:0.13178421 62:0.15515369 63:0.19467192 64:0.17131391 65:0.17871729 66:0.14375939 67:0.16464578 68:0.16705718 69:0.20751434 70:0.18374129 71:0.16718921 72:0.08786152 73:0.13052487 74:0.10300251 75:0.19849878 76:0.15139572 77:0.21235381 78:0.14060278 79:0.10788909 80:0.11566319 81:0.087364113 82:0.089610832 83:0.10196147 84:0.21388551 85:0.088490787 86:0.10628102 87:0.17107187 88:0.15765621 89:0.085321685 90:0.094082316 91:0.16180408 92:0.16685749 93:0.18978761 94:0.15025134 95:0.1418741 96:0.077765286 97:0.075339082 98:0.078953148 99:0.029346601 100:0.049671035 101:0.072574944 102:0.057238588 103:0.099884274 104:0.071757878 105:0.11179548 106:0.16064678 107:0.18228063 108:0.17986079 109:0.18652116 110:0.15976625 111:0.20824748 112:0.1972091 113:0.21263186 114:0.22973153 115:0.22892895 116:0.23218775 117:0.23863877 118:0.27287434 119:0.23238841 120:0.2165981 121:0.68682296 122:0.83498733 123:0.91391727 124:1.102118 125:0.9726851 126:0.85728872 127:1.2298119 128:0.93783241 129:1.0101436 130:1.0154466 131:1.0834066 132:1.0577797 133:0.97678504 134:0.78160976 135:0.58551297 136:0.61994324 137:0.63923221 138:0.66071151 139:0.40705163 140:0.26033465 141:0.19413392 142:0.18492255 143:0.19872064 144:0.26373015 145:0.18691536 146:0.19848213 147:0.32976385 148:0.2561278 149:0.25832446 150:0.21581342 151:0.17603127 152:0.13437761 153:0.1336473 154:0.16772652 155:0.10562409 156:0.095886503 157:0.078077602 158:0.060181498 159:0.075652251 160:0.082481463 161:0.1156896 162:0.11867035 163:0.15713498 164:0.14631414 165:0.14179829 166:0.1626018 167:0.23039284 168:0.32823413 169:0.30193663 170:0.19346328 171:0.28361478 172:0.24755332 173:0.28004867 174:0.32891046 175:0.36152073 176:0.38770216 177:0.50087249 178:0.33241071 179:0.45474793 180:0.27851237 181:1.5088722 182:2.1077824 183:1.9728275 184:1.8750792 185:1.788241 186:1.5676029 187:0.81018111 188:0.75064773 189:0.74907061 190:0.5769729 191:0.35024326 192:0.24604149 193:0.18988414 194:0.15459228 195:0.19603305 196:0.22165131 197:0.20366361 198:0.17648534 199:0.1995854 200:0.16308275 201:0.234512 202:0.2568089 203:0.33677313 204:0.33239894 205:0.45175988 206:0.55599289 207:0.66006665 208:1.0601389 209:0.37779029 210:0.23964413 211:0.23153901 212:0.30693864 213:0.36900375 214:0.35188738 215:0.31235156 216:0.29064419 217:0.25587379 218:0.19026632 219:0.33424919 220:0.20215395 221:0.19974803 222:0.15136591 223:0.11068317 224:0.11420641 225:0.10746143 226:0.078811738 227:0.10117851 228:0.12491789 229:0.097672398 230:0.046586482 231:0.071381425 232:0.11005481 233:0.063146273 234:0.077680132 235:0.09034917 236:0.078859813 237:0.13480279 238:0.17621339 239:0.091662224 240:0.066203961 241:0.68779002 242:0.77583779 243:0.69240627 244:0.82905567 245:0.68939457 246:0.72951724 247:0.61740236 248:0.4618113 249:0.49082111 250:0.32215167 251:0.26443539 252:0.31516698 253:0.19749707 254:0.25936182 255:0.30686972 256:0.35037921 257:0.49651371 258:0.2672427 259:0.40021861 260:0.29254602 261:0.38828137 262:0.28182738 263:0.33675277 264:0.28923569 265:0.27483378 266:0.44344648 267:0.65016688 268:0.47778089 269:0.60532443 270:0.49732484 
-3.5 1:0.58486644 2:0.97914915 3:1.366757 4:1.3270379 5:1.7576654 6:1.6902928 7:1.5927499 8:1.5706702 9:1.7742265 10:1.5960003 11:1.3107647 12:1.1620513 13:1.0738163 14:1.1359006 15:0.92028294 16:0.74157371 17:0.76664464 18:0.66525276 19:0.60092826 20:0.62075184 21:0.62734466 22:0.62596144 23:0.71537039 24:0.66599345 25:0.57856365 26:0.70890134 27:0.82019251 28:0.63624725 29:0.49075702 30:0.36186411 31:0.94255743 32:1.0893202 33:1.4698908 34:1.4673047 35:1.3612455 36:1.2835527 37:1.3394801 38:1.0569483 39:1.0226492 40:0.89311055 41:0.72603247 42:0.58540478 43:0.79510195 44:0.76333301 45:0.97605016 46:1.1559653 47:1.142478 48:0.93603459 49:0.99517032 50:1.1066583 51:0.88033405 52:0.87353878 53:0.99057174 54:0.8006549 55:0.73195203 56:0.81958512 57:0.57079768 58:0.76072551 59:0.31101228 60:0.24548842 61:0.42289619 62:0.792152 63:0.65823704 64:0.67149227 65:1.0913584 66:0.9438208 67:1.0054774 68:0.94409062 69:1.1125695 70:1.1613363 71:1.0206565 72:0.92320867 73:1.1632675 74:0.96970095 75:1.1809893 76:1.2286888 77:1.210297 78:1.2211183 79:1.0307151 80:1.0517428 81:1.2288362 82:0.97999824 83:1.1095979 84:1.0376319 85:0.95138629 86:0.85256852 87:1.2091527 88:0.76420323 89:0.76576599 90:0.50625969 91:0.25896425 92:0.34172553 93:0.31859071 94:0.20676301 95:0.20111545 96:0.15954733 97:0.10456371 98:0.073453052 99:0.062732587 100:0.10499619 101:0.06512845 102:0.074774535 103:0.12236377 104:0.089927758 105:0.092693802 106:0.20109399 107:0.16658792 108:0.20208824 109:0.19379695 110:0.20201152 111:0.26991368 112:0.31589031 113:0.3057415 114:0.30876703 115:0.3403345 116:0.31248082 117:0.3915334 118:0.3118488 119:0.4003605 120:0.37385184 121:0.93152068 122:1.2812859 123:1.4089125 124:1.4826699 125:1.5940037 126:1.8242777 127:1.6591528 128:1.617157 129:2.2657431 130:2.0988392 131:2.0266428 132:1.6174721 133:1.4674421 134:1.125675 135:1.0665179 136:1.1357609 137:1.0350725 138:0.75839074 139:0.52842702 140:0.50696713 141:0.32475139 142:0.21661429 143:0.18648756 144:0.21236219 145:0.20221724 146:0.23660416 147:0.2759447 148:0.32869833 149:0.32793677 150:0.26465369 151:0.22258111 152:0.26543395 153:0.22121682 154:0.11607336 155:0.11694516 156:0.072870153 157:0.076591331 158:0.058523577 159:0.083850471 160:0.13100106 161:0.20222765 162:0.19502872 163:0.27389395 164:0.27851409 165:0.37983767 166:0.39943558 167:0.49684943 168:0.67112269 169:0.547983 170:0.67199247 171:0.61777796 172:0.6905652 173:0.70477316 174:0.76107765 175:0.74507508 176:0.78945129 177:0.95565129 178:0.98218519 179:0.87573241 180:0.83174016 181:2.039586 182:2.6581258 183:2.5136807 184:2.2210828 185:1.632017 186:1.4769558 187:0.92507444 188:0.90876168 189:0.86399083 190:0.52047127 191:0.37013531 192:0.29230585 193:0.20340066 194:0.15450539 195:0.18179278 196:0.16189447 197:0.17398313 198:0.13448896 199:0.14130861 200:0.16665797 201:0.16650916 202:0.35843883 203:0.34052545 204:0.42740723 205:0.30134499 206:0.41289772 207:1.1029716 208:1.0007001 209:0.62637042 210:0.39574179 211:0.37889092 212:0.53191094 213:0.57228081 214:0.53797718 215:0.45486858 216:0.48943634 217:0.40677628 218:0.3590587 219:0.34162482 220:0.29049835 221:0.19107195 222:0.19014636 223:0.13470975 224:0.12002263 225:0.13185705 226:0.1264125 227:0.12254394 228:0.096595841 229:0.081062658 230:0.07733947 231:0.083210223 232:0.088607414 233:0.077356839 234:0.073660427 235:0.079421976 236:0.10751274 237:0.23066442 238:0.19141087 239:0.16299933 240:0.089395197 241:1.2184238 242:1.41375 243:1.32994 244:1.0017618 245:0.85402858 246:0.81531724 247:0.54224488 248:0.35816464 249:0.37103318 250:0.39379645 251:0.29709499 252:0.21605634 253:0.25125935 254:0.19958555 255:0.30423213 256:0.47495928 257:0.56121815 258:0.41871383 259:0.52549515 260:0.53764673 261:0.36920435 262:0.33412739 263:0.40317237 264:0.52389589 265:0.57682192 266:0.75327596 267:1.1413006 268:1.3120481 269:0.90543109 270:0.86976476 
-3.5 1:0.51529363 2:0.63304756 3:0.88718165 4:1.0304217 5:0.95682089 6:1.0159265 7:0.97346502 8:0.94147564 9:1.1626862 10:1.0302991 11:0.9999423 12:0.69895225 13:0.64101733 14:0.67232185 15:0.46099671 16:0.44228053 17:0.49342233 18:0.44894479 19:0.37055835 20:0.28325992 21:0.32621027 22:0.38784701 23:0.4217957 24:0.4395832 25:0.28509813 26:0.34855228 27:0.54617994 28:0.36907209 29:0.40413895 30:0.21791421 31:0.54788693 32:0.69897521 33:0.8822466 34:0.87155508 35:0.83417295 36:0.85502353 37:0.93704451 38:0.72981559 39:0.83953271 40:0.7891966 41:0.70471565 42:0.5973119 43:0.84857606 44:0.66619596 45:0.93320455 46:0.79476825 47:0.83101287 48:0.8727034 49:0.88100176 50:0.76392738 51:0.73715291 52:0.56975005 53:0.80397412 54:0.70686868 55:0.49911143 56:0.57787502 57:0.65404224 58:0.53995603 59:0.35629549 60:0.24431401 61:0.25859289 62:0.41784194 63:0.49950074 64:0.56557786 65:0.50453532 66:0.64980326 67:0.60855402 68:0.67819528 69:0.78092239 70:0.7324537 71:0.6877862 72:0.68280908 73:0.7503598 74:0.75003292 75:0.69909567 76:0.77886151 77:0.7508757 78:0.70383902 79:0.67272255 80:0.73592648 81:0.66804617 82:0.61979277 83:0.70792015 84:0.79051557 85:0.58496715 86:0.52196185 87:0.698764 88:0.44863506 89:0.48011577 90:0.36435768 91:0.16979582 92:0.19414853 93:0.23236159 94:0.18826122 95:0.09657871 96:0.096424109 97:0.084023701 98:0.056713573 99:0.060407735 100:0.073867662 101:0.040639707 102:0.07296742 103:0.087898593 104:0.10207207 105:0.1315364 106:0.10029853 107:0.12892324 108:0.1391346 109:0.16098159 110:0.15353717 111:0.16118123 112:0.18286973 113:0.25683828 114:0.26257502 115:0.23618067 116:0.20560292 117:0.3526659 118:0.24875081 119:0.20493612 120:0.19986699 121:0.61815957 122:0.90996017 123:1.0723601 124:1.4036123 125:0.94620071 126:1.1567239 127:1.1746442 128:1.1755833 129:1.4229128 130:1.1400152 131:1.0826455 132:1.0824389 133:1.0609473 134:0.79220388 135:0.68183989 136:0.78906969 137:0.65336222 138:0.4961351 139:0.48559198 140:0.2970664 141:0.23515241 142:0.21763778 143:0.18059295 144:0.16798177 145:0.19924413 146:0.28491462 147:0.25975522 148:0.26989386 149:0.26070961 150:0.21792394 151:0.15348286 152:0.15859936 153:0.17232803 154:0.11547164 155:0.13057847 156:0.07237416 157:0.060197401 158:0.08417188 159:0.095011976 160:0.12580858 161:0.087887347 162:0.18685957 163:0.15539435 164:0.19104019 165:0.18763842 166:0.27825809 167:0.33642986 168:0.33025454 169:0.33378443 170:0.3372288 171:0.33264019 172:0.43098697 173:0.35534015 174:0.42522573 175:0.40675419 176:0.42520138 177:0.5689001 178:0.58901522 179:0.57844877 180:0.33191004 181:0.12731837 182:0.12024345 183:0.2886604 184:0.25518778 185:0.11080755 186:0.12669694 187:0.12095641 188:0.087156725 189:0.15176058 190:0.13074792 191:0.14363725 192:0.071999323 193:0.073858076 194:0.080355682 195:0.087106476 196:0.086443559 197:0.092207775 198:0.11692604 199:0.087783714 200:0.11299116 201:0.085208096 202:0.10168956 203:0.13165842 204:0.097633093 205:0.17777784 206:0.26856946 207:0.47600644 208:0.62531137 209:0.30587732 210:0.2018573 211:0.054991242 212:0.042866141 213:0.084196694 214:0.087290315 215:0.055697861 216:0.045640724 217:0.04464474 218:0.063704702 219:0.06783682 220:0.066066954 221:0.060715732 222:0.051014996 223:0.063795281 224:0.058291274 225:0.052921272 226:0.066032168 227:0.10097973 228:0.087493081 229:0.057538966 230:0.055587602 231:0.06077566 232:0.079199825 233:0.071896617 234:0.070391481 235:0.12740404 236:0.14543505 237:0.15896753 238:0.24433714 239:0.11751977 240:0.072365488 241:0.13717956 242:0.17463416 243:0.2595905 244:0.26379326 245:0.18305411 246:0.13706994 247:0.084602041 248:0.12856801 249:0.19520842 250:0.18133091 251:0.15270961 252:0.15257632 253:0.18380317 254:0.13360266 255:0.18565473 256:0.2078415 257:0.17907647 258:0.16163337 259:0.16545361 260:0.14199 261:0.1553227 262:0.20487336 263:0.15077269 264:0.22105335 265:0.25526669 266:0.27242576 267:0.23886612 268:0.39667679 269:0.24341149 270:0.18787739 
-3.5 1:0.42435429 2:0.71506264 3:0.85808203 4:1.031359 5:1.1763236 6:1.2951091 7:1.2118351 8:1.3166577 9:1.3622741 10:1.3409711 11:1.0084698 12:0.90969549 13:0.83576357 14:0.7070909 15:0.67400888 16:0.56010013 17:0.59596758 18:0.47970845 19:0.49325415 20:0.40947833 21:0.43593418 22:0.41581463 23:0.5866374 24:0.47063861 25:0.61808216 26:0.6235623 27:0.57386871 28:0.63988606 29:0.46771967 30:0.39615773 31:0.43475733 32:0.69344799 33:0.71189266 34:0.83926743 35:0.64398059 36:0.78301971 37:0.63987897 38:0.58401216 39:0.71511822 40:0.64469347 41:0.51083382 42:0.57948953 43:0.42441899 44:0.55904978 45:0.61456611 46:0.73464366 47:0.68483906 48:0.57509805 49:0.57727038 50:0.52698718 51:0.49765044 52:0.50152491 53:0.47523811 54:0.36846229 55:0.44483395 56:0.40137862 57:0.31436105 58:0.47253165 59:0.20853013 60:0.14973148 61:0.2726692 62:0.46302607 63:0.38542268 64:0.44426503 65:0.580087 66:0.65017574 67:0.69344713 68:0.61261997 69:0.8232708 70:0.89479625 71:0.75619226 72:0.60803666 73:0.71916556 74:0.71856272 75:0.58676072 76:0.72055248 77:0.82227157 78:0.81227965 79:0.70536115 80:0.70367329 81:0.77097526 82:0.75636317 83:0.77427385 84:0.81893552 85:0.68734135 86:0.60228611 87:0.6067637 88:0.51035698 89:0.36493021 90:0.36573947 91:0.16002852 92:0.30860064 93:0.23384882 94:0.24799117 95:0.07021496 96:0.1012908 97:0.095203937 98:0.05726342 99:0.0675109 100:0.05890637 101:0.071489506 102:0.073667312 103:0.09916802 104:0.10450508 105:0.089438912 106:0.12770598 107:0.15073055 108:0.18682982 109:0.19308305 110:0.29938361 111:0.28490598 112:0.31110882 113:0.30541299 114:0.37781506 115:0.29023202 116:0.34913973 117:0.53594621 118:0.27180827 119:0.4628098 120:0.24838711 121:0.80269493 122:1.1501046 123:1.4679582 124:1.5515783 125:1.4398797 126:1.5945513 127:1.2360294 128:1.5059121 129:1.6571629 130:1.5388953 131:1.3352532 132:1.376599 133:1.501546 134:1.0275856 135:1.0029407 136:0.96276945 137:0.74038494 138:0.47848635 139:0.41307793 140:0.44414002 141:0.33298671 142:0.18071238 143:0.27459143 144:0.21523047 145:0.19084523 146:0.25712128 147:0.27643554 148:0.29792209 149:0.27401579 150:0.22335198 151:0.20167761 152:0.23486695 153:0.21526202 154:0.13577864 155:0.10288343 156:0.08162774 157:0.081050759 158:0.046723868 159:0.10772147 160:0.1206973 161:0.11986076 162:0.17375239 163:0.22125106 164:0.28312943 165:0.27173154 166:0.27713972 167:0.36248061 168:0.37939621 169:0.42079554 170:0.5401845 171:0.49607825 172:0.5347369 173:0.6121611 174:0.76816699 175:0.56629807 176:0.69627037 177:0.82057127 178:0.77515739 179:0.7094209 180:0.46884616 181:0.192035 182:0.14667441 183:0.40363982 184:0.36827089 185:0.11787493 186:0.13505353 187:0.07663127 188:0.1239788 189:0.26126725 190:0.19111677 191:0.13001465 192:0.074236238 193:0.11402046 194:0.085081165 195:0.14027674 196:0.09186679 197:0.099887436 198:0.09641275 199:0.094118568 200:0.10763312 201:0.097147056 202:0.10893398 203:0.12198985 204:0.12171106 205:0.26134983 206:0.24410902 207:0.43446928 208:0.66379804 209:0.30634525 210:0.20609777 211:0.05209058 212:0.05319613 213:0.093675015 214:0.11860048 215:0.054935464 216:0.048570515 217:0.054522353 218:0.049312686 219:0.080315906 220:0.077368322 221:0.048430605 222:0.057828781 223:0.071572463 224:0.038751281 225:0.048835252 226:0.092843853 227:0.060626424 228:0.046401478 229:0.056497978 230:0.02706767 231:0.05384829 232:0.072464043 233:0.048771387 234:0.044277914 235:0.086365649 236:0.12185295 237:0.12349428 238:0.14706499 239:0.085713779 240:0.070947674 241:0.17666628 242:0.09927448 243:0.31757876 244:0.22362427 245:0.21868761 246:0.19377074 247:0.11872382 248:0.15586735 249:0.22523973 250:0.23552132 251:0.17545615 252:0.12125766 253:0.2194796 254:0.10492095 255:0.12491876 256:0.13611889 257:0.18448414 258:0.21486875 259:0.1625626 260:0.15843157 261:0.13151515 262:0.15159017 263:0.21080742 264:0.20489857 265:0.19255843 266:0.30985933 267:0.32660709 268:0.40644488 269:0.32610519 270:0.23051142 
-3.5 1:0.27104164 2:0.25545025 3:0.50954885 4:0.66207305 5:0.7044954 6:0.72961188 7:0.78749743 8:0.84170406 9:0.97242933 10:0.9582833 11:0.8474566 12:0.72247081 13:0.7409841 14:0.4832209 15:0.5492636 16:0.53041652 17:0.40005242 18:0.36951326 19:0.31042469 20:0.26222377 21:0.33574039 22:0.27285586 23:0.42192764 24:0.37785361 25:0.40820979 26:0.39934722 27:0.44737064 28:0.50531121 29:0.35655165 30:0.30127213 31:0.23143295 32:0.27027884 33:0.36971952 34:0.50560976 35:0.31344507 36:0.26646435 37:0.25533991 38:0.26727867 39:0.28009346 40:0.24409418 41:0.27183242 42:0.23530438 43:0.32744274 44:0.29466789 45:0.30853951 46:0.38148777 47:0.40272746 48:0.42826657 49:0.27241532 50:0.15304925 51:0.18988536 52:0.28132406 53:0.24911026 54:0.27539465 55:0.20512744 56:0.26872998 57:0.30400291 58:0.21145825 59:0.20673142 60:0.10858544 61:0.15611818 62:0.1747938 63:0.22966271 64:0.35298823 65:0.25831757 66:0.24728156 67:0.26975225 68:0.37520312 69:0.38320687 70:0.3745078 71:0.41167067 72:0.33734322 73:0.34085779 74:0.34822191 75:0.34975912 76:0.30302947 77:0.31305005 78:0.31555748 79:0.21651663 80:0.28051214 81:0.21133628 82:0.22935065 83:0.2809988 84:0.38768174 85:0.19947841 86:0.20869084 87:0.32005618 88:0.26899985 89:0.27294791 90:0.17518679 91:0.10610406 92:0.18026833 93:0.14580466 94:0.1674078 95:0.066069849 96:0.064850438 97:0.065676313 98:0.044521653 99:0.10837441 100:0.052846803 101:0.05058473 102:0.093960966 103:0.0759384 104:0.098591436 105:0.11584633 106:0.15121557 107:0.142253 108:0.15077239 109:0.16598077 110:0.21269855 111:0.18350464 112:0.2235829 113:0.17466239 114:0.19934232 115:0.22924892 116:0.24362437 117:0.32282878 118:0.21509164 119:0.29825934 120:0.26331753 121:0.70266248 122:0.87494302 123:0.99512403 124:0.94862569 125:0.98075294 126:0.99210349 127:1.0726921 128:1.097374 129:1.4320684 130:1.2211563 131:1.2204287 132:1.036435 133:1.0351097 134:0.76335798 135:0.89127578 136:0.67831865 137:0.66660577 138:0.54979771 139:0.51672941 140:0.31105501 141:0.26192338 142:0.18355051 143:0.22138043 144:0.21272458 145:0.16739382 146:0.19653212 147:0.24238334 148:0.31768651 149:0.32614047 150:0.2094869 151:0.1662538 152:0.23263345 153:0.25140203 154:0.25386071 155:0.2068525 156:0.15806413 157:0.060999811 158:0.20932335 159:0.38636399 160:0.46771816 161:0.56003748 162:0.53788408 163:0.53072767 164:0.59006925 165:0.663638 166:0.59178813 167:0.74645467 168:0.65095409 169:0.83282417 170:0.67620068 171:0.6392263 172:0.54970799 173:0.63623414 174:0.67507969 175:0.57516277 176:0.60541876 177:0.65220673 178:0.49576888 179:0.48788833 180:0.36644441 181:0.67617407 182:0.55888564 183:0.81311645 184:0.71749055 185:0.48838974 186:0.45318234 187:0.39454041 188:0.1637699 189:0.2359668 190:0.21238218 191:0.18354237 192:0.11698382 193:0.12949784 194:0.11500616 195:0.084904375 196:0.11780687 197:0.10824705 198:0.13714995 199:0.10653235 200:0.10562655 201:0.15619887 202:0.20261609 203:0.21788972 204:0.21854891 205:0.31451867 206:0.37239707 207:0.69605359 208:0.79624564 209:0.34202958 210:0.19109895 211:0.13191341 212:0.17162061 213:0.28620275 214:0.32287359 215:0.18566144 216:0.2438075 217:0.21977376 218:0.18562711 219:0.19948482 220:0.18266956 221:0.16500586 222:0.1910876 223:0.25536921 224:0.16622085 225:0.17178748 226:0.21809628 227:0.12766558 228:0.076059995 229:0.10552724 230:0.082509429 231:0.081689939 232:0.063112622 233:0.079154971 234:0.089894632 235:0.19086388 236:0.33518803 237:0.20924819 238:0.30782354 239:0.10142611 240:0.084967351 241:0.33494848 242:0.4487426 243:0.4779412 244:0.55043729 245:0.36195858 246:0.20842335 247:0.26810277 248:0.24628304 249:0.21763472 250:0.18145982 251:0.15729289 252:0.2376015 253:0.23351188 254:0.24543958 255:0.28808842 256:0.202103 257:0.4137743 258:0.36494197 259:0.3023022 260:0.25479459 261:0.17574305 262:0.24906462 263:0.19164871 264:0.26188922 265:0.35861662 266:0.4165378 267:0.42907823 268:0.57072077 269:0.50351247 270:0.34732728 
-3.5 1:0.053642422 2:0.062289329 3:0.1381311 4:0.11042552 5:0.050365114 6:0.069123484 7:0.047471159 8:0.045958444 9:0.27356912 10:0.20169608 11:0.13057225 12:0.051021545 13:0.13234211 14:0.067669045 15:0.10786071 16:0.1010345 17:0.11846493 18:0.088994257 19:0.058535749 20:0.064092607 21:0.074470482 22:0.082843672 23:0.079974445 24:0.12267727 25:0.11498664 26:0.12973931 27:0.21391394 28:0.19791533 29:0.12788307 30:0.086026999 31:0.087648581 32:0.036706307 33:0.19073482 34:0.17777553 35:0.05182486 36:0.064950024 37:0.050763969 38:0.04900849 39:0.1457586 40:0.10711041 41:0.098367082 42:0.12257756 43:0.19251158 44:0.086358906 45:0.10027611 46:0.095652671 47:0.12561096 48:0.079982833 49:0.09753659 50:0.052201731 51:0.039654824 52:0.089293599 53:0.088423517 54:0.1039874 55:0.09941561 56:0.12957252 57:0.14005007 58:0.17563217 59:0.10859849 60:0.10672537 61:0.11950147 62:0.12415873 63:0.16363008 64:0.18766234 65:0.10119842 66:0.099358146 67:0.10881961 68:0.090200073 69:0.2568412 70:0.17995354 71:0.17399383 72:0.056299172 73:0.16556705 74:0.052694323 75:0.1304625 76:0.10529809 77:0.18375979 78:0.11437975 79:0.061983647 80:0.064531828 81:0.061769893 82:0.12988324 83:0.15396401 84:0.18213684 85:0.086418878 86:0.050275563 87:0.21231397 88:0.093023184 89:0.1412181 90:0.062395421 91:0.15032881 92:0.17354421 93:0.17871453 94:0.1784395 95:0.13023077 96:0.080676371 97:0.073683089 98:0.055358238 99:0.056279355 100:0.05941896 101:0.080613264 102:0.11060025 103:0.1084338 104:0.11054636 105:0.13033849 106:0.11203642 107:0.17619293 108:0.15688718 109:0.2653757 110:0.23158096 111:0.23389856 112:0.24659443 113:0.32726659 114:0.27566066 115:0.28578408 116:0.39933722 117:0.32314871 118:0.33604122 119:0.29066925 120:0.28369023 121:0.74023927 122:1.0305665 123:1.292472 124:1.3815678 125:1.2521821 126:1.4971946 127:1.3631379 128:1.3546903 129:1.6737661 130:1.4502045 131:1.3580448 132:1.0491406 133:1.0485187 134:0.8188112 135:0.91847481 136:0.75725863 137:0.79965505 138:0.44827014 139:0.44062504 140:0.29471955 141:0.26063449 142:0.19585198 143:0.23091828 144:0.16881226 145:0.22307164 146:0.16911018 147:0.15276515 148:0.29959363 149:0.30946588 150:0.239508 151:0.22271818 152:0.26347714 153:0.23449053 154:0.13755987 155:0.15182715 156:0.10921911 157:0.070622983 158:0.07980245 159:0.059861337 160:0.092493818 161:0.099076533 162:0.11116632 163:0.15578648 164:0.15691091 165:0.15952282 166:0.24196532 167:0.33427496 168:0.25223975 169:0.29891922 170:0.3046625 171:0.31127391 172:0.34998282 173:0.39295198 174:0.51204736 175:0.5259135 176:0.54361632 177:0.78953019 178:0.71395235 179:0.60858408 180:0.45082203 181:0.18830437 182:0.10103492 183:0.35533767 184:0.35247666 185:0.060423072 186:0.088289288 187:0.087215592 188:0.10618667 189:0.13757919 190:0.1147193 191:0.059900421 192:0.069033719 193:0.082125523 194:0.050124777 195:0.080307657 196:0.093924023 197:0.088474657 198:0.073973807 199:0.079437193 200:0.059481503 201:0.057807128 202:0.1252315 203:0.13440418 204:0.14077977 205:0.19453478 206:0.27665722 207:0.68873994 208:0.61953207 209:0.2449658 210:0.17235004 211:0.038455474 212:0.042647367 213:0.060817999 214:0.05842845 215:0.060512132 216:0.07064088 217:0.040654654 218:0.043958021 219:0.091116643 220:0.1012327 221:0.052492644 222:0.049700506 223:0.059079312 224:0.066687896 225:0.0533213 226:0.061412842 227:0.055958602 228:0.049867666 229:0.056829565 230:0.035989704 231:0.063289956 232:0.036788378 233:0.081545947 234:0.06236999 235:0.067390872 236:0.099853095 237:0.11928868 238:0.14163819 239:0.060724833 240:0.043306499 241:0.094529964 242:0.17614057 243:0.21737526 244:0.31299936 245:0.15145103 246:0.086092886 247:0.14987325 248:0.12059566 249:0.13056143 250:0.090524482 251:0.22104432 252:0.13660239 253:0.14572073 254:0.11594187 255:0.085718806 256:0.14803529 257:0.16966717 258:0.14996082 259:0.1303117 260:0.11498816 261:0.093648982 262:0.15647623 263:0.19629962 264:0.12874654 265:0.14398355 266:0.1599449 267:0.33550482 268:0.31234301 269:0.23345658 270:0.1062434 
