svm_type c_svc
kernel_type rbf
gamma 6e-05
nr_class 6
total_sv 708
rho -0.0466055 0.0389842 0.305199 0.352554 0.461456 -1.0336 -0.418242 -0.0139768 0.0463743 0.170803 -1.09364 -0.430655 -3.38952 -1.20386 0.644941
label 0 1 2 3 4 5
nr_sv 4 46 119 177 209 153
SV
4 4 3.058456149788411 1.574144303869451 1.658595976412155 1:0.3035 2:0.3661 3:0.3669 4:0.3043 5:0.246 6:0.1995 7:0.1336 8:0.1077 9:0.0989 10:0.085 11:0.0646 12:0.0738 13:0.0866 14:0.0992 15:0.1216 16:0.1263 17:0.1603 18:0.1799 19:0.2032 20:0.2066 21:0.2396 22:0.2485 23:0.265 24:0.2707 25:0.2704 26:0.2681 27:0.3371 28:0.3296 29:0.3528 30:0.2787 31:1.1233 32:1.5244 33:1.7502 34:1.8605 35:1.8431 36:2.0006 37:1.9215 38:2.0159 39:2.1972 40:2.0149 41:1.8365 42:1.6504 43:1.5348 44:1.2766 45:1.2088 46:1.1427 47:0.9769 48:0.8199 49:0.6708 50:0.5545 51:0.4771 52:0.3872 53:0.3645 54:0.3253 55:0.3119 56:0.325 57:0.3169 58:0.3218 59:0.3107 60:0.285 61:0.1469 62:0.1271 63:0.1084 64:0.0613 65:0.0429 66:0.0618 67:0.0879 68:0.1387 69:0.193 70:0.2405 71:0.2776 72:0.3035 73:0.3572 74:0.3189 75:0.3389 76:0.378 77:0.3956 78:0.4068 79:0.4228 80:0.4311 81:0.5007 82:0.5892 83:0.7276 84:0.9073 85:0.9462 86:1.1309 87:1.4253 88:1.2108 89:1.1958 90:0.8513 91:0.0361 92:0.039 93:0.0355 94:0.0344 95:0.0331 96:0.0486 97:0.0491 98:0.0505 99:0.0385 100:0.0538 101:0.0271 102:0.0337 103:0.0445 104:0.0512 105:0.0489 106:0.0518 107:0.0362 108:0.0533 109:0.0476 110:0.0419 111:0.0369 112:0.0529 113:0.0372 114:0.0461 115:0.0501 116:0.0516 117:0.0598 118:0.0471 119:0.0618 120:0.053 121:0.0301 122:0.0364 123:0.0434 124:0.0487 125:0.0315 126:0.041 127:0.0443 128:0.0399 129:0.0454 130:0.0459 131:0.0537 132:0.0407 133:0.0554 134:0.046 135:0.0525 136:0.0596 137:0.0542 138:0.0565 139:0.0384 140:0.0461 141:0.0447 142:0.0532 143:0.0502 144:0.0461 145:0.0553 146:0.0669 147:0.0816 148:0.0648 149:0.0488 150:0.0437 151:0.0897 152:0.0883 153:0.1647 154:0.1875 155:0.0964 156:0.0954 157:0.1329 158:0.1143 159:0.1922 160:0.1541 161:0.1337 162:0.0892 163:0.1126 164:0.0747 165:0.1283 166:0.1262 167:0.1132 168:0.1368 169:0.1138 170:0.072 171:0.0866 172:0.1534 173:0.1653 174:0.1715 175:0.1577 176:0.2166 177:0.3515 178:0.2765 179:0.1653 180:0.1187 
1.774506538315278 0 0 0 0 1:0.276 2:0.3439 3:0.3331 4:0.2967 5:0.2256 6:0.1798 7:0.132 8:0.1028 9:0.0961 10:0.0864 11:0.0759 12:0.0757 13:0.0915 14:0.1079 15:0.1278 16:0.1446 17:0.178 18:0.1863 19:0.2081 20:0.2157 21:0.2506 22:0.2605 23:0.2664 24:0.2807 25:0.2799 26:0.306 27:0.3814 28:0.3533 29:0.3889 30:0.2937 31:0.9692 32:1.2874 33:1.5155 34:1.6247 35:1.5371 36:1.6203 37:1.5914 38:1.6804 39:1.9316 40:1.6724 41:1.5777 42:1.4125 43:1.3516 44:1.0482 45:1.0153 46:0.9587 47:0.7994 48:0.65 49:0.5576 50:0.4862 51:0.4208 52:0.3289 53:0.3496 54:0.289 55:0.3183 56:0.3554 57:0.334 58:0.3545 59:0.315 60:0.2792 61:0.1351 62:0.1358 63:0.1156 64:0.081 65:0.0703 66:0.0799 67:0.1143 68:0.1591 69:0.2246 70:0.2563 71:0.2829 72:0.3253 73:0.3485 74:0.3315 75:0.3474 76:0.3762 77:0.3979 78:0.4126 79:0.4206 80:0.438 81:0.5132 82:0.6009 83:0.7153 84:0.8732 85:0.9424 86:1.0812 87:1.3443 88:1.1375 89:1.1784 90:0.8163 91:0.0353 92:0.0472 93:0.0334 94:0.0367 95:0.0322 96:0.0505 97:0.0537 98:0.0532 99:0.0395 100:0.0482 101:0.0362 102:0.0471 103:0.0375 104:0.0428 105:0.0417 106:0.0444 107:0.0467 108:0.0539 109:0.0426 110:0.0391 111:0.0414 112:0.0518 113:0.0427 114:0.0524 115:0.0528 116:0.0463 117:0.067 118:0.0525 119:0.0599 120:0.0522 121:0.0324 122:0.0399 123:0.0428 124:0.0543 125:0.0321 126:0.0458 127:0.0493 128:0.0347 129:0.0545 130:0.0467 131:0.0549 132:0.0399 133:0.0538 134:0.05 135:0.0535 136:0.0621 137:0.0594 138:0.0517 139:0.0473 140:0.0454 141:0.0515 142:0.0487 143:0.0517 144:0.0529 145:0.0562 146:0.0617 147:0.0893 148:0.0682 149:0.0476 150:0.0446 151:0.0872 152:0.0972 153:0.1697 154:0.184 155:0.1053 156:0.0955 157:0.1432 158:0.1131 159:0.2061 160:0.1434 161:0.1427 162:0.0846 163:0.1178 164:0.0708 165:0.1263 166:0.1232 167:0.1148 168:0.1326 169:0.1112 170:0.0754 171:0.0787 172:0.1639 173:0.1667 174:0.1771 175:0.1657 176:0.2232 177:0.3631 178:0.294 179:0.1887 180:0.1016 
4 0.3232593057653134 0 0 0 1:0.2885 2:0.3477 3:0.343 4:0.2986 5:0.2317 6:0.1876 7:0.139 8:0.1047 9:0.0947 10:0.0901 11:0.0761 12:0.078 13:0.0892 14:0.1111 15:0.1304 16:0.1458 17:0.1851 18:0.1939 19:0.212 20:0.2281 21:0.2559 22:0.2634 23:0.2687 24:0.2823 25:0.2826 26:0.3171 27:0.3805 28:0.3701 29:0.3848 30:0.2991 31:0.9963 32:1.3511 33:1.5449 34:1.6502 35:1.5918 36:1.6833 37:1.6662 38:1.7107 39:2.0154 40:1.7717 41:1.6484 42:1.4466 43:1.353 44:1.0781 45:1.0493 46:0.9827 47:0.8538 48:0.6974 49:0.5898 50:0.5035 51:0.4389 52:0.3401 53:0.3573 54:0.2961 55:0.3275 56:0.35 57:0.3316 58:0.3451 59:0.3168 60:0.2774 61:0.1403 62:0.1412 63:0.1135 64:0.0803 65:0.0726 66:0.0821 67:0.1176 68:0.1617 69:0.2327 70:0.2668 71:0.2953 72:0.3369 73:0.3559 74:0.3437 75:0.358 76:0.3892 77:0.4122 78:0.4308 79:0.4301 80:0.4476 81:0.5298 82:0.6093 83:0.7161 84:0.8884 85:0.9611 86:1.1168 87:1.3559 88:1.1874 89:1.1948 90:0.8541 91:0.0351 92:0.0491 93:0.0321 94:0.0351 95:0.0317 96:0.0496 97:0.0519 98:0.0525 99:0.0378 100:0.0489 101:0.035 102:0.047 103:0.0384 104:0.0423 105:0.0425 106:0.045 107:0.0453 108:0.0534 109:0.0425 110:0.0391 111:0.0419 112:0.0513 113:0.0418 114:0.0526 115:0.0528 116:0.0469 117:0.0654 118:0.0511 119:0.0582 120:0.0527 121:0.034 122:0.0389 123:0.0414 124:0.0538 125:0.0316 126:0.0467 127:0.0493 128:0.0342 129:0.0528 130:0.047 131:0.0513 132:0.0406 133:0.0545 134:0.0507 135:0.0567 136:0.0608 137:0.0607 138:0.0523 139:0.0471 140:0.0445 141:0.0522 142:0.0494 143:0.054 144:0.0509 145:0.0561 146:0.0628 147:0.0885 148:0.0652 149:0.0451 150:0.044 151:0.089 152:0.0914 153:0.1626 154:0.178 155:0.0986 156:0.0938 157:0.1395 158:0.1076 159:0.2037 160:0.1444 161:0.1344 162:0.0822 163:0.1161 164:0.0709 165:0.1203 166:0.1205 167:0.114 168:0.1319 169:0.1074 170:0.0759 171:0.079 172:0.1664 173:0.1699 174:0.1743 175:0.1612 176:0.2182 177:0.361 178:0.2954 179:0.1721 180:0.1056 
4 0 0 0 0 1:0.286 2:0.3412 3:0.3385 4:0.294 5:0.2317 6:0.1875 7:0.135 8:0.0996 9:0.0963 10:0.0829 11:0.072 12:0.0761 13:0.0868 14:0.1069 15:0.1275 16:0.143 17:0.1802 18:0.1948 19:0.1992 20:0.2241 21:0.2493 22:0.2496 23:0.2649 24:0.2809 25:0.2772 26:0.3155 27:0.3791 28:0.3699 29:0.3844 30:0.2982 31:0.9944 32:1.3552 33:1.5309 34:1.6222 35:1.6023 36:1.6948 37:1.6519 38:1.6922 39:2.0149 40:1.8056 41:1.6732 42:1.4489 43:1.3665 44:1.1017 45:1.0449 46:0.9886 47:0.869 48:0.7131 49:0.613 50:0.4969 51:0.4318 52:0.3438 53:0.354 54:0.2932 55:0.3091 56:0.3373 57:0.3112 58:0.3269 59:0.3064 60:0.2633 61:0.1357 62:0.1341 63:0.1118 64:0.0734 65:0.0706 66:0.0847 67:0.1105 68:0.1568 69:0.2288 70:0.2681 71:0.2912 72:0.3302 73:0.3538 74:0.3339 75:0.3501 76:0.3849 77:0.4096 78:0.4211 79:0.4182 80:0.4331 81:0.5157 82:0.5825 83:0.7095 84:0.8747 85:0.947 86:1.0854 87:1.3498 88:1.1703 89:1.1638 90:0.8406 91:0.0359 92:0.0485 93:0.0309 94:0.0358 95:0.0319 96:0.049 97:0.0506 98:0.0511 99:0.0379 100:0.0491 101:0.0348 102:0.0432 103:0.0391 104:0.0423 105:0.0425 106:0.0478 107:0.0457 108:0.0537 109:0.042 110:0.0366 111:0.0425 112:0.0506 113:0.0414 114:0.0493 115:0.0529 116:0.0482 117:0.0642 118:0.051 119:0.0557 120:0.0526 121:0.0341 122:0.0373 123:0.0424 124:0.0533 125:0.0311 126:0.0458 127:0.0486 128:0.0339 129:0.0529 130:0.0458 131:0.0492 132:0.0409 133:0.0532 134:0.0512 135:0.0577 136:0.0593 137:0.0658 138:0.0515 139:0.0478 140:0.0439 141:0.0526 142:0.0495 143:0.0557 144:0.0482 145:0.0577 146:0.0632 147:0.086 148:0.0645 149:0.0451 150:0.0421 151:0.0903 152:0.0908 153:0.1682 154:0.1808 155:0.0955 156:0.0963 157:0.1356 158:0.1075 159:0.2001 160:0.1468 161:0.1326 162:0.0845 163:0.1157 164:0.0712 165:0.1233 166:0.1197 167:0.1151 168:0.1356 169:0.1076 170:0.08 171:0.0778 172:0.1575 173:0.1752 174:0.1705 175:0.1619 176:0.2229 177:0.3536 178:0.2861 179:0.1646 180:0.1065 
-4 0 0 0 0 1:2.0061 2:2.482 3:2.6976 4:2.6432 5:2.4803 6:2.4044 7:2.1926 8:2.1636 9:2.0117 10:1.8492 11:1.6625 12:1.6401 13:1.7721 14:2.0636 15:2.1028 16:2.2316 17:2.3003 18:2.4225 19:2.6321 20:2.6251 21:2.8792 22:2.8189 23:2.9549 24:3.1855 25:3.0758 26:3.2531 27:3.4382 28:2.7934 29:2.5112 30:1.8167 31:3.0284 32:3.5556 33:3.4522 34:2.8192 35:2.1189 36:1.7734 37:1.4171 38:1.4571 39:1.7061 40:1.6418 41:1.75 42:1.8699 43:2.1086 44:2.0931 45:2.1004 46:2.2271 47:2.2321 48:2.2546 49:2.4305 50:2.5268 51:2.9655 52:3.3009 53:3.7044 54:3.7671 55:3.1555 56:2.9806 57:3.4179 58:3.3466 59:3.1669 60:2.2836 61:2.5994 62:3.5296 63:3.8554 64:3.5909 65:2.9166 66:2.5963 67:2.9978 68:3.7791 69:4.2198 70:4.257 71:4.2417 72:4.4453 73:4.3595 74:4.2707 75:4.2467 76:4.4307 77:4.5225 78:4.7082 79:5.032 80:5.053 81:5.3814 82:5.4779 83:5.8544 84:6.8104 85:6.7804 86:7.7238 87:8.9541 88:7.9159 89:7.6489 90:5.5559 91:2.076 92:3.0016 93:3.5019 94:3.5089 95:3.5601 96:3.4793 97:3.3906 98:3.3812 99:3.2665 100:3.0221 101:2.7691 102:2.7014 103:2.519 104:2.2633 105:2.1543 106:2.1894 107:2.1162 108:2.2537 109:2.3924 110:2.4942 111:2.7798 112:2.9705 113:3.128 114:3.4496 115:3.4118 116:3.8486 117:4.482 118:3.9617 119:3.5764 120:2.6764 121:0.7677 122:1.0264 123:1.1543 124:1.1285 125:1.094 126:1.0792 127:0.9913 128:0.9837 129:0.977 130:0.9742 131:0.9433 132:0.9399 133:0.993 134:0.9491 135:0.9609 136:1.017 137:1.0127 138:1.0302 139:1.046 140:0.9572 141:0.986 142:0.9272 143:0.8714 144:0.8928 145:0.7641 146:0.7932 147:0.9053 148:0.9193 149:0.9254 150:0.7249 151:1.5724 152:1.8773 153:1.8701 154:1.8227 155:1.7686 156:1.774 157:1.7181 158:1.5116 159:1.602 160:1.4309 161:1.3769 162:1.4159 163:1.539 164:1.4958 165:1.5553 166:1.7445 167:1.849 168:2.0837 169:2.2662 170:2.266 171:2.4401 172:2.5669 173:2.7465 174:3.0312 175:2.9149 176:3.2406 177:3.7568 178:3.4208 179:2.956 180:2.2361 
-0 4 0.2472704973195846 0 0 1:1.7306 2:2.3357 3:2.5195 4:2.5655 5:2.5624 6:2.6196 7:2.4732 8:2.4543 9:2.1565 10:1.6775 11:1.4857 12:1.7431 13:2.0845 14:2.3711 15:2.371 16:2.4703 17:2.5062 18:2.4881 19:2.6111 20:2.6204 21:2.9474 22:3.1315 23:3.4386 24:3.9155 25:3.9083 26:4.1554 27:4.6128 28:3.8189 29:3.5035 30:2.5516 31:2.82 32:3.5745 33:3.5889 34:3.0754 35:2.287 36:1.7918 37:1.3082 38:1.4404 39:1.8707 40:1.8691 41:1.7933 42:1.7502 43:1.737 44:1.6113 45:1.5588 46:1.6218 47:1.6107 48:1.6445 49:1.7585 50:1.8222 51:2.1723 52:2.3974 53:2.7847 54:3.1065 55:2.9443 56:2.6128 57:2.2742 58:1.7482 59:1.6245 60:1.1945 61:3.7085 62:4.9903 63:5.2129 64:4.9441 65:4.2764 66:3.6461 67:3.4505 68:3.979 69:4.5341 70:4.6306 71:4.7193 72:5.0901 73:5.3451 74:5.8367 75:5.9922 76:6.682 77:7.2299 78:7.9132 79:8.9539 80:9.6372 81:11.674 82:13.2595 83:15.0283 84:17.7023 85:17.4603 86:18.3377 87:19.2729 88:15.0774 89:12.8635 90:9.0538 91:4.9506 92:6.8374 93:7.8769 94:8.4142 95:8.7792 96:8.8793 97:8.5874 98:8.569 99:8.1612 100:7.3881 101:6.7821 102:6.47 103:5.7711 104:5.33 105:5.0254 106:5.2769 107:5.3105 108:5.6523 109:6.0671 110:6.1775 111:6.747 112:6.9655 113:7.2863 114:8.2852 115:7.9549 116:8.7531 117:10.0553 118:8.7065 119:8.1481 120:6.2127 121:2.1727 122:3.2726 123:4.0305 124:4.3007 125:4.5643 126:4.5619 127:4.5227 128:4.581 129:4.5463 130:4.3404 131:4.188 132:4.2487 133:4.1147 134:4.0623 135:3.9462 136:4.1245 137:4.155 138:4.2389 139:4.3188 140:4.2368 141:4.4169 142:4.4644 143:4.5399 144:5.1535 145:5.029 146:5.4187 147:6.2104 148:5.564 149:5.3392 150:4.1871 151:3.8824 152:4.4422 153:4.093 154:3.5367 155:3.275 156:3.0567 157:2.8946 158:2.7363 159:2.8804 160:2.6922 161:2.751 162:2.8032 163:2.8335 164:3.0588 165:3.1654 166:3.7709 167:4.2491 168:4.9526 169:5.7005 170:6.1814 171:7.3121 172:7.9784 173:8.9391 174:10.6216 175:10.6341 176:12.0459 177:13.1808 178:11.3886 179:9.9105 180:7.4064 
-0 4 0 0 0 1:7.9731 2:10.4967 3:10.5736 4:9.7732 5:8.6947 6:7.352 7:6.1448 8:5.4251 9:4.9331 10:4.318 11:3.9522 12:3.8932 13:3.9377 14:4.3681 15:4.5905 16:5.3752 17:5.6342 18:6.0777 19:6.5675 20:6.5696 21:7.3051 22:7.5341 23:8.0055 24:8.712 25:8.274 26:8.5397 27:8.9962 28:7.0595 29:6.3207 30:4.5828 31:3.3307 32:4.0044 33:3.8223 34:3.3509 35:2.7987 36:2.4684 37:2.2317 38:2.2637 39:2.6538 40:2.5439 41:2.76 42:3.0642 43:3.3989 44:3.8155 45:3.967 46:4.7413 47:5.331 48:6.071 49:6.8938 50:7.4005 51:8.7102 52:9.4826 53:10.1814 54:12.1599 55:13.6285 56:16.356 57:18.6531 58:15.3028 59:13.4257 60:9.4617 61:7.7525 62:9.277 63:8.4805 64:6.9776 65:6.3042 66:6.7975 67:7.9153 68:9.8875 69:11.2589 70:11.5818 71:11.7327 72:12.0998 73:11.8535 74:11.86 75:11.6488 76:12.2473 77:12.3574 78:12.7715 79:13.3809 80:13.2039 81:14.5415 82:15.1054 83:16.2884 84:17.9868 85:17.8093 86:19.4628 87:21.6316 88:18.5034 89:17.87 90:13.4003 91:1.3922 92:2.2921 93:3.3594 94:4.1693 95:4.7402 96:4.9659 97:4.8679 98:4.7665 99:4.6131 100:4.2336 101:3.8179 102:3.4917 103:3.1072 104:2.7954 105:2.6198 106:2.6967 107:2.6069 108:2.6154 109:2.6379 110:2.4658 111:2.5646 112:2.4267 113:2.3921 114:2.3694 115:2.1207 116:2.1724 117:2.5042 118:2.3328 119:2.2079 120:1.7413 121:1.2675 122:1.6064 123:1.7415 124:1.7913 125:1.8016 126:1.7757 127:1.7068 128:1.7429 129:1.7877 130:1.7451 131:1.6869 132:1.6925 133:1.6556 134:1.5645 135:1.5312 136:1.5462 137:1.5284 138:1.4911 139:1.5687 140:1.5795 141:1.7247 142:1.8032 143:2.0538 144:2.404 145:2.3415 146:2.4985 147:2.7163 148:2.3744 149:2.1683 150:1.67 151:1.1564 152:1.2591 153:1.2478 154:1.224 155:1.0692 156:1.0746 157:1.1305 158:1.1578 159:1.2686 160:1.2103 161:1.1352 162:1.1409 163:1.1794 164:1.1593 165:1.2177 166:1.3614 167:1.4432 168:1.5908 169:1.7555 170:1.6379 171:1.7467 172:1.8422 173:1.8254 174:1.9444 175:1.8551 176:1.9003 177:2.1493 178:1.8495 179:1.4769 180:1.1304 
-0 4 0 0 0 1:8.3981 2:10.9413 3:10.9662 4:10.2045 5:9.0452 6:7.6333 7:6.376 8:5.6283 9:5.1002 10:4.5349 11:4.1689 12:3.9748 13:3.8585 14:4.1788 15:4.3798 16:5.0392 17:5.2812 18:5.6524 19:6.095 20:6.114 21:6.823 22:6.9924 23:7.4293 24:8.12 25:7.7856 26:8.0836 27:8.5106 28:6.6962 29:5.9755 30:4.3501 31:3.3119 32:3.9906 33:3.8182 34:3.2391 35:2.6204 36:2.2473 37:2.1032 38:2.1499 39:2.5515 40:2.4622 41:2.7022 42:3.0061 43:3.3418 44:3.7292 45:3.9316 46:4.6187 47:5.126 48:5.7393 49:6.421 50:6.8302 51:7.9015 52:8.5713 53:8.915 54:10.6892 55:12.3337 56:15.4836 57:18.2543 58:15.1313 59:13.32 60:9.3928 61:7.1775 62:8.7897 63:8.3608 64:7.2889 65:6.6515 66:6.8618 67:7.3588 68:8.7624 69:9.749 70:9.9687 71:10.0218 72:10.306 73:9.9971 74:9.9595 75:9.773 76:10.3442 77:10.4851 78:10.9696 79:11.6725 80:11.8432 81:13.4765 82:14.5826 83:16.3582 84:18.6241 85:18.7566 86:20.5392 87:22.6785 88:19.1806 89:18.3242 90:13.581 91:1.6456 92:2.6386 93:3.6707 94:4.3341 95:4.6902 96:4.7576 97:4.5138 98:4.3943 99:4.266 100:3.9858 101:3.6979 102:3.5005 103:3.2421 104:2.9718 105:2.8076 106:2.8972 107:2.7885 108:2.7905 109:2.7906 110:2.6353 111:2.7691 112:2.601 113:2.6324 114:2.6745 115:2.4608 116:2.583 117:2.9657 118:2.7387 119:2.607 120:2.0631 121:1.4476 122:1.8393 123:1.9972 124:2.0383 125:2.0524 126:2.0396 127:1.9799 128:2.0276 129:2.0954 130:2.0656 131:2.0339 132:2.0854 133:2.0573 134:1.9478 135:1.894 136:1.9501 137:1.9022 138:1.9071 139:2.0208 140:2.0333 141:2.2232 142:2.2737 143:2.5001 144:2.7825 145:2.6352 146:2.7385 147:2.9083 148:2.5638 149:2.3518 150:1.8252 151:1.2966 152:1.4299 153:1.4237 154:1.3963 155:1.2202 156:1.1825 157:1.2353 158:1.2781 159:1.3583 160:1.3385 161:1.2628 162:1.2685 163:1.2872 164:1.2369 165:1.2466 166:1.4445 167:1.5299 168:1.7722 169:1.9737 170:1.8994 171:1.9959 172:2.1161 173:1.9923 174:2.1372 175:2.0418 176:2.0744 177:2.3894 178:1.9848 179:1.6194 180:1.2651 
-0 4 0 0 0 1:4.5036 2:6.158 3:6.4622 4:6.3091 5:5.8667 6:5.0983 7:4.2736 8:3.7981 9:3.42 10:3.0654 11:2.7138 12:2.5152 13:2.3303 14:2.5664 15:2.7274 16:3.1927 17:3.3914 18:3.7701 19:4.0823 20:4.113 21:4.6063 22:4.755 23:5.0866 24:5.5137 25:5.3657 26:5.6723 27:6.0388 28:4.9912 29:4.4747 30:3.273 31:2.3764 32:2.867 33:2.9661 34:2.6101 35:2.1593 36:1.8446 37:1.7344 38:1.7758 39:2.1838 40:2.1741 41:2.43 42:2.6801 43:2.9216 44:3.0801 45:3.1938 46:3.5029 47:3.6864 48:3.8596 49:4.1603 50:4.2352 51:4.6641 52:5.1027 53:5.9869 54:8.4423 55:10.5293 56:13.1943 57:15.2862 58:12.8024 59:11.2928 60:8.0958 61:5.9384 62:7.0383 63:6.2703 64:5.0693 65:4.7324 66:5.129 67:6.0051 68:7.3757 69:8.2414 70:8.2651 71:8.2801 72:8.4726 73:8.2467 74:8.3574 75:8.2982 76:9.049 77:9.52 78:10.2316 79:11.2016 80:11.809 81:13.5637 82:14.4087 83:15.3439 84:16.7472 85:15.8117 86:16.0407 87:16.5846 88:13.1023 89:11.6067 90:8.3796 91:2.4776 92:3.1444 93:3.817 94:4.2847 95:4.5959 96:4.6969 97:4.5382 98:4.7762 99:4.8413 100:4.884 101:4.8926 102:5.0823 103:5.1164 104:5.2061 105:5.0601 106:5.5798 107:5.7726 108:6.1841 109:6.5308 110:6.5961 111:6.938 112:6.8278 113:6.7272 114:7.0619 115:6.693 116:7.2974 117:8.4989 118:7.9231 119:7.7747 120:5.9907 121:2.8266 122:4.2604 123:5.3097 124:6.0601 125:6.5962 126:6.7748 127:6.7519 128:6.9853 129:6.932 130:6.5234 131:6.2284 132:6.1746 133:5.8368 134:5.5844 135:5.2247 136:5.2992 137:5.1257 138:5.1167 139:5.3037 140:5.1751 141:5.4444 142:5.6371 143:5.9626 144:6.8856 145:6.7728 146:7.3502 147:8.382 148:7.334 149:6.9488 150:5.3278 151:1.8007 152:2.1318 153:2.216 154:2.1032 155:1.9617 156:1.907 157:1.8841 158:1.9792 159:2.2018 160:2.2023 161:2.2346 162:2.2117 163:2.18 164:2.0874 165:2.1143 166:2.362 167:2.8996 168:3.9153 169:5.3309 170:6.5273 171:8.1341 172:8.2864 173:8.1614 174:8.1695 175:7.1118 176:6.6377 177:6.1704 178:4.8214 179:3.6463 180:2.5707 
-0 4 0 0 0 1:2.4459 2:3.3079 3:3.6684 4:3.7751 5:3.7065 6:3.4716 7:3.03 8:2.5118 9:1.9924 10:1.6478 11:1.5767 12:1.8398 13:2.0873 14:2.2773 15:2.1922 16:2.1851 17:2.0836 18:2.1396 19:2.2372 20:2.2767 21:2.5928 22:2.7854 23:3.0517 24:3.4553 25:3.489 26:3.8385 27:4.3947 28:3.9935 29:3.8245 30:2.8435 31:2.7163 32:3.2283 33:3.1418 34:2.6334 35:2.0084 36:1.6848 37:1.4381 38:1.5457 39:1.984 40:1.9183 41:2.0129 42:1.8772 43:1.888 44:1.7628 45:1.7284 46:1.8284 47:1.8907 48:1.987 49:2.209 50:2.3715 51:2.7921 52:3.0302 53:3.383 54:3.6557 55:3.3239 56:2.8623 57:2.7655 58:2.2274 59:2.2458 60:1.6807 61:4.1759 62:5.434 63:5.2843 64:4.9258 65:4.8499 66:5.4267 67:6.1082 68:7.0818 69:7.4311 70:7.2841 71:7.2637 72:7.4244 73:7.124 74:7.1732 75:7.0409 76:7.7459 77:8.1658 78:9.1313 79:10.3915 80:11.272 81:13.1048 82:14.3306 83:15.4629 84:17.1771 85:15.9189 86:16.4536 87:17.4805 88:13.8645 89:12.3635 90:8.7598 91:4.8213 92:6.796 93:8.3286 94:9.1614 95:9.5473 96:9.4647 97:8.9467 98:8.9991 99:8.2443 100:7.333 101:6.2819 102:5.702 103:5.3823 104:5.5197 105:5.5403 106:6.4993 107:7.0556 108:7.8103 109:8.338 110:8.3147 111:8.6857 112:8.5185 113:8.3073 114:8.7895 115:8.2096 116:8.9415 117:10.3409 118:9.4206 119:9.1019 120:6.8781 121:2.0547 122:3.1681 123:4.0995 124:4.8577 125:5.4794 126:5.8488 127:5.9741 128:6.3193 129:6.3476 130:5.9861 131:5.7241 132:5.5678 133:5.2061 134:5.0187 135:4.7444 136:4.8725 137:4.8307 138:4.9809 139:5.1922 140:5.1571 141:5.4251 142:5.6182 143:5.798 144:6.6439 145:6.4474 146:6.9377 147:7.8661 148:6.8287 149:6.5118 150:4.9888 151:3.4738 152:4.0983 153:3.9795 154:3.547 155:3.2182 156:2.8815 157:2.5316 158:2.3128 159:2.3162 160:2.0404 161:2.0123 162:1.9443 163:1.9954 164:1.9675 165:2.126 166:2.3769 167:2.9446 168:3.9174 169:5.3401 170:6.6756 171:8.6225 172:9.0481 173:9.5941 174:10.4587 175:9.8182 176:10.0559 177:10.3405 178:8.6815 179:7.2482 180:5.2889 
-0 4 0 0 0 1:1.9858 2:2.7385 3:2.8567 4:2.8142 5:2.8264 6:2.7181 7:2.4058 8:2.3239 9:2.0895 10:1.7324 11:1.4395 12:1.6032 13:1.7921 14:1.8691 15:1.8714 16:1.9466 17:1.9047 18:2.0011 19:2.1724 20:2.2749 21:2.577 22:2.744 23:2.9541 24:3.278 25:3.1043 26:3.2221 27:3.4769 28:2.9487 29:2.7452 30:2.0483 31:2.5015 32:3.2296 33:3.3309 34:3.0521 35:2.4645 36:1.9278 37:1.522 38:1.4563 39:1.7098 40:1.7104 41:1.7456 42:1.7567 43:1.9188 44:1.8755 45:1.8809 46:2.1406 47:2.2553 48:2.4481 49:2.6941 50:2.8758 51:3.2765 52:3.4912 53:3.6668 54:3.8882 55:3.4483 56:3.3777 57:3.3751 58:2.7044 59:2.5182 60:1.8405 61:3.8277 62:5.0136 63:4.9462 64:4.5659 65:4.5828 66:5.1398 67:5.8408 68:7.0637 69:7.75 70:8.0143 71:8.0164 72:8.4305 73:8.3093 74:8.5561 75:8.4904 76:9.4239 77:9.8807 78:10.7339 79:11.7244 80:11.7758 81:12.9599 82:13.1441 83:13.7526 84:14.824 85:13.9673 86:14.4407 87:15.4714 88:12.6051 89:11.2868 90:8.2301 91:7.4885 92:10.306 93:11.9099 94:12.8755 95:13.4385 96:13.5165 97:12.986 98:12.9582 99:11.5961 100:9.8907 101:8.3829 102:7.1978 103:6.3263 104:5.8952 105:5.6819 106:6.0882 107:6.2509 108:6.5562 109:7.017 110:7.2693 111:8.1166 112:8.44 113:8.8494 114:9.5733 115:8.9414 116:9.3124 117:10.2554 118:8.8086 119:8.5322 120:6.5151 121:2.083 122:3.175 123:4.2197 124:5.1103 125:5.8392 126:6.3458 127:6.6935 128:7.213 129:7.3461 130:7.0634 131:6.7518 132:6.6383 133:6.2788 134:5.8731 135:5.6177 136:5.7726 137:5.6936 138:5.8276 139:5.9822 140:5.7724 141:5.9153 142:5.9149 143:6.2604 144:7.3351 145:7.5189 146:8.5841 147:10.3501 148:9.3741 149:9.4813 150:7.4996 151:4.0534 152:4.5051 153:4.1806 154:3.5836 155:3.1904 156:2.9468 157:2.8101 158:2.8935 159:3.005 160:2.7781 161:2.7675 162:2.5815 163:2.4401 164:2.424 165:2.4928 166:3.1715 167:3.9713 168:5.4836 169:7.4542 170:8.835 171:9.9243 172:10.0596 173:10.2069 174:10.9211 175:10.2913 176:10.8148 177:10.9776 178:9.2286 179:7.5069 180:5.3415 
-0 4 0 0 0 1:1.9657 2:2.7577 3:2.8809 4:2.8689 5:2.9364 6:2.9059 7:2.6518 8:2.6749 9:2.4629 10:1.9817 11:1.5507 12:1.6645 13:1.972 14:2.0873 15:2.0527 16:2.0919 17:2.0309 18:2.1169 19:2.2836 20:2.3936 21:2.77 22:2.8947 23:3.1442 24:3.5364 25:3.3527 26:3.469 27:3.7592 28:3.0926 29:2.8932 30:2.1499 31:2.6768 32:3.4411 33:3.5548 34:3.2138 35:2.5826 36:2.0268 37:1.6275 38:1.569 39:1.8467 40:1.8339 41:1.8467 42:1.8424 43:2.0024 44:2.0121 45:2.0401 46:2.311 47:2.4712 48:2.6511 49:2.9676 50:3.1332 51:3.6209 52:3.982 53:4.1939 54:4.5126 55:3.8047 56:3.4094 57:3.447 58:2.8619 59:2.712 60:1.9513 61:3.3812 62:4.1755 63:4.1543 64:4.1817 65:4.7029 66:5.7558 67:6.3219 68:7.1636 69:7.5122 70:7.5267 71:7.5043 72:7.9231 73:7.831 74:8.0771 75:8.1027 76:9.0109 77:9.4147 78:10.0661 79:10.8159 80:10.5589 81:11.1497 82:10.9147 83:11.1342 84:11.8509 85:11.2187 86:11.73 87:12.8805 88:10.819 89:9.8868 90:7.2743 91:6.3295 92:8.4294 93:9.4371 94:10.2141 95:11.0711 96:11.6371 97:11.6969 98:12.2447 99:11.4626 100:9.9442 101:8.4374 102:7.0358 103:5.9145 104:5.2948 105:4.9777 106:5.074 107:5.0956 108:5.1947 109:5.4685 110:5.5431 111:6.0819 112:6.1937 113:6.3194 114:6.6719 115:5.9317 116:5.789 117:5.751 118:4.3691 119:3.8329 120:2.8682 121:0.6683 122:0.9334 123:1.2168 124:1.4992 125:1.7892 126:2.1153 127:2.4573 128:2.8732 129:3.1782 130:3.2722 131:3.4264 132:3.5512 133:3.5459 134:3.5127 135:3.4894 136:3.6632 137:3.674 138:3.7476 139:3.8669 140:3.6975 141:3.7352 142:3.5954 143:3.6622 144:4.2393 145:4.5449 146:5.4389 147:6.8485 148:6.6905 149:7.0526 150:5.7016 151:3.2708 152:3.8977 153:3.8427 154:3.5796 155:3.3223 156:3.1994 157:3.1155 158:3.2185 159:3.2129 160:2.8812 161:2.6568 162:2.3195 163:1.9964 164:1.7263 165:1.741 166:2.2346 167:3.1096 168:4.9714 169:7.3616 170:9.1442 171:10.5104 172:10.7366 173:10.9371 174:11.602 175:10.8072 176:11.0986 177:11.0079 178:9.0432 179:7.14 180:5.0263 
-0 4 0 0 0 1:5.0877 2:7.0733 3:7.927 4:8.1931 5:8.1644 6:7.7433 7:6.9981 8:6.6578 9:6.065 10:4.9993 11:4.047 12:3.1079 13:2.6886 14:3.0243 15:3.3412 16:4.1293 17:4.4287 18:4.6973 19:5.0683 20:4.9134 21:5.378 22:5.5686 23:5.9335 24:6.6288 25:6.4662 26:6.916 27:7.3027 28:5.818 29:5.0101 30:3.5931 31:2.7482 32:2.9057 33:2.8148 34:2.5217 35:2.324 36:2.123 37:1.9077 38:1.8797 39:2.142 40:2.0009 41:2.0068 42:2.1006 43:2.356 44:2.6283 45:2.8662 46:3.5084 47:4.2871 48:5.0491 49:5.4474 50:5.2672 51:5.7182 52:6.1734 53:6.9706 54:7.7276 55:8.1164 56:9.4987 57:11.3251 58:9.8426 59:8.8444 60:6.4332 61:6.8598 62:8.3139 63:8.4457 64:8.0274 65:8.3038 66:8.9296 67:9.6601 68:11.2557 69:12.4243 70:12.829 71:12.9605 72:13.529 73:13.3254 74:13.4927 75:13.4959 76:14.6695 77:15.3194 78:16.5507 79:18.2509 80:18.5543 81:20.7862 82:20.9996 83:21.6578 84:22.6436 85:20.8554 86:20.7417 87:21.7086 88:17.3024 89:15.5631 90:11.2468 91:2.366 92:3.4971 93:4.3682 94:4.7797 95:5.1207 96:5.298 97:5.2418 98:5.4544 99:5.365 100:5.1234 101:4.7136 102:4.3903 103:3.9323 104:3.7329 105:3.4526 106:3.551 107:3.4821 108:3.6446 109:3.8987 110:4.0648 111:4.6801 112:5.0972 113:5.7969 114:6.5858 115:6.4751 116:6.7029 117:6.7936 118:5.5152 119:4.5359 120:3.3225 121:2.1855 122:3.1088 123:3.7167 124:3.9596 125:4.1809 126:4.1364 127:3.9327 128:3.903 129:3.7564 130:3.4819 131:3.2657 132:3.1652 133:3.0642 134:2.9441 135:2.8096 136:2.9782 137:3.0572 138:3.1449 139:3.2933 140:3.2441 141:3.3475 142:3.3371 143:3.4867 144:3.9776 145:4.0473 146:4.6487 147:5.6253 148:5.1249 149:5.0442 150:3.8745 151:1.3794 152:1.5764 153:1.6748 154:1.5975 155:1.3826 156:1.2876 157:1.2352 158:1.1854 159:1.3391 160:1.3469 161:1.3783 162:1.4464 163:1.6625 164:1.6334 165:1.7054 166:1.8068 167:1.7452 168:1.6837 169:1.7032 170:1.709 171:1.8 172:1.7817 173:2.0401 174:2.1869 175:2.2381 176:2.5516 177:2.8024 178:2.6528 179:2.1828 180:1.5931 
-0 4 0 1.525504025019985 0.1909012232461693 1:6.9943 2:9.6372 3:10.6957 4:11.0219 5:10.8061 6:9.9437 7:8.3604 8:7.2848 9:6.3444 10:5.1358 11:4.233 12:3.4419 13:3.0793 14:3.29 15:3.4933 16:4.2097 17:4.5243 18:4.9285 19:5.4272 20:5.4091 21:6.0049 22:6.2979 23:6.7774 24:7.7155 25:7.5836 26:8.1793 27:8.6202 28:6.9491 29:5.8664 30:4.1711 31:2.9521 32:3.2675 33:3.1573 34:2.8691 35:2.5785 36:2.3109 37:2.0567 38:2.0176 39:2.3159 40:2.2267 41:2.3337 42:2.5271 43:2.9455 44:3.4119 45:3.7916 46:4.6419 47:5.4472 48:6.1429 49:6.2553 50:5.4312 51:5.6508 52:6.6031 53:8.3323 54:10.7606 55:12.5578 56:15.1827 57:17.4868 58:14.6558 59:12.599 60:8.9536 61:8.2771 62:9.5578 63:8.87 64:7.526 65:7.4251 66:8.3529 67:9.6574 68:11.8474 69:13.5469 70:14.0122 71:13.9484 72:14.2514 73:13.6234 74:13.5391 75:13.3623 76:14.1101 77:14.4137 78:15.3061 79:16.7991 80:17.4897 81:20.1528 82:21.5291 83:23.1532 84:25.5482 85:24.5721 86:25.4782 87:27.1796 88:21.9352 89:19.2584 90:13.8573 91:1.5096 92:2.1521 93:2.8214 94:3.1769 95:3.5628 96:3.8115 97:3.7629 98:3.9268 99:3.8438 100:3.5369 101:3.0269 102:2.5753 103:2.2575 104:2.1495 105:2.1215 106:2.2413 107:2.2378 108:2.289 109:2.3911 110:2.4007 111:2.7002 112:2.8373 113:3.2501 114:3.8321 115:3.9368 116:4.3342 117:4.5673 118:3.7327 119:3.0352 120:2.195 121:1.3469 122:1.7832 123:1.962 124:1.9271 125:1.8712 126:1.7763 127:1.6367 128:1.6309 129:1.6131 130:1.549 131:1.4952 132:1.5278 133:1.5516 134:1.5728 135:1.5446 136:1.7243 137:1.8495 138:1.8989 139:1.9952 140:2.0059 141:2.1242 142:2.1875 143:2.3105 144:2.6414 145:2.6209 146:2.9305 147:3.3306 148:2.8938 149:2.6506 150:1.9743 151:1.2552 152:1.4476 153:1.5517 154:1.4955 155:1.3628 156:1.2841 157:1.2846 158:1.1824 159:1.3302 160:1.2817 161:1.226 162:1.1487 163:1.2729 164:1.1704 165:1.2574 166:1.2954 167:1.2144 168:1.1797 169:1.1879 170:1.2254 171:1.4195 172:1.4578 173:1.7094 174:1.9096 175:1.9306 176:2.2189 177:2.565 178:2.3541 179:1.9839 180:1.4688 
-0 4 0 0 0 1:7.1491 2:9.8877 3:10.9085 4:11.3005 5:11.2152 6:10.4916 7:9.0038 8:7.9322 9:6.7547 10:5.2161 11:4.0244 12:3.2182 13:3.0985 14:3.6011 15:3.8438 16:4.6529 17:4.9189 18:5.2271 19:5.7104 20:5.6475 21:6.2673 22:6.5677 23:7.0977 24:7.9666 25:7.7863 26:8.3105 27:8.6682 28:6.8981 29:5.794 30:4.1307 31:3.2545 32:3.5752 33:3.2868 34:2.8254 35:2.4588 36:2.2032 37:2.045 38:2.0214 39:2.2545 40:2.2103 41:2.3409 42:2.598 43:3.1126 44:3.5068 45:3.9303 46:4.8452 47:5.5997 48:6.3818 49:6.5015 50:5.7744 51:5.9973 52:6.8053 53:8.4542 54:10.8006 55:12.4852 56:15.2051 57:17.619 58:14.8168 59:12.8939 60:9.219 61:8.2577 62:9.5544 63:8.7604 64:7.2507 65:6.7833 66:7.4433 67:8.2968 68:10.1937 69:11.7772 70:12.1277 71:11.9978 72:12.1099 73:11.5557 74:11.6346 75:11.5066 76:12.2107 77:12.5262 78:13.406 79:14.8399 80:15.9672 81:18.9603 82:20.8584 83:23.1746 84:26.1338 85:25.552 86:26.9092 87:28.7945 88:23.0688 89:20.2706 90:14.4972 91:1.0943 92:1.6551 93:2.3161 94:2.7789 95:3.1906 96:3.5185 97:3.5075 98:3.7025 99:3.7244 100:3.5339 101:3.0596 102:2.6392 103:2.2464 104:2.113 105:2.0785 106:2.1223 107:2.0696 108:2.0531 109:2.1176 110:2.0375 111:2.243 112:2.2523 113:2.4307 114:2.7547 115:2.7588 116:3.0052 117:3.2385 118:2.7136 119:2.2281 120:1.6287 121:1.2443 122:1.6619 123:1.8741 124:1.8803 125:1.8711 126:1.8079 127:1.7271 128:1.8028 129:1.8391 130:1.8465 131:1.8344 132:1.8821 133:1.9476 134:1.9945 135:1.9695 136:2.1046 137:2.2109 138:2.2125 139:2.2735 140:2.2395 141:2.3328 142:2.3272 143:2.4062 144:2.6906 145:2.5724 146:2.8919 147:3.301 148:2.9352 149:2.7276 150:2.0714 151:1.1839 152:1.3619 153:1.4502 154:1.3849 155:1.2107 156:1.114 157:1.1452 158:1.0676 159:1.2535 160:1.2511 161:1.2163 162:1.1496 163:1.2467 164:1.1395 165:1.2024 166:1.2082 167:1.0712 168:1.0201 169:1.0155 170:1.0718 171:1.3045 172:1.3645 173:1.6201 174:1.8143 175:1.8873 176:2.1314 177:2.4432 178:2.209 179:1.8635 180:1.3686 
-0 3.045491870357486 0 0 0 1:6.3581 2:8.643 3:9.5698 4:9.8861 5:9.9098 6:9.4112 7:8.2582 8:7.5192 9:6.6645 10:5.3897 11:4.3035 12:3.4426 13:3.0601 14:3.2882 15:3.4603 16:4.2246 17:4.5 18:4.7581 19:5.2081 20:5.1874 21:5.808 22:6.1662 23:6.7872 24:7.72 25:7.685 26:8.3211 27:8.7388 28:6.8967 29:5.7406 30:4.0454 31:3.1651 32:3.387 33:3.1241 34:2.6986 35:2.2999 36:2.1201 37:2.0005 38:2.0025 39:2.1961 40:2.165 41:2.2798 42:2.5105 43:3.0418 44:3.3686 45:3.7504 46:4.6867 47:5.4718 48:6.171 49:6.1715 50:5.2259 51:5.1965 52:5.8648 53:7.36 54:10.1043 55:12.0921 56:14.9485 57:17.5533 58:14.8928 59:13.1597 60:9.3904 61:7.6477 62:8.7671 63:7.9677 64:6.7177 65:6.6985 66:7.4548 67:8.029 68:9.3425 69:10.2947 70:10.2931 71:10.1567 72:10.329 73:10.0509 74:10.3467 75:10.2989 76:11.0379 77:11.4664 78:12.3336 79:13.6391 80:14.6901 81:17.2166 82:18.7016 83:20.5406 84:23.0864 85:22.8922 86:24.3871 87:26.3978 88:21.4376 89:18.8717 90:13.5281 91:1.2366 92:1.8531 93:2.5429 94:3.0624 95:3.4349 96:3.7451 97:3.6825 98:3.9279 99:3.9552 100:3.8266 101:3.4179 102:3.0055 103:2.5378 104:2.3419 105:2.2842 106:2.3093 107:2.2248 108:2.223 109:2.2658 110:2.1928 111:2.4037 112:2.3872 113:2.4378 114:2.5416 115:2.3845 116:2.5518 117:2.9612 118:2.7417 119:2.4644 120:1.8553 121:1.3791 122:1.8456 123:2.1036 124:2.1249 125:2.1368 126:2.063 127:2.0165 128:2.0999 129:2.1456 130:2.1557 131:2.1572 132:2.2093 133:2.2587 134:2.2885 135:2.2346 136:2.3656 137:2.465 138:2.4645 139:2.5492 140:2.5418 141:2.6744 142:2.6452 143:2.7165 144:2.9663 145:2.815 146:3.1399 147:3.6968 148:3.3486 149:3.2253 150:2.4543 151:1.2725 152:1.5155 153:1.6572 154:1.6283 155:1.4585 156:1.3891 157:1.4049 158:1.3171 159:1.4227 160:1.3345 161:1.2114 162:1.0346 163:1.018 164:0.9007 165:0.9661 166:0.9994 167:1.0298 168:1.1092 169:1.2532 170:1.3742 171:1.6959 172:1.8273 173:2.1037 174:2.4421 175:2.4789 176:2.7508 177:3.1232 178:2.6461 179:2.2274 180:1.5753 
-0 2.65233298886744 0 0 0 1:6.0213 2:8.2155 3:9.0465 4:9.34 5:9.4203 6:9.0066 7:8.0229 8:7.5052 9:6.854 10:5.6944 11:4.5348 12:3.4877 13:2.8084 14:2.8356 15:2.9227 16:3.4963 17:3.6781 18:3.8412 19:4.1605 20:4.1393 21:4.5442 22:4.7615 23:5.1963 24:5.779 25:5.7359 26:6.2074 27:6.6777 28:5.5009 29:4.6921 30:3.3204 31:2.8349 32:3.1139 33:3.0284 34:2.694 35:2.2774 36:2.0457 37:1.9127 38:1.9299 39:2.1883 40:2.1779 41:2.3812 42:2.5782 43:3.0196 44:3.2827 45:3.6091 46:4.3886 47:5.1269 48:5.7811 49:5.7937 50:4.8894 51:4.9247 52:5.6572 53:7.1185 54:9.9213 55:11.9464 56:14.9695 57:17.6805 58:15.0378 59:13.2799 60:9.4633 61:7.7017 62:8.942 63:7.9412 64:6.4353 65:6.1571 66:6.929 67:7.7323 68:9.2261 69:10.1385 70:10.0035 71:9.727 72:9.6722 73:9.2515 74:9.4083 75:9.3249 76:10.055 77:10.42 78:11.2886 79:12.3825 80:13.2308 81:15.3816 82:16.6067 83:17.7575 84:19.7748 85:19.1024 86:19.9965 87:21.2618 88:17.0291 89:14.6985 90:10.5152 91:1.824 92:2.7295 93:3.6092 94:4.3571 95:4.9426 96:5.3128 97:5.1758 98:5.2646 99:5.2773 100:5.0122 101:4.5705 102:4.1751 103:3.7491 104:3.569 105:3.5321 106:3.896 107:4.0374 108:4.4576 109:4.6871 110:4.7701 111:5.2783 112:5.2783 113:5.4133 114:5.8313 115:5.9626 116:6.8976 117:8.1281 118:7.8523 119:7.4461 120:5.8633 121:2.3696 122:3.6726 123:4.8144 124:5.6084 125:6.3294 126:6.6804 127:6.7286 128:7.0152 129:7.0599 130:6.7912 131:6.4748 132:6.2936 133:5.9979 134:5.8759 135:5.5999 136:5.8062 137:5.6816 138:5.4727 139:5.5141 140:5.2808 141:5.4132 142:5.3023 143:5.4191 144:5.8767 145:5.6121 146:6.0139 147:6.4587 148:5.7202 149:5.1426 150:3.8802 151:1.9155 152:2.1786 153:2.1752 154:2.0146 155:1.7854 156:1.6416 157:1.5801 158:1.5315 159:1.6341 160:1.4954 161:1.4475 162:1.3386 163:1.3791 164:1.4563 165:1.532 166:1.8283 167:2.1254 168:2.3366 169:2.468 170:2.3108 171:2.4083 172:2.292 173:2.4767 174:2.7375 175:2.7383 176:3.0551 177:3.4514 178:3.1025 179:2.5814 180:1.8656 
-0 0.774835139553231 1.300624262227627 0 0 1:1.8082 2:2.4127 3:2.6013 4:2.5355 5:2.419 6:2.321 7:2.0973 8:2.0899 9:1.9487 10:1.6989 11:1.4759 12:1.4544 13:1.5615 14:1.7569 15:1.774 16:1.86 17:1.8588 18:1.8928 19:1.9864 20:2.0412 21:2.1811 22:2.256 23:2.4124 24:2.7465 25:2.9138 26:3.4377 27:3.9863 28:3.702 29:3.5576 30:2.678 31:2.4543 32:3.103 33:3.1555 34:2.8967 35:2.344 36:1.937 37:1.6287 38:1.5483 39:1.8004 40:1.6825 41:1.7843 42:1.7414 43:1.9081 44:1.9791 45:2.0596 46:2.3024 47:2.4501 48:2.5167 49:2.6915 50:2.6595 51:2.9826 52:3.2146 53:3.4849 54:3.8275 55:3.2383 56:3.071 57:3.2661 58:2.6664 59:2.5631 60:1.9046 61:3.9251 62:5.0318 63:4.6412 64:4.0469 65:4.0291 66:4.6147 67:5.1138 68:5.9095 69:6.4157 70:6.305 71:6.2923 72:6.5991 73:6.4207 74:6.537 75:6.5439 76:7.1917 77:7.4425 78:8.1659 79:8.9324 80:8.995 81:9.7094 82:9.9584 83:9.9467 84:10.8033 85:10.3407 86:10.9287 87:11.8603 88:10.0342 89:9.0136 90:6.7218 91:5.7552 92:8.3564 93:9.8945 94:10.543 95:10.9342 96:10.8727 97:10.0278 98:9.3781 99:8.0538 100:6.2647 101:4.8902 102:4.1324 103:4.0361 104:4.6652 105:4.9064 106:6.0253 107:6.7975 108:7.6526 109:8.0887 110:8.1238 111:8.6532 112:8.5328 113:8.702 114:9.2597 115:8.9453 116:9.677 117:10.676 118:9.8703 119:9.3998 120:7.4677 121:1.892 122:2.993 123:3.9521 124:4.851 125:5.6584 126:6.2042 127:6.4339 128:6.8908 129:7.0368 130:6.7083 131:6.3333 132:6.0979 133:5.6698 134:5.6531 135:5.4722 136:5.8564 137:5.874 138:5.9373 139:6.0319 140:5.8122 141:5.8952 142:5.8177 143:5.9312 144:6.5988 145:6.7454 146:7.4938 147:8.3647 148:7.6722 149:7.4378 150:5.8072 151:4.1833 152:4.9119 153:4.5221 154:4.0612 155:3.5856 156:3.3375 157:3.0678 158:2.9788 159:3.0275 160:2.5913 161:2.3187 162:2.1236 163:1.9466 164:1.9794 165:2.0526 166:2.7369 167:3.816 168:5.4741 169:7.2433 170:8.8253 171:10.7707 172:11.0504 173:11.8944 174:12.7524 175:12.0349 176:12.3371 177:12.5915 178:10.5422 179:8.4518 180:6.1498 
-4 0 0 0 0 1:1.941 2:2.5295 3:2.7314 4:2.6909 5:2.5961 6:2.5474 7:2.4281 8:2.4783 9:2.3397 10:2.061 11:1.703 12:1.491 13:1.5365 14:1.8662 15:1.9726 16:2.153 17:2.2584 18:2.3363 19:2.4992 20:2.5337 21:2.677 22:2.6807 23:2.9255 24:3.3092 25:3.4223 26:3.799 27:4.1966 28:3.6679 29:3.2912 30:2.4244 31:2.9084 32:3.5003 33:3.3547 34:2.8424 35:2.2301 36:1.8815 37:1.5347 38:1.5755 39:1.9473 40:1.9055 41:2.0303 42:2.1041 43:2.39 44:2.4182 45:2.4701 46:2.6658 47:2.7687 48:2.9526 49:3.1501 50:3.21 51:3.7624 52:4.0189 53:4.3147 54:4.4484 55:3.7387 56:3.4875 57:3.5065 58:3.1228 59:3.0117 60:2.2382 61:2.2032 62:3.1957 63:3.7502 64:3.5303 65:2.7886 66:2.3517 67:2.5795 68:3.1526 69:3.5967 70:3.7656 71:3.8814 72:4.0975 73:4.0409 74:4.0156 75:3.9242 76:4.1042 77:4.0404 78:4.2157 79:4.3828 80:4.3007 81:4.4947 82:4.2898 83:4.0772 84:4.2252 85:4.1522 86:4.5683 87:5.1949 88:4.6 89:4.4276 90:3.3697 91:2.3278 92:3.5157 93:4.2712 94:4.6308 95:4.7218 96:4.6666 97:4.3362 98:4.0591 99:3.5545 100:3.131 101:2.9383 102:2.9953 103:3.0115 104:3.1282 105:2.9706 106:3.1532 107:3.1477 108:3.3343 109:3.4059 110:3.3257 111:3.6004 112:3.6541 113:3.877 114:4.3493 115:4.2272 116:4.4949 117:4.7985 118:3.9563 119:3.4686 120:2.6319 121:0.5457 122:0.7609 123:0.9076 124:0.9407 125:0.9969 126:0.9894 127:0.9975 128:1.0045 129:1.0093 130:1.0052 131:0.9953 132:0.99 133:0.9476 134:0.909 135:0.9054 136:0.8848 137:0.8865 138:0.8704 139:0.8427 140:0.8015 141:0.8272 142:0.8597 143:0.962 144:1.0834 145:1.0952 146:1.1477 147:1.2277 148:1.0787 149:1.0382 150:0.7927 151:1.877 152:2.0909 153:2.0298 154:1.8548 155:1.7864 156:1.7647 157:1.7758 158:1.7152 159:1.7806 160:1.6011 161:1.3725 162:1.2176 163:1.1665 164:1.1322 165:1.224 166:1.4371 167:1.6594 168:1.9757 169:2.2384 170:2.3968 171:2.6258 172:2.6649 173:2.9772 174:3.1598 175:2.9717 176:3.3266 177:3.9731 178:3.5518 179:3.2657 180:2.5228 
-1.774506538315279 0 0 0 0 1:2.5658 2:3.3963 3:3.714 4:3.4516 5:3.1842 6:2.8333 7:2.4653 8:2.3156 9:2.1192 10:1.8652 11:1.5959 12:1.494 13:1.6399 14:1.8418 15:1.8422 16:1.9929 17:1.9846 18:2.0649 19:2.2297 20:2.266 21:2.5084 22:2.7111 23:3.0066 24:3.5394 25:3.5766 26:3.9877 27:4.3818 28:3.736 29:3.4063 30:2.5305 31:2.046 32:2.5393 33:2.5205 34:2.3026 35:2.0238 36:1.7808 37:1.5456 38:1.4578 39:1.5868 40:1.4296 41:1.3946 42:1.554 43:1.7238 44:1.762 45:1.8177 46:2.0312 47:2.2034 48:2.3762 49:2.6987 50:2.762 51:3.1358 52:3.5056 53:3.7156 54:3.876 55:2.9293 56:2.5713 57:2.9342 58:2.7983 59:2.798 60:2.0469 61:2.2651 62:2.9477 63:2.8396 64:2.4313 65:2.1564 66:2.274 67:2.5284 68:2.9202 69:3.2704 70:3.405 71:3.5855 72:3.805 73:3.8767 74:4.0549 75:4.195 76:4.5753 77:4.8702 78:5.38 79:6.0223 80:6.4721 81:7.5154 82:8.2825 83:8.8945 84:9.9084 85:9.431 86:9.7186 87:10.2998 88:8.3201 89:7.4625 90:5.2599 91:1.4883 92:2.075 93:2.4277 94:2.7582 95:2.9678 96:3.1383 97:3.1769 98:3.2594 99:3.2541 100:2.9045 101:2.6224 102:2.4334 103:2.286 104:2.2039 105:2.1655 106:2.3461 107:2.375 108:2.4401 109:2.5916 110:2.5748 111:2.7583 112:2.7701 113:2.7377 114:2.8625 115:2.7612 116:3.0518 117:3.5991 118:3.3244 119:3.0673 120:2.3499 121:0.5843 122:0.8502 123:1.0052 124:1.0664 125:1.0865 126:1.093 127:1.0365 128:1.0168 129:1.0446 130:1.0223 131:0.9788 132:0.9758 133:0.9569 134:0.9488 135:0.9518 136:0.9845 137:1.0125 138:0.9918 139:0.9434 140:0.9082 141:0.903 142:0.8905 143:0.8988 144:1.0171 145:1.0033 146:1.1019 147:1.2428 148:1.1098 149:1.0596 150:0.8238 151:1.1607 152:1.459 153:1.6468 154:1.7603 155:1.8426 156:1.8577 157:1.7811 158:1.6677 159:1.678 160:1.4263 161:1.2554 162:1.1219 163:1.115 164:1.0608 165:1.1053 166:1.2112 167:1.2849 168:1.5026 169:1.8584 170:2.1165 171:2.4757 172:2.6689 173:2.8968 174:3.0532 175:2.9541 176:3.1148 177:3.1562 178:2.9173 179:2.3918 180:1.7787 
-4 0 0 0 0 1:2.2509 2:3.0258 3:3.3243 4:3.1753 5:2.9162 6:2.6298 7:2.3282 8:2.2178 9:2.0316 10:1.7583 11:1.3122 12:1.0452 13:1.2572 14:1.5629 15:1.5604 16:1.7275 17:1.7514 18:1.8217 19:2.0053 20:2.0302 21:2.3144 22:2.4603 23:2.6675 24:3.0579 25:3.0019 26:3.3036 27:3.6997 28:3.1753 29:2.9166 30:2.1658 31:2.4127 32:2.8994 33:2.8742 34:2.5056 35:2.1319 36:1.8116 37:1.5493 38:1.4643 39:1.6203 40:1.4745 41:1.4297 42:1.5503 43:1.6908 44:1.6984 45:1.7739 46:2.0045 47:2.1375 48:2.3377 49:2.7259 50:2.9193 51:3.4752 52:4.0107 53:4.4938 54:4.834 55:3.9985 56:3.6083 57:3.6827 58:3.2834 59:3.1406 60:2.2937 61:1.6401 62:2.0661 63:2.0838 64:1.9725 65:1.8749 66:1.9004 67:2.0198 68:2.2245 69:2.3571 70:2.3712 71:2.5141 72:2.692 73:2.7078 74:2.8785 75:2.9848 76:3.2429 77:3.3578 78:3.629 79:3.795 80:3.7056 81:3.8575 82:3.9746 83:4.1568 84:4.6459 85:4.6172 86:4.97 87:5.4776 88:4.5022 89:4.0661 90:2.8137 91:1.4353 92:1.9999 93:2.3684 94:2.6755 95:2.9265 96:3.0448 97:3.0532 98:3.0421 99:3.0895 100:2.8231 101:2.5876 102:2.3935 103:2.179 104:2.0621 105:1.9705 106:2.1169 107:2.1314 108:2.1782 109:2.3094 110:2.3279 111:2.5214 112:2.642 113:2.7634 114:3.171 115:3.2696 116:3.7769 117:4.547 118:4.1582 119:3.8039 120:2.8872 121:0.7335 122:0.9855 123:1.1427 124:1.1765 125:1.1585 126:1.1536 127:1.1136 128:1.0929 129:1.1081 130:1.0842 131:1.0486 132:1.0435 133:1.0442 134:1.0133 135:0.9862 136:1.0049 137:1.0223 138:0.9982 139:0.9527 140:0.9171 141:0.9261 142:0.9031 143:0.9389 144:1.0412 145:1.0247 146:1.1195 147:1.2543 148:1.1048 149:1.0383 150:0.8138 151:1.1137 152:1.3592 153:1.4358 154:1.4567 155:1.5231 156:1.5616 157:1.5185 158:1.4808 159:1.5896 160:1.3639 161:1.2681 162:1.1749 163:1.1907 164:1.1502 165:1.1753 166:1.2995 167:1.3726 168:1.6041 169:1.9241 170:2.1526 171:2.369 172:2.4681 173:2.6739 174:2.7834 175:2.6752 176:2.7848 177:2.9063 178:2.7033 179:2.2394 180:1.6448 
-0 4 0 0 0 1:4.0537 2:5.5248 3:5.9805 4:5.8376 5:5.5377 6:5.0703 7:4.3296 8:3.9891 9:3.6483 10:3.2058 11:2.7121 12:2.5063 13:2.5045 14:2.8803 15:3.0553 16:3.5889 17:3.795 18:4.0174 19:4.3038 20:4.4237 21:4.8696 22:5.0479 23:5.3064 24:5.5588 25:5.2907 26:5.44 27:5.7267 28:4.5643 29:3.9769 30:2.8616 31:2.775 32:3.2464 33:3.1518 34:2.6085 35:2.0633 36:1.7041 37:1.4455 38:1.3496 39:1.6368 40:1.4836 41:1.5768 42:1.6361 43:1.8708 44:1.9592 45:2.1858 46:2.69 47:3.1758 48:4.116 49:4.9971 50:5.8274 51:6.8682 52:6.437 53:5.3602 54:4.7455 55:4.1183 56:4.9831 57:6.2267 58:5.8958 59:5.7883 60:4.2083 61:4.5758 62:5.2197 63:5.0685 64:5.6036 65:6.9019 66:8.3105 67:9.5009 68:11.3393 69:12.7223 70:13.1932 71:13.7533 72:14.5421 73:14.2617 74:14.7565 75:14.7338 76:16.2443 77:17.0083 78:18.3423 79:20.3192 80:20.9748 81:23.4618 82:24.1036 83:24.796 84:26.0541 85:24.386 86:24.8904 87:26.3317 88:21.5712 89:19.3105 90:14.0402 91:5.0996 92:6.6368 93:7.391 94:7.9508 95:8.5047 96:8.793 97:8.8774 98:9.2999 99:9.3644 100:8.7903 101:7.9944 102:7.1556 103:6.1244 104:5.3322 105:4.9667 106:4.9674 107:4.7279 108:4.6835 109:4.6978 110:4.4475 111:4.6014 112:4.5542 113:4.7346 114:5.2526 115:5.1936 116:5.7581 117:6.9229 118:6.8176 119:7.0295 120:5.6274 121:2.175 122:2.952 123:3.4709 124:3.6257 125:3.8017 126:3.7721 127:3.6546 128:3.6367 129:3.5806 130:3.448 131:3.3366 132:3.3201 133:3.2571 134:3.2179 135:3.0975 136:3.2882 137:3.3728 138:3.5938 139:3.844 140:3.7507 141:3.983 142:3.9818 143:4.0697 144:4.4654 145:4.2222 146:4.4767 147:4.9009 148:4.2226 149:4.0072 150:3.1664 151:1.6846 152:1.8181 153:1.8178 154:1.6482 155:1.4929 156:1.439 157:1.3707 158:1.3365 159:1.5935 160:1.5963 161:1.6631 162:1.8008 163:1.916 164:2.0071 165:2.0955 166:2.2799 167:2.2994 168:2.5156 169:2.8637 170:2.8881 171:3.0595 172:2.9742 173:3.1267 174:3.3415 175:3.2544 176:3.5724 177:3.7535 178:3.3009 179:2.7239 180:2.088 
-0 4 0 0 0 1:7.1055 2:9.5324 3:9.6522 4:8.9564 5:8.2318 6:7.3083 7:6.2273 8:5.8638 9:5.46 10:4.7584 11:3.9984 12:3.4154 13:3.0416 14:3.3358 15:3.5016 16:4.121 17:4.5217 18:4.9251 19:5.4696 20:5.5966 21:6.2427 22:6.5042 23:6.9237 24:7.4443 25:6.9504 26:7.0065 27:7.02 28:5.3131 29:4.636 30:3.366 31:3.3886 32:3.7986 33:3.6219 34:2.9156 35:2.2067 36:1.9237 37:1.6747 38:1.5468 39:1.7799 40:1.6475 41:1.7213 42:1.7526 43:2.0472 44:2.35 45:2.6235 46:3.2982 47:3.9599 48:4.8895 49:5.8888 50:6.6784 51:7.8845 52:7.4804 53:6.485 54:6.123 55:5.7042 56:7.1511 57:8.6535 58:7.4127 59:6.8958 60:4.8423 61:4.5429 62:5.0759 63:4.7146 64:5.1808 65:6.5137 66:8.1396 67:9.1939 68:11.0461 69:12.363 70:12.8194 71:13.5514 72:14.4709 73:14.2316 74:14.9693 75:14.9819 76:16.4705 77:17.2588 78:18.3557 79:20.1087 80:20.6096 81:23.0568 82:23.9787 83:25.212 84:27.4474 85:26.6328 86:28.3322 87:31.0567 88:26.0605 89:23.9937 90:17.69 91:2.0172 92:3.4632 93:4.9444 94:6.2918 95:7.2813 96:7.6548 97:7.4739 98:7.3414 99:6.7495 100:5.8202 101:4.7108 102:3.8183 103:2.9548 104:2.3608 105:2.1427 106:2.1149 107:1.9699 108:1.9716 109:2.0402 110:2.0633 111:2.2338 112:2.2342 113:2.2601 114:2.3253 115:2.155 116:2.3463 117:2.8736 118:2.7573 119:2.649 120:2.0517 121:0.8913 122:1.1144 123:1.1947 124:1.1511 125:1.1923 126:1.1753 127:1.1958 128:1.2537 129:1.3475 130:1.3178 131:1.3666 132:1.412 133:1.4614 134:1.4785 135:1.4715 136:1.6471 137:1.7322 138:1.8681 139:1.9703 140:1.8548 141:1.8562 142:1.737 143:1.6192 144:1.5843 145:1.3161 146:1.283 147:1.3551 148:1.1437 149:1.0784 150:0.8115 151:1.0252 152:1.2866 153:1.4683 154:1.4492 155:1.3672 156:1.317 157:1.2266 158:1.1733 159:1.3511 160:1.2164 161:1.105 162:1.0488 163:1.0379 164:1.0712 165:1.1794 166:1.4064 167:1.4436 168:1.5758 169:1.7802 170:1.8145 171:2.0751 172:2.2751 173:2.4142 174:2.6236 175:2.4449 176:2.5431 177:2.7692 178:2.3667 179:2.0262 180:1.5333 
-0 2.002171665011343 0 0 0 1:7.583 2:10.3129 3:10.4689 4:9.6494 5:8.7681 6:7.5899 7:6.305 8:5.8262 9:5.3559 10:4.6465 11:3.8752 12:3.19 13:2.724 14:2.9578 15:3.1021 16:3.6483 17:4.0588 18:4.4435 19:5.0048 20:5.1639 21:5.8232 22:6.1342 23:6.5698 24:7.1162 25:6.7384 26:6.9264 27:7.0639 28:5.4688 29:4.8525 30:3.5077 31:3.5356 32:3.8582 33:3.5389 34:2.8449 35:2.2188 36:2.0029 37:1.8327 38:1.7603 39:1.9134 40:1.776 41:1.7769 42:1.7466 43:1.9785 44:2.1905 45:2.4075 46:3.0147 47:3.6969 48:4.6355 49:5.7918 50:6.7776 51:8.1875 52:7.9751 53:7.0536 54:6.8625 55:6.306 56:7.4365 57:9.0206 58:7.9825 59:7.6402 60:5.3848 61:4.5314 62:5.1969 63:4.5093 64:4.0499 65:4.2926 66:5.1089 67:5.9461 68:7.5719 69:8.9813 70:9.6769 71:10.5863 72:11.6327 73:11.4348 74:12.1406 75:12.2435 76:13.4122 77:14.0107 78:14.9351 79:16.4422 80:17.0555 81:19.534 82:20.9449 83:22.6152 84:25.2855 85:25.2389 86:27.4148 87:30.4843 88:25.8712 89:23.9195 90:17.716 91:1.7921 92:3.0082 93:4.2662 94:5.5327 95:6.5666 96:7.1363 97:7.1504 98:7.3236 99:7.0637 100:6.4024 101:5.5298 102:4.712 103:3.5414 104:2.6465 105:2.2539 106:2.06 107:1.8372 108:1.8043 109:1.8782 110:1.9222 111:2.1111 112:2.1288 113:2.1699 114:2.2001 115:2.0203 116:2.1968 117:2.7084 118:2.5949 119:2.472 120:1.917 121:0.6499 122:0.8636 123:1.0225 124:1.0518 125:1.1436 126:1.1592 127:1.1739 128:1.2325 129:1.3217 130:1.2776 131:1.2889 132:1.3285 133:1.3296 134:1.3227 135:1.2996 136:1.4223 137:1.4412 138:1.4819 139:1.5247 140:1.4142 141:1.3829 142:1.3186 143:1.2407 144:1.2564 145:1.0591 146:1.0311 147:1.0868 148:0.9282 149:0.9036 150:0.7035 151:0.832 152:1.0926 153:1.2943 154:1.3182 155:1.2314 156:1.1915 157:1.1406 158:1.0853 159:1.2654 160:1.1214 161:1.0197 162:0.9334 163:0.8862 164:0.9267 165:1.0312 166:1.2934 167:1.4102 168:1.5527 169:1.6846 170:1.7105 171:1.9126 172:2.0988 173:2.1925 174:2.3618 175:2.2597 176:2.3397 177:2.586 178:2.2236 179:1.8767 180:1.429 
-0 4 0 0 0 1:4.408 2:6.1862 3:6.9155 4:6.8588 5:6.4933 6:5.7907 7:4.812 8:4.0945 9:3.5161 10:2.8625 11:2.5079 12:2.6149 13:2.7264 14:3.0856 15:3.3238 16:4.0603 17:4.6278 18:5.0831 19:5.6171 20:5.6896 21:6.1583 22:6.1107 23:6.0143 24:6.0009 25:5.3364 26:5.1072 27:4.9342 28:3.9431 29:3.4401 30:2.5408 31:2.5867 32:3.2683 33:3.3317 34:2.8288 35:2.121 36:1.6934 37:1.4111 38:1.4429 39:1.7846 40:1.9124 41:2.3305 42:2.7959 43:3.4305 44:3.905 45:4.2088 46:5.0196 47:5.6915 48:6.1619 49:6.3866 50:5.5729 51:5.0351 52:4.7735 53:5.5597 54:7.7557 55:10.2743 56:13.7772 57:17.0407 58:14.5988 59:13.0672 60:9.3397 61:4.7128 62:5.1006 63:4.7218 64:5.3668 65:6.7266 66:8.6985 67:9.8187 68:11.6884 69:13.0827 70:13.442 71:13.5648 72:13.7714 73:13.0451 74:12.9816 75:13.0204 76:13.669 77:13.7695 78:14.3447 79:15.083 80:15.0704 81:16.4515 82:16.3723 83:16.4342 84:17.4702 85:16.4479 86:16.9362 87:17.8493 88:14.4639 89:13.2464 90:9.7038 91:2.5995 92:3.7358 93:4.6488 94:5.1905 95:5.4151 96:5.4604 97:5.3199 98:5.5016 99:5.7442 100:5.654 101:5.3953 102:5.0109 103:4.4083 104:3.9975 105:3.7463 106:3.8175 107:3.8006 108:4.0752 109:4.4025 110:4.4799 111:4.807 112:4.9868 113:5.1081 114:5.5713 115:5.5051 116:6.3187 117:7.6389 118:7.419 119:7.4312 120:5.893 121:1.9385 122:2.7735 123:3.2904 124:3.487 125:3.6949 126:3.8023 127:3.7977 128:3.9316 129:4.0612 130:3.9495 131:3.7806 132:3.7021 133:3.4388 134:3.2247 135:3.0497 136:2.9909 137:2.8845 138:2.8241 139:2.9094 140:2.8984 141:3.1466 142:3.3759 143:3.8227 144:4.6945 145:5.1514 146:5.9847 147:6.8937 148:6.2776 149:5.6992 150:4.4688 151:1.932 152:2.293 153:2.251 154:1.9634 155:1.7406 156:1.6192 157:1.4729 158:1.4057 159:1.6134 160:1.4767 161:1.495 162:1.5967 163:1.595 164:1.6453 165:1.7173 166:2.0118 167:2.3908 168:3.087 169:3.8375 170:4.1491 171:4.5095 172:4.4796 173:4.3018 174:4.4192 175:4.0955 176:4.2362 177:4.5621 178:3.602 179:2.8888 180:2.0605 
-0 4 1.332216926582164 0 0 1:9.0121 2:11.864 3:12.258 4:11.6136 5:10.636 6:9.4673 7:8.1035 8:7.5519 9:7.0488 10:6.0161 11:5.1117 12:4.4447 13:3.6955 14:3.7006 15:3.8741 16:4.5312 17:5.0717 18:5.5124 19:6.1263 20:6.196 21:6.7239 22:6.7773 23:6.8467 24:7.0601 25:6.6056 26:6.5038 27:6.567 28:5.2487 29:4.6436 30:3.4444 31:3.1773 32:3.8567 33:3.6618 34:3.0764 35:2.4611 36:2.1558 37:1.8763 38:1.9991 39:2.4292 40:2.5697 41:2.9613 42:3.4726 43:4.1007 44:4.6618 45:4.9358 46:5.8794 47:6.554 48:7.107 49:7.4853 50:6.7965 51:6.5192 52:6.4751 53:7.4608 54:9.519 55:11.7618 56:15.2704 57:18.5842 58:16.0053 59:14.3233 60:10.1804 61:5.1636 62:6.0294 63:5.3489 64:5.1013 65:5.3409 66:6.8329 67:8.1577 68:10.2429 69:11.9462 70:12.6706 71:13.0541 72:13.4803 73:12.9228 74:12.8505 75:12.7302 76:13.4473 77:13.5361 78:13.8922 79:14.6173 80:14.4166 81:15.8774 82:16.7209 83:17.81 84:20.2407 85:20.2752 86:22.5674 87:25.4589 88:21.8861 89:20.8935 90:15.5993 91:1.574 92:2.6299 93:3.6811 94:4.4884 95:4.8736 96:5.0221 97:4.6868 98:4.621 99:4.324 100:3.9474 101:3.5654 102:3.4474 103:3.1929 104:2.9312 105:2.7443 106:2.7834 107:2.627 108:2.698 109:2.7136 110:2.6517 111:2.7563 112:2.6753 113:2.5041 114:2.3809 115:2.0992 116:2.1483 117:2.573 118:2.5565 119:2.5121 120:1.9544 121:1.6119 122:2.0361 123:2.1907 124:2.1034 125:2.0419 126:1.9745 127:1.8974 128:1.9055 129:1.8834 130:1.8581 131:1.7994 132:1.8104 133:1.7412 134:1.6951 135:1.6526 136:1.6796 137:1.6724 138:1.71 139:1.7762 140:1.7944 141:1.8685 142:1.9744 143:2.0762 144:2.2757 145:2.2076 146:2.3263 147:2.5938 148:2.3252 149:2.166 150:1.6451 151:1.3929 152:1.6391 153:1.7115 154:1.605 155:1.3925 156:1.3152 157:1.2676 158:1.1471 159:1.2525 160:1.1644 161:1.096 162:1.0342 163:0.9729 164:0.8918 165:0.925 166:1.0585 167:1.1088 168:1.2891 169:1.5068 170:1.5863 171:1.8018 172:1.9698 173:2.2299 174:2.3782 175:2.345 176:2.521 177:2.6216 178:2.4269 179:1.9286 180:1.4219 
-0 4 0 0 0 1:8.2564 2:11.1338 3:11.4918 4:11.0329 5:10.224 6:9.2092 7:7.9041 8:7.3933 9:6.9638 10:6.0273 11:5.1958 12:4.4605 13:3.5352 14:3.4987 15:3.666 16:4.4008 17:4.9704 18:5.4262 19:5.9983 20:6.0511 21:6.5868 22:6.7187 23:6.8316 24:7.1905 25:6.793 26:6.779 27:6.9421 28:5.5412 29:4.9396 30:3.6737 31:3.2758 32:3.8981 33:3.7484 34:3.2376 35:2.7296 36:2.4444 37:2.1078 38:2.2003 39:2.6156 40:2.7262 41:3.0799 42:3.4942 43:4.0602 44:4.5683 45:4.7824 46:5.7047 47:6.3583 48:6.9285 49:7.4895 50:7.1381 51:7.325 52:7.6904 53:8.5583 54:10.2332 55:12.1116 56:15.0659 57:17.9311 58:15.3933 59:13.9902 60:9.9948 61:5.0221 62:6.0414 63:5.5671 64:5.2509 65:5.2647 66:6.3239 67:7.5458 68:9.4757 69:11.0416 70:11.8343 71:12.2428 72:12.7991 73:12.452 74:12.5507 75:12.5069 76:13.3163 77:13.4975 78:13.8285 79:14.5599 80:14.2194 81:15.4344 82:16.0145 83:16.8404 84:19.1025 85:19.1428 86:21.5374 87:24.6634 88:21.4788 89:20.8526 90:15.7141 91:1.3963 92:2.3251 93:3.3803 94:4.3248 95:4.9772 96:5.3766 97:5.2228 98:5.2659 99:5.0186 100:4.5823 101:4.0281 102:3.7409 103:3.3444 104:2.9622 105:2.7146 106:2.7339 107:2.5601 108:2.6165 109:2.6084 110:2.5475 111:2.6373 112:2.5566 113:2.3567 114:2.1951 115:1.9016 116:1.9487 117:2.3701 118:2.4033 119:2.3314 120:1.8119 121:1.3538 122:1.7021 123:1.8256 124:1.7453 125:1.7105 126:1.6433 127:1.5736 128:1.5662 129:1.5175 130:1.5278 131:1.4615 132:1.4725 133:1.4518 134:1.4242 135:1.4126 136:1.4238 137:1.4102 138:1.4142 139:1.4492 140:1.4196 141:1.4741 142:1.5661 143:1.6992 144:1.9489 145:1.9013 146:2.016 147:2.2113 148:1.9649 149:1.8443 150:1.4272 151:1.2113 152:1.432 153:1.4889 154:1.4248 155:1.2408 156:1.1883 157:1.1861 158:1.1094 159:1.1904 160:1.0606 161:1.0013 162:0.894 163:0.8863 164:0.8424 165:0.8688 166:1.0575 167:1.1487 168:1.3146 169:1.4919 170:1.5119 171:1.677 172:1.771 173:2.0285 174:2.0938 175:2.1535 176:2.3302 177:2.3421 178:2.2742 179:1.7498 180:1.2906 
-0 4 0 0 0 1:2.148 2:2.8436 3:3.089 4:3.046 5:2.9917 6:2.7997 7:2.5193 8:2.5231 9:2.3771 10:2.1205 11:1.9571 12:1.9643 13:1.9883 14:2.1099 15:2.109 16:2.2681 17:2.3482 18:2.4205 19:2.6411 20:2.7008 21:3.0658 22:3.2065 23:3.4101 24:3.7655 25:3.6306 26:3.8276 27:4.0423 28:3.4462 29:3.1546 30:2.372 31:2.0905 32:2.7464 33:2.9345 34:2.7102 35:2.2956 36:1.9206 37:1.564 38:1.3848 39:1.6598 40:1.5438 41:1.5971 42:1.5365 43:1.6442 44:1.6417 45:1.6864 46:1.8782 47:1.9838 48:2.0816 49:2.1535 50:2.1706 51:2.4509 52:2.6257 53:2.8693 54:3.1461 55:3.0869 56:3.0057 57:2.9325 58:2.1961 59:1.9697 60:1.4516 61:4.2554 62:5.5216 63:5.3664 64:4.5201 65:3.7458 66:3.5546 67:3.8709 68:4.6856 69:5.1104 70:5.3126 71:5.5132 72:5.9017 73:5.9754 74:6.4712 75:6.5758 76:7.3236 77:7.868 78:8.6181 79:9.6493 80:10.4569 81:12.7169 82:14.261 83:15.6849 84:17.7801 85:17.0097 86:17.7244 87:18.7991 88:14.8699 89:13.4906 90:9.4804 91:6.4121 92:8.8747 93:10.2058 94:10.5653 95:10.3499 96:9.8073 97:8.9721 98:8.4716 99:7.6803 100:6.5063 101:5.5298 102:4.9464 103:4.4754 104:4.412 105:4.434 106:4.914 107:5.3259 108:5.8816 109:6.4396 110:6.6626 111:7.4372 112:7.6248 113:8.0654 114:8.991 115:8.9335 116:9.6257 117:11.0895 118:9.7667 119:9.2629 120:7.0472 121:1.9375 122:3.1051 123:3.9035 124:4.5246 125:5.0548 126:5.4263 127:5.5472 128:5.8709 129:5.9228 130:5.7326 131:5.4091 132:5.3669 133:4.9462 134:4.6785 135:4.4477 136:4.5707 137:4.5167 138:4.6416 139:4.859 140:4.6641 141:4.7838 142:4.7819 143:4.9323 144:5.7811 145:6.1308 146:7.1164 147:8.4698 148:7.8763 149:7.7151 150:6.0893 151:3.5194 152:3.8638 153:3.4562 154:2.8787 155:2.4427 156:2.2241 157:2.1024 158:2.1117 159:2.3319 160:2.2225 161:2.1786 162:2.1382 163:2.1342 164:2.1326 165:2.2597 166:2.8498 167:3.6062 168:4.9353 169:6.4296 170:7.1925 171:8.2208 172:8.572 173:8.7531 174:9.7825 175:9.3415 176:9.9801 177:10.685 178:8.8694 179:7.6092 180:5.4902 
-0 0.9954879072790087 0.418566076792692 0 0 1:2.2007 2:2.9672 3:3.2443 4:3.2044 5:3.1425 6:2.9297 7:2.6128 8:2.569 9:2.3954 10:2.1089 11:2.0207 12:2.1703 13:2.3585 14:2.5235 15:2.4857 16:2.6018 17:2.5728 18:2.5849 19:2.7655 20:2.8221 21:3.207 22:3.3315 23:3.5838 24:3.9459 25:3.8005 26:4.0588 27:4.327 28:3.5474 29:3.2195 30:2.3913 31:2.4557 32:3.2177 33:3.4369 34:3.1196 35:2.5574 36:2.098 37:1.5998 38:1.3953 39:1.6521 40:1.4983 41:1.5408 42:1.5657 43:1.7213 44:1.8053 45:1.8742 46:2.1339 47:2.2716 48:2.4114 49:2.5576 50:2.6533 51:3.015 52:3.2534 53:3.5522 54:3.8015 55:3.4648 56:3.2392 57:3.125 58:2.4231 59:2.0653 60:1.4956 61:3.7954 62:5.0083 63:4.9869 64:4.4644 65:3.8184 66:3.519 67:3.8771 68:4.6085 69:4.9989 70:5.1562 71:5.3428 72:5.7055 73:5.7543 74:6.105 75:6.0732 76:6.6158 77:6.8388 78:7.1723 79:7.5346 80:7.5404 81:8.2161 82:8.3137 83:8.6104 84:9.4889 85:9.1864 86:10.0248 87:11.3758 88:9.5476 89:9.1863 90:6.5905 91:6.0739 92:8.196 93:9.4091 94:9.9617 95:10.0982 96:9.9283 97:9.3458 98:8.9414 99:7.9244 100:6.4313 101:5.2263 102:4.6417 103:4.423 104:4.6679 105:4.7946 106:5.6072 107:6.1775 108:6.8041 109:7.4124 110:7.4907 111:8.255 112:8.1451 113:8.2651 114:8.765 115:8.2891 116:8.5615 117:9.6958 118:8.6318 119:8.3544 120:6.4354 121:1.6904 122:2.7366 123:3.4452 124:4.0023 125:4.4696 126:4.8392 127:4.9497 128:5.2328 129:5.2959 130:5.1303 131:4.8072 132:4.7801 133:4.3905 134:4.1117 135:3.9038 136:4.0242 137:3.9831 138:4.0755 139:4.288 140:4.1135 141:4.2102 142:4.191 143:4.3339 144:5.0992 145:5.5268 146:6.5127 147:7.7948 148:7.3033 149:7.2272 150:5.7449 151:3.4312 152:3.8385 153:3.5283 154:3.1033 155:2.8216 156:2.7651 157:2.7503 158:2.7635 159:2.9237 160:2.6338 161:2.4275 162:2.2485 163:2.1871 164:2.126 165:2.3073 166:3.0355 167:4.1226 168:5.9223 169:8.0009 170:9.1295 171:10.5278 172:10.8 173:11.0399 174:12.0902 175:11.2651 176:11.5952 177:11.7773 178:9.6878 179:7.9649 180:5.6357 
-0 0 1.688128044523044 0 0 1:9.2048 2:12.1647 3:12.5666 4:11.5939 5:10.338 6:8.8374 7:7.3635 8:6.6473 9:5.8855 10:5.0881 11:4.269 12:3.5526 13:3.2206 14:3.6352 15:3.8026 16:4.17 17:4.2629 18:4.3127 19:4.7305 20:4.9761 21:5.69 22:6.2099 23:6.8646 24:8.0035 25:8.1931 26:9.0979 27:10.2084 28:8.8182 29:8.0519 30:5.9458 31:4.6603 32:5.1877 33:4.6306 34:3.9067 35:3.549 36:3.4814 37:3.2502 38:3.4214 39:3.6243 40:3.3795 41:3.3657 42:3.4092 43:3.6694 44:3.6857 45:3.827 46:4.5276 47:5.1537 48:5.9607 49:7.1369 50:8.0012 51:9.9526 52:11.1096 53:12.8815 54:15.5581 55:16.9334 56:19.1838 57:20.3989 58:16.8357 59:14.3483 60:10.2316 61:7.671 62:9.3867 63:8.5902 64:6.9812 65:5.9132 66:5.9858 67:6.9298 68:8.5155 69:9.5043 70:9.9824 71:10.3073 72:10.8096 73:10.5847 74:10.714 75:10.5356 76:11.1208 77:11.1114 78:11.1742 79:11.2283 80:10.3408 81:10.7313 82:10.7647 83:11.4619 84:12.6359 85:12.5341 86:13.6996 87:15.168 88:13.2021 89:12.8857 90:9.7045 91:1.1781 92:1.8095 93:2.5304 94:3.2392 95:3.9571 96:4.4086 97:4.5434 98:4.8341 99:4.9527 100:4.812 101:4.5473 102:4.2335 103:3.4838 104:2.9403 105:2.6279 106:2.4488 107:2.2654 108:2.1924 109:2.1505 110:2.0572 111:2.1996 112:2.179 113:2.1564 114:2.2165 115:1.9873 116:2.2007 117:2.6936 118:2.6434 119:2.5221 120:1.8852 121:1.3863 122:1.8502 123:1.9722 124:1.9084 125:1.7935 126:1.6276 127:1.5345 128:1.4933 129:1.3917 130:1.3795 131:1.2844 132:1.2896 133:1.2897 134:1.2602 135:1.2347 136:1.3042 137:1.3344 138:1.3992 139:1.4949 140:1.4946 141:1.6519 142:1.7792 143:1.9076 144:2.1277 145:1.9441 146:1.9977 147:2.0957 148:1.8036 149:1.6985 150:1.3361 151:1.0941 152:1.2136 153:1.2945 154:1.259 155:1.1783 156:1.1772 157:1.2715 158:1.2297 159:1.3737 160:1.3102 161:1.209 162:1.1545 163:1.1446 164:1.0141 165:1.0909 166:1.1506 167:1.1492 168:1.3279 169:1.4217 170:1.4634 171:1.6828 172:1.8532 173:2.0228 174:2.2175 175:2.1022 176:2.2174 177:2.62 178:2.0959 179:1.7672 180:1.2642 
-0 4 4 0.4875704841367794 0 1:10.9267 2:14.4676 3:14.8219 4:13.6926 5:12.0092 6:10.0589 7:8.1822 8:7.1586 9:6.1967 10:5.2293 11:4.3551 12:3.7558 13:3.5086 14:4.0418 15:4.1897 16:4.5206 17:4.6108 18:4.6958 19:5.11 20:5.3271 21:6.0453 22:6.5584 23:7.1844 24:8.4574 25:8.6224 26:9.5448 27:10.6822 28:9.1133 29:8.2497 30:6.0755 31:4.081 32:4.6723 33:4.3558 34:3.7776 35:3.44 36:3.274 37:3.0019 38:3.0877 39:3.3467 40:3.1839 41:3.296 42:3.4233 43:3.8077 44:4.1104 45:4.3553 46:5.1413 47:5.7073 48:6.2601 49:6.9161 50:7.1937 51:8.3511 52:9.2221 53:11.4983 54:15.601 55:18.7442 56:22.866 57:24.7602 58:20.3727 59:16.7795 60:11.8093 61:8.5594 62:10.2687 63:9.2843 64:7.5392 65:6.6065 66:7.0372 67:8.1025 68:9.96 69:11.2972 70:11.8146 71:12.1246 72:12.5053 73:12.0755 74:12.205 75:11.994 76:12.4929 77:12.5082 78:12.4937 79:12.726 80:12.0434 81:12.8432 82:13.0985 83:14.0572 84:15.5925 85:15.6155 86:16.7983 87:18.4549 88:15.8852 89:14.7969 90:11.1287 91:1.233 92:1.9485 93:2.7294 94:3.4125 95:4.0079 96:4.2863 97:4.2406 98:4.341 99:4.3071 100:4.0916 101:3.8302 102:3.6544 103:3.1442 104:2.8142 105:2.5557 106:2.4412 107:2.2787 108:2.2161 109:2.1903 110:2.0898 111:2.2126 112:2.2165 113:2.1785 114:2.25 115:2.0597 116:2.2765 117:2.7814 118:2.6898 119:2.5485 120:1.9254 121:1.7444 122:2.4341 123:2.7337 124:2.7055 125:2.629 126:2.3721 127:2.2283 128:2.139 129:2.0131 130:2.0057 131:1.9138 132:2.0053 133:2.0501 134:2.1087 135:2.1153 136:2.2692 137:2.3037 138:2.3397 139:2.3355 140:2.2281 141:2.3027 142:2.3303 143:2.3697 144:2.5529 145:2.2799 146:2.2959 147:2.3512 148:1.9923 149:1.8045 150:1.3956 151:1.1819 152:1.299 153:1.3268 154:1.2777 155:1.1797 156:1.1583 157:1.241 158:1.1688 159:1.3336 160:1.2741 161:1.1728 162:1.1226 163:1.1446 164:1.0408 165:1.112 166:1.1695 167:1.12 168:1.2292 169:1.3123 170:1.336 171:1.5453 172:1.7052 173:1.9121 174:2.0633 175:1.9393 176:2.0568 177:2.5105 178:2.0175 179:1.7861 180:1.2655 
-0 4 0 0 0 1:10.612 2:14.043 3:14.2748 4:13.316 5:11.8045 6:9.9406 7:8.1901 8:7.0844 9:6.0896 10:5.1558 11:4.3745 12:3.7352 13:3.3981 14:3.8614 15:3.9849 16:4.3039 17:4.4093 18:4.5448 19:4.9618 20:5.2209 21:5.9473 22:6.4156 23:6.9387 24:8.1049 25:8.182 26:9.0124 27:10.168 28:8.7344 29:8.0129 30:5.9076 31:3.2191 32:3.7631 33:3.7544 34:3.389 35:3.1393 36:3.003 37:2.7575 38:2.8004 39:3.0805 40:2.9234 41:3.0093 42:3.112 43:3.4343 44:3.8398 45:4.0842 46:4.8238 47:5.2844 48:5.7732 49:6.2512 50:6.3644 51:7.3179 52:8.0947 53:9.8825 54:12.903 55:15.4965 56:19.2881 57:21.5746 58:17.8899 59:14.9934 60:10.5714 61:8.5493 62:10.4633 63:9.4525 64:7.7973 65:6.8862 66:7.0534 67:7.7969 68:9.4359 69:10.6974 70:11.1845 71:11.4986 72:11.8718 73:11.5646 74:11.8277 75:11.6581 76:12.2755 77:12.3452 78:12.3746 79:12.5108 80:11.8745 81:12.7055 82:13.1196 83:14.3558 84:16.4029 85:16.8227 86:18.2722 87:20.3755 88:17.5296 89:16.265 90:12.1728 91:1.6708 92:2.4967 93:3.1744 94:3.5814 95:3.8966 96:3.9715 97:3.8013 98:3.8981 99:3.9302 100:3.7882 101:3.6283 102:3.5373 103:3.1554 104:2.895 105:2.6511 106:2.568 107:2.4055 108:2.2979 109:2.2505 110:2.1406 111:2.2901 112:2.3486 113:2.3701 114:2.5152 115:2.3425 116:2.4944 117:2.9036 118:2.7141 119:2.559 120:1.9311 121:1.9135 122:2.6656 123:2.9741 124:2.9366 125:2.8684 126:2.642 127:2.5277 128:2.4519 129:2.3351 130:2.2851 131:2.2187 132:2.2962 133:2.3422 134:2.382 135:2.3784 136:2.5669 137:2.5811 138:2.6063 139:2.6284 140:2.5354 141:2.6444 142:2.692 143:2.7479 144:2.9812 145:2.7384 146:2.8595 147:3.0369 148:2.5783 149:2.3654 150:1.803 151:1.6156 152:1.7601 153:1.7177 154:1.4979 155:1.3168 156:1.2338 157:1.2771 158:1.2004 159:1.4127 160:1.3669 161:1.2517 162:1.2113 163:1.1743 164:0.9809 165:1.0307 166:1.0476 167:0.9985 168:1.1284 169:1.2451 170:1.3419 171:1.5712 172:1.7536 173:1.9728 174:2.1178 175:2.0464 176:2.2407 177:2.6425 178:2.2611 179:1.8897 180:1.3254 
-0 4 0 0 0 1:2.9994 2:4.186 3:4.6403 4:4.7231 5:4.679 6:4.4145 7:3.9212 8:3.6797 9:3.3171 10:2.6229 11:2.0457 12:1.8935 13:2.1739 14:2.6253 15:2.7257 16:3.0763 17:3.126 18:3.2769 19:3.5648 20:3.6112 21:4.0821 22:4.3223 23:4.6758 24:5.1188 25:4.8595 26:5.1471 27:5.2575 28:4.2302 29:3.6384 30:2.6174 31:3.2119 32:3.5159 33:3.4253 34:2.7196 35:1.9733 36:1.6509 37:1.4619 38:1.5655 39:1.9252 40:1.951 41:2.1048 42:2.1858 43:2.3068 44:2.2934 45:2.4095 46:2.7779 47:3.08 48:3.571 49:4.2142 50:4.569 51:4.8496 52:4.5157 53:4.2663 54:4.7202 55:5.2563 56:6.4149 57:7.421 58:6.7361 59:6.0638 60:4.325 61:4.8862 62:5.9964 63:5.9028 64:6.2443 65:7.6052 66:9.2012 67:10.0191 68:11.3631 69:12.4749 70:12.9849 71:13.5828 72:14.4208 73:14.6135 74:15.3981 75:15.4089 76:17.1945 77:18.0059 78:19.6837 79:21.6358 80:22.3437 81:24.412 82:24.4205 83:24.5385 84:25.5064 85:22.9863 86:22.6568 87:23.4243 88:18.2165 89:15.6833 90:11.243 91:4.2485 92:6.276 93:7.436 94:7.8569 95:7.9396 96:7.7607 97:7.2293 98:7.0347 99:6.4836 100:5.6823 101:4.9506 102:4.8611 103:4.8946 104:5.1617 105:5.0563 106:5.5027 107:5.4959 108:5.5121 109:5.5752 110:5.4512 111:5.8028 112:5.8417 113:6.0956 114:6.4735 115:6.0442 116:6.4808 117:7.4329 118:6.6687 119:6.1759 120:4.6424 121:2.5384 122:3.7775 123:4.6885 124:5.2247 125:5.6221 126:5.6819 127:5.6268 128:5.7306 129:5.6372 130:5.4423 131:5.2066 132:5.1588 133:4.9174 134:4.5889 135:4.2965 136:4.3782 137:4.2535 138:4.1665 139:4.2408 140:4.0297 141:4.1493 142:4.2268 143:4.2553 144:4.7099 145:4.2918 146:4.3654 147:4.756 148:3.8671 149:3.3879 150:2.5112 151:1.5549 152:1.8096 153:1.8903 154:1.682 155:1.5155 156:1.4638 157:1.4717 158:1.3511 159:1.4598 160:1.4033 161:1.3665 162:1.3676 163:1.4158 164:1.4097 165:1.5569 166:1.8543 167:2.1471 168:2.4332 169:2.5404 170:2.3503 171:2.3876 172:2.3757 173:2.445 174:2.8016 175:2.8449 176:3.3144 177:3.8802 178:3.2967 179:2.8401 180:2.0651 
-0 4 0 0 0 1:4.4802 2:5.9946 3:6.3072 4:6.1974 5:5.9816 6:5.634 7:5.0498 8:4.8594 9:4.4603 10:3.6089 11:2.7652 12:2.4985 13:2.7124 14:3.1376 15:3.2605 16:3.6923 17:3.8309 18:4.1226 19:4.5567 20:4.6525 21:5.2666 22:5.3882 23:5.788 24:6.072 25:5.6227 26:5.7846 27:5.7888 28:4.597 29:3.9263 30:2.8151 31:3.2682 32:3.5303 33:3.3899 34:2.7088 35:2.0371 36:1.7081 37:1.5112 38:1.6394 39:2.0117 40:2.0077 41:2.1138 42:2.1921 43:2.3044 44:2.3616 45:2.5315 46:3.0006 47:3.4326 48:4.0684 49:4.9153 50:5.3883 51:5.7432 52:5.3794 53:4.9787 54:5.0969 55:5.4601 56:6.6279 57:7.7051 58:7.0867 59:6.2839 60:4.5017 61:5.1857 62:6.4211 63:6.2985 64:6.4611 65:7.5471 66:8.7531 67:9.3963 68:10.7125 69:11.8877 70:12.5615 71:13.3975 72:14.5531 73:14.7886 74:15.5762 75:15.5604 76:17.2091 77:17.8553 78:19.2079 79:20.7778 80:20.9011 81:22.2124 82:21.7226 83:21.3556 84:21.8923 85:19.7887 86:19.857 87:21.3198 88:17.4434 89:15.77 90:11.5921 91:4.0786 92:6.1243 93:7.3876 94:8.0113 95:8.3044 96:8.2701 97:7.8344 98:7.7067 99:7.2251 100:6.4336 101:5.7639 102:5.7744 103:5.6787 104:5.7601 105:5.5834 106:5.9339 107:5.8021 108:5.6893 109:5.611 110:5.3529 111:5.6082 112:5.5811 113:5.8055 114:6.0703 115:5.6582 116:6.0056 117:6.8229 118:6.1391 119:5.6795 120:4.2759 121:2.4543 122:3.749 123:4.6677 124:5.2178 125:5.6403 126:5.6257 127:5.4802 128:5.4788 129:5.2791 130:4.9219 131:4.5382 132:4.4117 133:4.0375 134:3.6281 135:3.3545 136:3.3206 137:3.1537 138:3.0702 139:3.1114 140:2.9607 141:3.1248 142:3.1975 143:3.3246 144:3.7502 145:3.4615 146:3.5628 147:3.8539 148:3.2087 149:2.8378 150:2.1187 151:1.7134 152:1.9928 153:1.9914 154:1.724 155:1.5181 156:1.3959 157:1.3392 158:1.2456 159:1.3564 160:1.3611 161:1.3779 162:1.3537 163:1.4079 164:1.3207 165:1.4338 166:1.5796 167:1.73 168:1.9074 169:1.9907 170:1.9228 171:2.0595 172:2.1209 173:2.324 174:2.6404 175:2.8111 176:3.244 177:3.6803 178:3.2557 179:2.7502 180:2.0465 
-0 4 4 0 0 1:3.8604 2:5.1538 3:5.4502 4:5.3843 5:5.3432 6:5.1675 7:4.7177 8:4.7664 9:4.6122 10:4.4425 11:3.9346 12:3.5641 13:3.0636 14:2.9727 15:3.0229 16:3.2609 17:3.4669 18:3.795 19:4.4039 20:4.8385 21:5.5538 22:5.8679 23:6.2938 24:6.6856 25:6.236 26:6.3249 27:6.5799 28:5.3281 29:4.77 30:3.4754 31:4.2038 32:4.7558 33:4.2336 34:3.4691 35:2.5344 36:1.8629 37:1.3808 38:1.3891 39:1.7753 40:2.0324 41:2.295 42:2.7153 43:3.2554 44:3.6709 45:3.8186 46:4.6183 47:5.455 48:6.4165 49:7.5742 50:7.8214 51:7.4213 52:5.7505 53:4.8877 54:5.0508 55:5.9239 56:7.5694 57:9.258 58:7.8351 59:7.1536 60:5.0224 61:5.276 62:6.4159 63:6.1532 64:6.339 65:7.3194 66:8.7885 67:9.594 68:11.1601 69:12.3303 70:12.7005 71:13.1827 72:14.0639 73:14.0618 74:14.4215 75:14.341 76:15.7774 77:16.3485 78:17.6525 79:19.6347 80:19.6955 81:21.3004 82:20.8362 83:20.8446 84:21.5448 85:20.2306 86:21.0849 87:22.9934 88:19.3352 89:17.8 90:13.3526 91:2.029 92:2.9533 93:3.9015 94:4.5845 95:5.0288 96:5.2121 97:5.1574 98:5.3504 99:5.5762 100:5.5643 101:5.2343 102:5.0292 103:4.5605 104:4.3881 105:4.2775 106:4.7261 107:4.9032 108:5.4011 109:5.8604 110:5.9434 111:6.385 112:6.4724 113:6.6463 114:7.0203 115:6.7966 116:7.6931 117:9.4553 118:9.3827 119:9.5905 120:7.6022 121:3.1763 122:4.564 123:5.393 124:5.5286 125:5.7693 126:5.5833 127:5.4069 128:5.4525 129:5.3392 130:5.009 131:4.7509 132:4.5904 133:4.3267 134:4.006 135:3.7909 136:3.8463 137:3.7712 138:3.7327 139:3.818 140:3.6373 141:3.8094 142:3.9067 143:4.1017 144:4.718 145:4.736 146:5.4628 147:6.401 148:6.0927 149:5.8896 150:4.6126 151:1.8511 152:2.0328 153:2.0009 154:1.7712 155:1.6382 156:1.531 157:1.4839 158:1.4937 159:1.631 160:1.5343 161:1.469 162:1.3767 163:1.4913 164:1.4488 165:1.6272 166:1.9026 167:2.2951 168:2.9759 169:3.7357 170:4.1555 171:4.6003 172:4.4598 173:4.5753 174:4.6959 175:4.548 176:4.7926 177:4.7848 178:4.0911 179:3.005 180:2.1584 
-0 2.261592036715218 0 0 0 1:4.315 2:5.91 3:6.2096 4:6.293 5:6.1619 6:5.7991 7:5.2557 8:5.1418 9:4.9001 10:4.3799 11:3.5595 12:2.9503 13:2.5613 14:2.7828 15:3.0379 16:3.4253 17:3.6883 18:4.0886 19:4.6922 20:5.1769 21:5.8239 22:6.0934 23:6.5198 24:6.9188 25:6.5102 26:6.7591 27:7.0275 28:5.6884 29:5.0341 30:3.7081 31:3.1894 32:3.485 33:3.1397 34:2.5817 35:1.9673 36:1.6289 37:1.3787 38:1.4155 39:1.8261 40:1.8892 41:2.1365 42:2.3931 43:2.8788 44:3.1457 45:3.2572 46:3.8578 47:4.4564 48:5.2055 49:6.0045 50:6.0888 51:5.5883 52:4.0432 53:3.602 54:4.3382 55:5.7752 56:8.2359 57:10.3958 58:8.387 59:7.4468 60:5.1201 61:5.4223 62:6.9854 63:6.6535 64:6.1501 65:6.4515 66:7.0553 67:7.6401 68:9.1917 69:10.4183 70:10.9696 71:11.5828 72:12.2849 73:12.2941 74:12.6708 75:12.7652 76:14.0508 77:14.7403 78:15.9823 79:17.5635 80:17.5299 81:19.0578 82:18.5521 83:18.4093 84:18.9745 85:17.5289 86:17.8735 87:19.0871 88:15.7879 89:14.2945 90:10.6084 91:2.8631 92:3.651 93:4.1722 94:4.4095 95:4.7246 96:4.8099 97:4.8101 98:5.0798 99:5.1897 100:5.1875 101:5.2628 102:5.27 103:4.9815 104:4.7634 105:4.4308 106:4.431 107:4.2287 108:4.0793 109:4.0083 110:3.7266 111:3.7773 112:3.6784 113:3.7796 114:4.024 115:3.9481 116:4.4667 117:5.4677 118:5.221 119:5.3066 120:4.1641 121:2.1056 122:3.1289 123:3.9321 124:4.4364 125:4.8741 126:5.1064 127:5.159 128:5.4693 129:5.5826 130:5.4501 131:5.3024 132:5.2709 133:4.9991 134:4.8344 135:4.6475 136:4.8041 137:4.769 138:4.9271 139:5.0151 140:4.9012 141:5.1407 142:5.1356 143:5.195 144:5.5758 145:5.1536 146:5.1525 147:5.5428 148:4.6395 149:4.2635 150:3.2425 151:2.2724 152:2.5576 153:2.5089 154:2.2483 155:1.9783 156:1.8038 157:1.7276 158:1.6505 159:1.7778 160:1.6499 161:1.6243 162:1.6356 163:1.8654 164:1.9511 165:2.2182 166:2.8042 167:3.4547 168:4.2786 169:4.9337 170:4.9146 171:4.7504 172:4.537 173:4.438 174:4.6552 175:4.3646 176:4.4106 177:4.375 178:3.817 179:3.0189 180:2.1929 
-0 4 4 0 0 1:9.1243 2:12.3421 3:13.2882 4:12.8394 5:12.2878 6:11.4656 7:10.2875 8:9.9201 9:9.3005 10:8.0633 11:6.5479 12:5.2225 13:3.9075 14:3.6067 15:3.5773 16:4.11 17:4.3899 18:4.7899 19:5.146 20:5.245 21:5.9411 22:6.3409 23:7.0656 24:8.29 25:8.4719 26:9.5036 27:10.5164 28:8.6849 29:7.9056 30:5.6629 31:3.766 32:4.5874 33:4.6132 34:4.4383 35:4.3657 36:4.3336 37:4.1877 38:4.3314 39:4.5794 40:4.1084 41:3.9106 42:3.7393 43:3.5163 44:3.39 45:3.3651 46:3.5574 47:3.877 48:4.711 49:6.14 50:8.0937 51:11.0118 52:12.8418 53:14.0801 54:15.7223 55:15.8653 56:17.5695 57:18.5202 58:15.4439 59:12.8811 60:9.0733 61:5.8286 62:7.0626 63:6.5009 64:5.6376 65:5.3848 66:6.0156 67:6.8175 68:8.5094 69:9.794 70:10.2908 71:10.7171 72:11.3704 73:11.18 74:11.1396 75:10.7966 76:11.2622 77:11.2167 78:11.3748 79:11.6042 80:10.8873 81:11.4863 82:11.4896 83:12.3655 84:14.045 85:14.4605 86:16.2051 87:19.0883 88:16.8783 89:16.6991 90:12.5321 91:1.2122 92:1.9595 93:2.9704 94:3.9459 95:4.8365 96:5.5073 97:5.6832 98:6.0445 99:6.0886 100:5.8493 101:5.5055 102:5.1607 103:4.325 104:3.5481 105:3.1453 106:2.9168 107:2.5713 108:2.5184 109:2.4474 110:2.3321 111:2.4386 112:2.2999 113:2.2015 114:2.1363 115:1.9042 116:2.2102 117:2.7814 118:2.9221 119:2.717 120:2.06 121:0.9305 122:1.1828 123:1.3266 124:1.3384 125:1.3658 126:1.3486 127:1.3222 128:1.3224 129:1.2879 130:1.2532 131:1.2058 132:1.2208 133:1.1628 134:1.08 135:1.0188 136:1.0153 137:0.9494 138:0.9453 139:0.9892 140:0.9996 141:1.121 142:1.2564 143:1.5131 144:1.804 145:1.8823 146:2.1172 147:2.402 148:2.2422 149:2.1735 150:1.6182 151:1.0583 152:1.2291 153:1.2947 154:1.2873 155:1.2195 156:1.1804 157:1.2298 158:1.1549 159:1.2627 160:1.155 161:1.1196 162:1.0507 163:1.033 164:0.9909 165:1.0442 166:1.2144 167:1.3756 168:1.523 169:1.6822 170:1.8124 171:1.9457 172:2.0989 173:2.2724 174:2.4167 175:2.3306 176:2.4312 177:2.5699 178:2.183 179:1.7175 180:1.2275 
-0 4 4 1.334629490630892 1.815919366932593 1:10.7987 2:14.511 3:15.5302 4:14.9251 5:14.0782 6:12.9119 7:11.2952 8:10.4962 9:9.4502 10:7.9863 11:6.5975 12:5.6786 13:4.6525 14:4.4818 15:4.4733 16:4.9915 17:5.1653 18:5.4411 19:5.8174 20:5.8014 21:6.5201 22:6.8534 23:7.5374 24:8.6835 25:8.6321 26:9.5107 27:10.4474 28:8.579 29:7.8224 30:5.6636 31:3.7565 32:4.7076 33:4.8103 34:4.5999 35:4.427 36:4.2186 37:4.0742 38:4.1406 39:4.3527 40:3.9718 41:3.872 42:3.8475 43:3.7634 44:3.7107 45:3.7461 46:4.0514 47:4.3487 48:5.1901 49:6.4811 50:8.1945 51:10.8036 52:12.3623 53:13.6137 54:15.454 55:15.9953 56:18.226 57:19.7295 58:16.5846 59:13.9933 60:9.8998 61:6.4473 62:7.5973 63:6.7358 64:5.7862 65:5.5717 66:6.3439 67:7.4138 68:9.4243 69:10.7019 70:11.1445 71:11.469 72:11.9877 73:11.7057 74:11.5734 75:11.2121 76:11.5716 77:11.3297 78:11.4313 79:11.6206 80:10.9449 81:11.5282 82:11.5869 83:12.4443 84:14.1683 85:14.5149 86:16.2039 87:18.9944 88:16.636 89:16.4585 90:12.2746 91:1.2132 92:2.0139 93:3.1571 94:4.2498 95:5.2025 96:5.8886 97:5.9753 98:6.2277 99:6.1351 100:5.7712 101:5.2999 102:4.8978 103:4.2322 104:3.5728 105:3.2104 106:3.0079 107:2.703 108:2.6452 109:2.5835 110:2.4559 111:2.5251 112:2.3318 113:2.1851 114:2.0856 115:1.8786 116:2.2527 117:2.8776 118:3.0589 119:2.8746 120:2.1892 121:1.2691 122:1.6185 123:1.7959 124:1.7811 125:1.7932 126:1.7395 127:1.686 128:1.7012 129:1.6523 130:1.6339 131:1.5827 132:1.6237 133:1.5931 134:1.5975 135:1.5106 136:1.5968 137:1.5749 138:1.5922 139:1.6035 140:1.5824 141:1.7059 142:1.8674 143:2.1233 144:2.4733 145:2.4715 146:2.6785 147:2.915 148:2.5867 149:2.4345 150:1.7994 151:1.1187 152:1.2623 153:1.3203 154:1.2857 155:1.2088 156:1.1864 157:1.2303 158:1.1722 159:1.3052 160:1.2314 161:1.191 162:1.1334 163:1.1126 164:1.0577 165:1.1019 166:1.2375 167:1.3627 168:1.4442 169:1.577 170:1.6823 171:1.7761 172:1.9348 173:2.1046 174:2.2437 175:2.1986 176:2.3436 177:2.4832 178:2.1617 179:1.6702 180:1.2076 
-0 4 4 0 0 1:12.1605 2:16.2259 3:17.3734 4:16.7307 5:15.7147 6:14.4673 7:12.6189 8:11.7282 9:10.5516 10:8.8605 11:7.1225 12:5.911 13:4.6594 14:4.3608 15:4.296 16:4.6801 17:4.7844 18:4.9816 19:5.2417 20:5.2 21:5.8513 22:6.1726 23:6.8137 24:8.0021 25:8.0095 26:8.9368 27:9.7977 28:7.9544 29:7.1498 30:5.1297 31:3.9769 32:4.8772 33:4.8471 34:4.4272 35:4.1267 36:3.8723 37:3.8294 38:3.9677 39:4.2649 40:3.9174 41:3.8616 42:3.8195 43:3.6623 44:3.5883 45:3.6164 46:3.7564 47:3.9706 48:4.6045 49:5.6682 50:7.1233 51:9.441 52:11.2476 53:12.7199 54:14.9814 55:15.7653 56:18.1221 57:19.7586 58:16.6565 59:14.1337 60:10.0401 61:6.8037 62:7.7794 63:6.6677 64:5.5258 65:5.3222 66:6.1607 67:7.3747 68:9.4445 69:10.6661 70:10.984 71:11.2319 72:11.5551 73:11.2174 74:10.9563 75:10.5939 76:10.9224 77:10.6599 78:10.8344 79:11.039 80:10.4814 81:11.0438 82:11.0532 83:11.6575 84:13.1572 85:13.1833 86:14.4353 87:16.6611 88:14.2958 89:13.8803 90:10.1529 91:1.3803 92:2.2828 93:3.4115 94:4.3571 95:5.1136 96:5.5418 97:5.5497 98:5.7366 99:5.7154 100:5.4659 101:5.1466 102:4.876 103:4.3407 104:3.7382 105:3.3821 106:3.2571 107:2.944 108:2.8821 109:2.8242 110:2.6705 111:2.7457 112:2.5319 113:2.372 114:2.3402 115:2.1788 116:2.6007 117:3.2607 118:3.4139 119:3.238 120:2.4701 121:1.5329 122:1.981 123:2.2274 124:2.2505 125:2.2416 126:2.1646 127:2.1197 128:2.1529 129:2.0944 130:2.0945 131:2.0581 132:2.1271 133:2.0966 134:2.1085 135:2.0064 136:2.1263 137:2.1235 138:2.1332 139:2.1748 140:2.1073 141:2.2169 142:2.3693 143:2.5311 144:2.8377 145:2.7409 146:2.9435 147:3.2272 148:2.8486 149:2.6846 150:1.9977 151:1.3278 152:1.442 153:1.4638 154:1.4207 155:1.2665 156:1.2369 157:1.2534 158:1.2097 159:1.3385 160:1.3321 161:1.3053 162:1.2858 163:1.2571 164:1.1538 165:1.18 166:1.2586 167:1.3405 168:1.4314 169:1.5688 170:1.6385 171:1.7508 172:1.9038 173:1.9595 174:2.1384 175:2.0781 176:2.2572 177:2.5495 178:2.2313 179:1.8058 180:1.3471 
-0 4 4 0 0 1:6.5484 2:9.1217 3:9.9888 4:10.0203 5:9.6746 6:9.0394 7:7.8315 8:7.2494 9:6.5737 10:5.7185 11:4.8273 12:4.3108 13:3.5288 14:3.3005 15:3.2665 16:3.4308 17:3.4318 18:3.4441 19:3.4886 20:3.3997 21:3.7929 22:3.8624 23:4.1008 24:4.6201 25:4.5121 26:4.9702 27:5.598 28:4.754 29:4.4892 30:3.3234 31:3.8213 32:4.7052 33:4.6275 34:4.2673 35:3.9672 36:3.6231 37:3.482 38:3.6425 39:3.966 40:3.7295 41:3.6693 42:3.6371 43:3.4603 44:3.1562 45:2.9832 46:2.8503 47:2.7136 48:2.874 49:3.4542 50:4.4541 51:6.2283 52:8.3148 53:10.9787 54:14.2154 55:15.4157 56:16.9236 57:17.7935 58:14.4008 59:12.0722 60:8.5516 61:7.0961 62:8.1595 63:6.9971 64:5.6633 65:5.467 66:6.2977 67:7.5207 68:9.5875 69:11.0427 70:11.3663 71:11.5464 72:11.7709 73:11.248 74:11.1211 75:10.9505 76:11.5931 77:11.6124 78:12.1525 79:12.7036 80:12.5334 81:13.4191 82:13.4057 83:13.6799 84:14.671 85:13.8 86:13.9353 87:14.8828 88:11.7981 89:10.6016 90:7.5473 91:4.2937 92:5.495 93:6.0145 94:6.3767 95:6.9171 96:7.4043 97:7.6444 98:8.3953 99:8.9089 100:9.1893 101:9.2114 102:9.0667 103:8.3913 104:7.4153 105:6.7363 106:6.6028 107:6.3708 108:6.5015 109:6.7056 110:6.3939 111:6.6551 112:6.4733 113:6.4917 114:7.0815 115:6.9223 116:7.877 117:9.1626 118:7.8807 119:7.2388 120:5.3015 121:3.2782 122:4.9505 123:6.0714 124:6.6629 125:7.1313 126:7.213 127:7.0597 128:7.1773 129:6.9617 130:6.6427 131:6.2111 132:6.0012 133:5.7159 134:5.3105 135:4.9454 136:5.0113 137:4.8037 138:4.6562 139:4.5632 140:4.2462 141:4.2865 142:4.3052 143:4.5357 144:5.1578 145:5.2735 146:6.0426 147:6.9505 148:6.4091 149:6.2818 150:4.8945 151:1.7128 152:1.9349 153:2.0144 154:1.9136 155:1.8156 156:1.773 157:1.7787 158:1.8365 159:2.0087 160:2.0008 161:1.9647 162:1.9288 163:1.907 164:1.9466 165:2.0141 166:2.4708 167:3.1069 168:4.3093 169:5.4716 170:5.8781 171:6.1662 172:5.5649 173:5.1291 174:4.8209 175:4.1284 176:4.0844 177:3.9417 178:3.3406 179:2.5783 180:1.8623 
-0 4 0 0 0 1:2.7643 2:3.7786 3:4.0442 4:3.9955 5:3.8284 6:3.6018 7:3.0807 8:2.9269 9:2.6713 10:2.1092 11:1.8092 12:1.9109 13:2.1591 14:2.2667 15:2.2513 16:2.2802 17:2.2562 18:2.212 19:2.2823 20:2.3632 21:2.608 22:2.7227 23:2.8847 24:3.2238 25:3.1983 26:3.4665 27:3.7186 28:3.1053 29:2.8866 30:2.1534 31:3.0077 32:3.7261 33:3.6083 34:3.1029 35:2.4242 36:1.9013 37:1.5378 38:1.5937 39:1.9097 40:1.7999 41:1.6735 42:1.6482 43:1.7172 44:1.6211 45:1.6413 46:1.796 47:1.874 48:1.9568 49:2.2502 50:2.4799 51:2.9799 52:3.3896 53:3.9865 54:4.2936 55:3.9694 56:3.3638 57:2.8598 58:2.1418 59:2.0076 60:1.4865 61:4.0532 62:4.9545 63:4.5871 64:4.1413 65:4.2483 66:4.9172 67:5.6097 68:6.5326 69:7.0454 70:7.0538 71:7.0806 72:7.3939 73:7.2813 74:7.4825 75:7.4768 76:8.3386 77:8.687 78:9.4365 79:10.2411 80:10.5817 81:12.1974 82:13.4876 83:15.018 84:16.9774 85:16.017 86:16.1215 87:16.8283 88:13.1266 89:11.5175 90:8.0754 91:5.7465 92:7.5511 93:8.454 94:8.694 95:9.093 96:9.3703 97:9.3119 98:9.7872 99:9.7686 100:9.2514 101:8.4972 102:7.9211 103:7.1494 104:6.5658 105:6.213 106:6.4945 107:6.7505 108:7.2671 109:7.7779 110:7.8735 111:8.6052 112:8.9013 113:9.4447 114:10.6914 115:10.532 116:11.6649 117:12.9093 118:10.6512 119:9.3385 120:6.7366 121:2.4601 122:3.7898 123:4.6709 124:5.2198 125:5.667 126:5.8174 127:5.7181 128:5.8162 129:5.7087 130:5.371 131:5.0438 132:4.8539 133:4.5754 134:4.3132 135:4.0156 136:4.1299 137:4.0167 138:3.9738 139:3.93 140:3.6929 141:3.7366 142:3.6555 143:3.7786 144:4.1897 145:4.1157 146:4.5892 147:5.1963 148:4.8191 149:4.8074 150:3.7867 151:2.7984 152:3.3107 153:3.3043 154:3.05 155:2.835 156:2.6164 157:2.4359 158:2.313 159:2.3366 160:2.0483 161:1.9112 162:1.8586 163:1.8333 164:2.0017 165:2.1734 166:2.9546 167:3.8794 168:5.3123 169:6.6567 170:7.1537 171:7.6233 172:7.1492 173:6.9771 174:7.1267 175:6.5855 176:6.8337 177:7.105 178:6.0536 179:5.1216 180:3.7543 
-0 4 0 0 0 1:2.3094 2:3.2219 3:3.6333 4:3.6738 5:3.7432 6:3.6018 7:3.4064 8:3.4982 9:3.3005 10:2.6494 11:2.1408 12:2.1415 13:2.2382 14:2.4232 15:2.4548 16:2.6551 17:2.6203 18:2.5806 19:2.6601 20:2.6215 21:2.925 22:3.0261 23:3.2646 24:3.7412 25:3.6007 26:3.8535 27:4.1341 28:3.1681 29:2.7213 30:1.9738 31:2.6569 32:3.216 33:3.1504 34:2.7931 35:2.4299 36:2.1884 37:1.9248 38:1.9367 39:2.2277 40:1.973 41:1.9915 42:2.0623 43:2.2134 44:2.1314 45:2.1229 46:2.3481 47:2.3128 48:2.4112 49:2.4827 50:2.4842 51:2.7379 52:3.2227 53:3.5218 54:3.9788 55:3.3978 56:2.695 57:2.2039 58:1.682 59:1.6545 60:1.2799 61:5.5801 62:6.5475 63:6.235 64:6.488 65:7.8561 66:9.7865 67:11.1223 68:12.2238 69:12.9275 70:12.7025 71:12.8162 72:13.7529 73:13.9047 74:14.5571 75:14.5982 76:15.8081 77:16.0083 78:16.0067 79:16.3141 80:15.5235 81:15.5019 82:15.1742 83:15.2288 84:16.536 85:16.1022 86:16.9265 87:18.2516 88:15.177 89:13.568 90:9.9801 91:4.1653 92:6.3298 93:8.0095 94:9.2552 95:10.168 96:10.7587 97:10.7351 98:10.9609 99:10.6846 100:9.9753 101:9.3327 102:9.1816 103:8.9462 104:8.6952 105:8.4823 106:8.9821 107:9.0462 108:9.7272 109:10.5103 110:10.7012 111:11.8393 112:12.0591 113:12.2967 114:13.2187 115:12.8513 116:14.4817 117:17.3633 118:17.0947 119:17.7359 120:14.058 121:7.1386 122:11.2516 123:14.5008 124:16.136 125:17.2259 126:17.2849 127:16.5093 128:16.2244 129:15.6058 130:14.1913 131:13.0514 132:12.4346 133:11.2849 134:10.3216 135:9.5381 136:9.377 137:8.8101 138:8.3722 139:8.117 140:7.3615 141:7.1075 142:6.8625 143:6.8783 144:7.3992 145:7.146 146:7.638 147:8.3057 148:7.4741 149:6.767 150:5.1555 151:2.464 152:2.7323 153:2.6694 154:2.3803 155:2.0697 156:2.0538 157:2.031 158:2.188 159:2.3663 160:2.3183 161:2.4515 162:2.8247 163:3.2989 164:3.761 165:4.083 166:5.2946 167:6.0128 168:6.8588 169:6.9004 170:5.996 171:5.4951 172:5.1452 173:5.1798 174:5.3594 175:5.258 176:5.6804 177:5.7179 178:5.024 179:3.8806 180:2.8727 
-0 0.4189285373140524 0 0 0 1:2.2666 2:3.2562 3:3.6762 4:3.8249 5:3.9326 6:3.933 7:3.8482 8:4.1131 9:3.9864 10:3.3017 11:2.5937 12:2.349 13:2.3099 14:2.5634 15:2.6215 16:2.8796 17:2.8362 18:2.8303 19:2.8751 20:2.8355 21:3.0881 22:3.1691 23:3.3588 24:3.7903 25:3.5591 26:3.7934 27:4.0255 28:3.0735 29:2.5793 30:1.8954 31:2.7911 32:3.3553 33:3.2218 34:2.9043 35:2.5238 36:2.2937 37:2.029 38:2.0227 39:2.2775 40:2.0113 41:2.0211 42:2.025 43:2.1335 44:2.0148 45:2.013 46:2.1806 47:2.1901 48:2.3057 49:2.4254 50:2.5072 51:2.8426 52:3.3686 53:3.6992 54:4.125 55:3.4205 56:2.6697 57:2.3066 58:1.9435 59:1.9267 60:1.5018 61:5.7892 62:7.1042 63:7.0761 64:7.9199 65:9.9971 66:12.5898 67:14.0816 68:15.3014 69:15.8093 70:15.2454 71:15.2251 72:16.0741 73:16.1072 74:16.7165 75:16.5724 76:17.9776 77:18.2118 78:18.1682 79:18.5713 80:17.5673 81:17.2381 82:16.4431 83:15.9803 84:16.7543 85:15.7065 86:16.0089 87:16.618 88:13.6847 89:11.9147 90:8.8403 91:4.3205 92:6.7223 93:8.6387 94:9.9739 95:10.8785 96:11.4607 97:11.389 98:11.5366 99:11.1384 100:10.122 101:9.0642 102:8.5088 103:8.1387 104:8.0975 105:8.0668 106:8.8359 107:9.1294 108:9.8457 109:10.7151 110:10.9573 111:12.1175 112:12.3418 113:12.6335 114:13.6608 115:13.399 116:15.1868 117:18.1453 118:17.7865 119:18.1668 120:14.3511 121:7.3589 122:11.5995 123:15.0533 124:16.6937 125:17.8186 126:17.8365 127:16.9273 128:16.4981 129:15.764 130:14.2337 131:12.8805 132:12.1348 133:10.8448 134:9.8045 135:9.0508 136:8.8064 137:8.2889 138:7.9324 139:7.7469 140:7.0661 141:6.9514 142:6.8537 143:7.1681 144:7.9767 145:7.8625 146:8.3039 147:8.7744 148:7.7312 149:6.8721 150:5.1981 151:2.4878 152:2.826 153:2.7482 154:2.4825 155:2.1402 156:2.1482 157:2.1122 158:2.2604 159:2.4601 160:2.4125 161:2.5269 162:2.9159 163:3.3892 164:3.872 165:4.1981 166:5.471 167:6.1664 168:6.9853 169:7.0278 170:6.0996 171:5.5986 172:5.1923 173:5.2853 174:5.5079 175:5.2924 176:5.6943 177:5.7881 178:5.0628 179:3.9798 180:2.937 
-0 4 4 3.695720347048677 4 1:3.7429 2:5.4031 3:5.9567 4:6.0231 5:5.9594 6:5.6621 7:5.2135 8:5.3022 9:4.9446 10:3.9584 11:3.0135 12:2.6624 13:2.6762 14:3.1779 15:3.3517 16:3.834 17:3.9021 18:3.9368 19:3.9832 20:3.9117 21:4.1695 22:4.1802 23:4.2891 24:4.5339 25:4.1702 26:4.2382 27:4.3234 28:3.3709 29:2.84 30:2.1018 31:3.354 32:3.7391 33:3.3601 34:2.9454 35:2.5328 36:2.296 37:2.095 38:2.1139 39:2.3758 40:2.1562 41:2.2384 42:2.3572 43:2.5817 44:2.5405 45:2.5913 46:2.8598 47:3.0151 48:3.2369 49:3.4529 50:3.3882 51:3.5589 52:3.7296 53:4.3518 54:5.7112 55:6.5283 56:7.6003 57:8.4777 58:6.9579 59:6.2451 60:4.502 61:5.9708 62:7.7615 63:8.1645 64:9.0762 65:10.6694 66:12.5171 67:13.8473 68:15.8543 69:16.9771 70:16.8762 71:16.8568 72:17.5615 73:17.4415 74:17.8661 75:17.6497 76:19.285 77:19.8798 78:20.4301 79:21.5924 80:21.1136 81:22.39 82:22.2857 83:22.1583 84:23.0594 85:20.9841 86:20.8122 87:21.0705 88:16.8871 89:14.703 90:10.7457 91:4.528 92:7.1733 93:9.2248 94:10.4412 95:11.0508 96:11.2697 97:10.8966 98:10.8037 99:10.1743 100:8.9969 101:7.75 102:7.0976 103:6.9905 104:7.4244 105:7.6472 106:8.7119 107:9.1886 108:9.8967 109:10.7182 110:10.9477 111:12.0168 112:12.2885 113:12.8178 114:14.1559 115:14.137 116:16.2093 117:19.3061 118:18.673 119:18.8794 120:14.8087 121:7.7281 122:12.0587 123:15.4239 124:16.9462 125:17.8085 126:17.5817 127:16.4469 128:15.8377 129:14.9559 130:13.3359 131:11.8989 132:11.0655 133:9.7761 134:8.721 135:8.0497 136:7.7233 137:7.2679 138:6.9992 139:6.9475 140:6.4829 141:6.5632 142:6.612 143:7.0972 144:8.0529 145:7.9875 146:8.3018 147:8.4685 148:7.0988 149:6.0775 150:4.5009 151:2.53 152:2.8396 153:2.7283 154:2.4797 155:2.1455 156:2.1194 157:2.0874 158:2.1744 159:2.3658 160:2.2988 161:2.3888 162:2.7385 163:3.1989 164:3.7139 165:4.0398 166:5.4184 167:6.1637 168:6.9555 169:6.9661 170:6.0399 171:5.4034 172:4.8504 173:4.7629 174:4.8543 175:4.6597 176:4.9965 177:5.1076 178:4.6135 179:3.7043 180:2.8045 
-0 4 0 0 0 1:3.6753 2:5.363 3:5.9331 4:5.9901 5:5.9236 6:5.626 7:5.1095 8:5.0353 9:4.5908 10:3.8296 11:3.1262 12:2.8327 13:2.6284 14:2.9217 15:3.0851 16:3.5658 17:3.8252 18:4.0795 19:4.3732 20:4.4457 21:4.8869 22:4.9333 23:5.0679 24:5.2576 25:4.8352 26:4.7642 27:4.9192 28:3.9433 29:3.4985 30:2.5891 31:3.4967 32:3.8423 33:3.3557 34:2.889 35:2.4579 36:2.1926 37:1.9477 38:1.9727 39:2.2368 40:2.0862 41:2.1763 42:2.2977 43:2.5545 44:2.5091 45:2.5813 46:2.8952 47:3.2774 48:3.7914 49:4.3651 50:4.552 51:4.9518 52:4.9378 53:4.9851 54:5.8044 55:6.4494 56:7.8778 57:9.1166 58:7.6689 59:6.8603 60:4.9097 61:5.0476 62:6.8947 63:7.7394 64:8.9645 65:10.2304 66:11.2262 67:11.9701 68:13.9417 69:15.5206 70:16.1571 71:16.624 72:17.7893 73:17.7797 74:18.3216 75:18.0431 76:19.5422 77:20.2167 78:20.9964 79:22.4134 80:22.0444 81:23.8742 82:24.0867 83:24.2312 84:25.2836 85:22.9433 86:22.7236 87:23.1193 88:18.5581 89:16.2868 90:11.9333 91:3.7222 92:5.6563 93:6.8271 94:7.2631 95:7.4593 96:7.4682 97:7.1101 98:6.9709 99:6.5607 100:5.7087 101:4.7271 102:4.2561 103:4.1893 104:4.5573 105:4.8275 106:5.714 107:6.2272 108:6.767 109:7.3678 110:7.5366 111:8.3037 112:8.5728 113:8.992 114:10.0469 115:10.1747 116:11.6976 117:13.8789 118:13.0335 119:12.8253 120:9.8998 121:4.4355 122:6.8364 123:8.7362 124:9.5578 125:10.0691 126:10.115 127:9.4523 128:9.3246 129:8.9673 130:8.0405 131:7.1838 132:6.7831 133:6.0193 134:5.467 135:5.0923 136:4.9099 137:4.7086 138:4.5189 139:4.4674 140:4.1928 141:4.2791 142:4.2434 143:4.6264 144:5.4005 145:5.4162 146:5.8136 147:6.0852 148:5.0838 149:4.4294 150:3.2499 151:2.0303 152:2.217 153:2.0972 154:1.8809 155:1.6 156:1.4715 157:1.4339 158:1.4347 159:1.6856 160:1.7566 161:2.0174 162:2.463 163:2.9517 164:3.272 165:3.4779 166:4.2626 167:4.3744 168:4.542 169:4.1664 170:3.3052 171:2.9321 172:2.7755 173:2.9032 174:3.2799 175:3.3164 176:3.7641 177:4.2336 178:3.748 179:3.0834 180:2.2905 
-0 1.444476150366107 0 0 1.218728207504708 1:6.8212 2:9.0706 3:9.1181 4:8.4467 5:7.8698 6:7.2263 7:6.4249 8:6.4431 9:6.3483 10:5.9815 11:5.4525 12:4.9148 13:3.9338 14:3.7013 15:3.7071 16:3.9953 17:4.195 18:4.4415 19:4.778 20:4.7735 21:5.2681 22:5.2822 23:5.5457 24:5.8964 25:5.6077 26:5.673 27:5.847 28:4.7668 29:4.2584 30:3.1548 31:3.7479 32:4.1078 33:3.6341 34:3.0924 35:2.5569 36:2.2693 37:2.0656 38:2.1069 39:2.3575 40:2.2594 41:2.3696 42:2.5862 43:2.9122 44:2.9047 45:3.0335 46:3.4451 47:3.8984 48:4.4792 49:5.0527 50:5.1998 51:5.5496 52:5.4176 53:5.4004 54:6.3562 55:7.1275 56:8.8511 57:10.282 58:8.7545 59:7.8762 60:5.708 61:4.9685 62:6.714 63:7.7826 64:9.2109 65:10.5296 66:11.5025 67:12.2036 68:14.2577 69:15.8296 70:16.6203 71:17.1985 72:18.4382 73:18.5172 74:19.1113 75:18.7361 76:20.34 77:21.0011 78:21.9384 79:23.2507 80:22.5946 81:24.0322 82:23.6305 83:23.4581 84:24.2867 85:22.1916 86:22.4986 87:23.7408 88:19.9452 89:18.2473 90:13.5825 91:2.7803 92:4.1631 93:5.1233 94:5.6487 95:5.9585 96:6.0252 97:5.8264 98:5.637 99:5.3161 100:4.7614 101:4.2362 102:4.0223 103:3.791 104:3.6799 105:3.625 106:3.9326 107:3.8147 108:3.7265 109:3.6468 110:3.3 111:3.3156 112:3.1101 113:3.1683 114:3.1703 115:2.9172 116:3.0051 117:3.2742 118:3.0551 119:2.8567 120:2.2157 121:1.3686 122:1.7788 123:1.8966 124:1.8166 125:1.7616 126:1.7226 127:1.6211 128:1.683 129:1.7129 130:1.7006 131:1.6576 132:1.7268 133:1.7036 134:1.656 135:1.6152 136:1.6413 137:1.6172 138:1.6652 139:1.7391 140:1.7281 141:1.8687 142:2.0142 143:2.3976 144:2.9377 145:3.0736 146:3.3385 147:3.5087 148:2.9216 149:2.5297 150:1.8564 151:1.1526 152:1.3349 153:1.4183 154:1.4507 155:1.3363 156:1.29 157:1.2768 158:1.2312 159:1.3599 160:1.2 161:1.1096 162:0.9949 163:0.9951 164:0.9052 165:0.9582 166:1.1057 167:1.1447 168:1.3211 169:1.5677 170:1.6621 171:1.8978 172:2.0532 173:2.2246 174:2.4958 175:2.3805 176:2.6173 177:2.9634 178:2.6098 179:2.2227 180:1.6587 
-0 0 4 0 0 1:3.6378 2:4.7641 3:4.9661 4:4.8869 5:4.7918 6:4.6717 7:4.3633 8:4.6108 9:4.4757 10:3.887 11:3.0252 12:2.3033 13:1.9497 14:2.0605 15:2.1308 16:2.3824 17:2.5029 18:2.7086 19:3.0093 20:3.1425 21:3.5322 22:3.86 23:4.1178 24:4.6411 25:4.5488 26:4.7917 27:5.0559 28:4.0398 29:3.5266 30:2.5664 31:3.2972 32:3.7963 33:3.7955 34:3.2077 35:2.5025 36:2.0644 37:1.7512 38:1.6764 39:1.9041 40:1.972 41:2.2169 42:2.3949 43:2.8109 44:3.3153 45:3.5318 46:4.3505 47:5.3005 48:6.5396 49:7.9314 50:7.9436 51:6.8454 52:5.5799 53:5.4869 54:8.5325 55:12.3528 56:18.5093 57:24.6688 58:23.2425 59:21.9025 60:15.9628 61:1.9303 62:2.7015 63:2.9642 64:2.538 65:1.7738 66:2.1337 67:3.1834 68:4.2513 69:4.9461 70:5.2547 71:5.653 72:6.1867 73:6.417 74:6.7709 75:6.8271 76:7.7875 77:8.2628 78:9.1516 79:9.7973 80:9.6968 81:10.0638 82:9.9395 83:9.9667 84:11.0094 85:10.4144 86:11.0117 87:11.8264 88:9.6382 89:8.5127 90:6.1974 91:1.6057 92:2.4695 93:3.4127 94:4.1532 95:4.7203 96:4.8811 97:4.6289 98:4.4372 99:3.8989 100:3.2852 101:2.8785 102:3.0063 103:3.257 104:3.5674 105:3.523 106:3.6957 107:3.5911 108:3.6034 109:3.5938 110:3.4992 111:3.4557 112:3.3942 113:3.5629 114:3.8303 115:3.7885 116:4.2177 117:4.8231 118:3.99 119:3.4688 120:2.4614 121:0.4468 122:0.591 123:0.6876 124:0.7157 125:0.7243 126:0.7102 127:0.6764 128:0.723 129:0.7418 130:0.7613 131:0.7748 132:0.7658 133:0.7803 134:0.7528 135:0.7438 136:0.7106 137:0.6696 138:0.6279 139:0.6213 140:0.5981 141:0.6492 142:0.665 143:0.7761 144:0.8614 145:0.856 146:0.9186 147:0.9422 148:0.8613 149:0.7762 150:0.6085 151:1.3863 152:1.6522 153:1.7661 154:1.6829 155:1.6929 156:1.5764 157:1.4703 158:1.2478 159:1.1995 160:1.0332 161:1.0236 162:1.0595 163:1.2112 164:1.1754 165:1.2345 166:1.2876 167:1.3957 168:1.5756 169:1.7721 170:1.8441 171:2.1782 172:2.479 173:2.78 174:3.1887 175:3.3081 176:3.7537 177:4.4303 178:3.9934 179:3.7119 180:2.7762 
-0 4 4 0 0 1:9.4329 2:12.3671 3:12.881 4:12.4699 5:11.7242 6:10.8713 7:9.4592 8:9.045 9:8.1554 10:6.8755 11:5.6101 12:4.8023 13:4.2279 14:4.583 15:4.7588 16:5.6474 17:6.2637 18:6.9109 19:7.6053 20:7.6998 21:8.4203 22:8.524 23:9.0042 24:9.5374 25:8.9711 26:9.1916 27:9.4935 28:7.7553 29:6.9234 30:5.06 31:2.9804 32:3.4947 33:3.2521 34:2.6846 35:2.2101 36:1.9996 37:1.7928 38:1.9077 39:2.1883 40:2.139 41:2.2168 42:2.3471 43:2.6756 44:3.0329 45:3.1786 46:3.8581 47:4.5622 48:5.4158 49:6.4676 50:6.9058 51:7.7254 52:7.8584 53:7.2475 54:7.9557 55:7.7046 56:8.4548 57:9.6712 58:8.1779 59:7.4788 60:5.4159 61:4.5663 62:5.3821 63:5.1801 64:5.1861 65:5.7017 66:7.1156 67:8.7975 68:11.6992 69:14.0546 70:15.41 71:16.2391 72:17.1301 73:16.7387 74:16.9429 75:16.6418 76:17.6147 77:17.6124 78:18.0415 79:18.4747 80:17.3472 81:17.7695 82:17.3214 83:17.6619 84:19.2063 85:18.9153 86:20.9088 87:23.7487 88:20.7266 89:19.5643 90:14.6779 91:1.7098 92:2.6216 93:3.2867 94:3.8208 95:4.2127 96:4.514 97:4.5734 98:4.7431 99:4.767 100:4.5819 101:4.2645 102:4.0663 103:3.6726 104:3.251 105:2.9255 106:2.8612 107:2.7968 108:2.8615 109:2.9569 110:2.9466 111:3.2132 112:3.304 113:3.3821 114:3.5595 115:3.1381 116:3.24 117:3.754 118:3.5419 119:3.4557 120:2.7409 121:1.4678 122:2.0357 123:2.3141 124:2.3352 125:2.3147 126:2.1924 127:2.0138 128:1.9368 129:1.8536 130:1.7386 131:1.5626 132:1.5386 133:1.474 134:1.396 135:1.3071 136:1.2212 137:1.1672 138:1.1138 139:1.1481 140:1.1355 141:1.2337 142:1.3095 143:1.4804 144:1.7402 145:1.7598 146:2.0212 147:2.2905 148:2.053 149:1.83 150:1.3579 151:1.385 152:1.7352 153:1.7676 154:1.7722 155:1.6426 156:1.536 157:1.4887 158:1.4325 159:1.5406 160:1.4211 161:1.3179 162:1.1387 163:1.0227 164:0.9113 165:0.9252 166:1.0707 167:1.3277 168:1.6518 169:2.0642 170:2.3079 171:2.6592 172:2.8315 173:3.0587 174:3.1206 175:2.8799 176:2.9346 177:2.9321 178:2.6827 179:2.1244 180:1.6114 
-0 4 2.317480146869683 0 0 1:9.3538 2:12.2276 3:12.7918 4:12.5205 5:11.8977 6:11.231 7:10.0766 8:9.6683 9:8.691 10:7.2662 11:5.8569 12:4.9074 13:4.2994 14:4.6495 15:4.8217 16:5.8274 17:6.5378 18:7.1517 19:7.8056 20:7.8457 21:8.5235 22:8.5165 23:8.8923 24:9.426 25:8.7806 26:8.9187 27:9.1646 28:7.5562 29:6.6686 30:4.8569 31:3.0239 32:3.5591 33:3.3234 34:2.7332 35:2.2232 36:1.9994 37:1.8381 38:1.9427 39:2.1931 40:2.1456 41:2.2489 42:2.3584 43:2.7126 44:3.0032 45:3.1651 46:3.8258 47:4.4988 48:5.3849 49:6.4657 50:6.9064 51:7.8341 52:8.077 53:7.6349 54:8.1056 55:7.9166 56:8.895 57:10.1246 58:8.6127 59:7.5867 60:5.3776 61:5.8616 62:6.9719 63:6.3341 64:5.2648 65:4.9335 66:6.1201 67:8.3175 68:11.8004 69:14.1696 70:15.4424 71:15.8858 72:16.547 73:15.9252 74:15.8834 75:15.5805 76:16.1955 77:16.1074 78:16.3979 79:16.7412 80:15.9692 81:16.6885 82:16.4119 83:16.8451 84:18.1324 85:17.6683 86:19.1033 87:21.6064 88:18.6576 89:17.7798 90:13.3301 91:1.8929 92:2.893 93:3.6232 94:4.1599 95:4.5051 96:4.7868 97:4.831 98:4.9291 99:4.8761 100:4.6378 101:4.284 102:4.1046 103:3.8111 104:3.494 105:3.1894 106:3.1182 107:3.0066 108:3.0077 109:3.032 110:2.9996 111:3.2422 112:3.3342 113:3.4565 114:3.6871 115:3.3434 116:3.4892 117:4.0141 118:3.751 119:3.6176 120:2.835 121:1.279 122:1.7878 123:2.0359 124:2.0884 125:2.1227 126:2.0565 127:1.9061 128:1.8571 129:1.8091 130:1.6902 131:1.5474 132:1.5333 133:1.4557 134:1.3342 135:1.2821 136:1.2105 137:1.1483 138:1.1563 139:1.2188 140:1.2377 141:1.3821 142:1.5098 143:1.6693 144:1.9251 145:1.8699 146:2.0379 147:2.2075 148:1.9217 149:1.7516 150:1.3331 151:1.279 152:1.5898 153:1.6614 154:1.6754 155:1.5812 156:1.4983 157:1.5148 158:1.4713 159:1.6112 160:1.5428 161:1.4148 162:1.2285 163:1.0717 164:0.9122 165:0.9253 166:1.0542 167:1.2392 168:1.5515 169:1.9971 170:2.2334 171:2.5737 172:2.7632 173:2.9928 174:3.0283 175:2.8577 176:2.9457 177:2.892 178:2.6895 179:2.0576 180:1.5341 
-0 4 0 0 0 1:9.0369 2:11.6719 3:11.9998 4:11.6325 5:11.062 6:10.4679 7:9.444 8:9.0056 9:7.9847 10:6.5323 11:5.2264 12:4.5549 13:4.2809 14:4.8128 15:4.998 16:5.7578 17:6.1269 18:6.4379 19:6.8934 20:6.9755 21:7.5909 22:7.7234 23:8.1451 24:8.7475 25:8.2239 26:8.4 27:8.7988 28:7.1644 29:6.3905 30:4.6396 31:3.0699 32:3.552 33:3.3892 34:2.7716 35:2.2323 36:1.9578 37:1.7931 38:1.8303 39:2.0375 40:1.9457 41:2.0128 42:2.0871 43:2.3975 44:2.5627 45:2.7009 46:3.2387 47:3.7009 48:4.512 49:5.4128 50:5.8778 51:6.7681 52:6.9339 53:6.4093 54:6.1836 55:5.6577 56:6.3247 57:7.5575 58:6.805 59:6.2612 60:4.5103 61:5.0941 62:5.8595 63:5.3261 64:5.0109 65:5.7055 66:7.7088 67:10.2367 68:13.8815 69:16.2547 70:17.2777 71:17.6835 72:18.322 73:17.583 74:17.5182 75:17.1661 76:17.9545 77:17.9381 78:18.4436 79:19.2769 80:18.7611 81:19.8298 82:19.6818 83:20.0359 84:21.2708 85:20.2268 86:21.2964 87:23.6193 88:19.8543 89:18.4537 90:13.6761 91:1.5572 92:2.2323 93:2.7194 94:3.0381 95:3.2582 96:3.3848 97:3.4224 98:3.4777 99:3.5076 100:3.472 101:3.4478 102:3.5815 103:3.5977 104:3.4344 105:3.1539 106:3.0977 107:2.9754 108:2.9866 109:3.0228 110:2.9791 111:3.2006 112:3.2299 113:3.3123 114:3.4866 115:3.1361 116:3.2318 117:3.637 118:3.163 119:2.8689 120:2.1234 121:1.0982 122:1.5247 123:1.7922 124:1.9111 125:2.0302 126:2.0679 127:1.9715 128:2.0054 129:1.9924 130:1.929 131:1.7738 132:1.7819 133:1.7063 134:1.5728 135:1.5307 136:1.5309 137:1.4454 138:1.4661 139:1.5366 140:1.5543 141:1.738 142:1.9384 143:2.2487 144:2.6617 145:2.6277 146:2.8257 147:3.0279 148:2.5205 149:2.2486 150:1.6704 151:1.5811 152:1.8739 153:1.9062 154:1.8568 155:1.6677 156:1.4974 157:1.4731 158:1.3901 159:1.4966 160:1.4577 161:1.3731 162:1.2607 163:1.201 164:1.0274 165:1.0481 166:1.1702 167:1.3153 168:1.6199 169:2.0081 170:2.224 171:2.5422 172:2.6906 173:2.8813 174:2.8859 175:2.6815 176:2.7302 177:2.6997 178:2.5356 179:1.9861 180:1.4857 
-0 -1.481179777056389 0 0 0 1:6.4022 2:8.6673 3:9.3663 4:9.0922 5:8.5549 6:8.0003 7:7.0837 8:6.7763 9:6.341 10:5.4789 11:4.8273 12:4.5523 13:4.1985 14:4.2671 15:4.1521 16:4.5344 17:4.7498 18:4.9563 19:5.1531 20:5.046 21:5.436 22:5.759 23:6.1968 24:6.9692 25:7.0357 26:7.8229 27:8.756 28:7.4412 29:6.6548 30:4.783 31:4.3943 32:5.5335 33:4.8296 34:4.091 35:3.4291 36:3.2153 37:2.9591 38:3.1455 39:3.5131 40:3.3493 41:3.479 42:3.5714 43:3.7851 44:3.8362 45:3.9098 46:4.295 47:4.4996 48:4.8668 49:5.4489 50:5.6177 51:5.9335 52:5.5461 53:5.4686 54:6.4845 55:7.1864 56:9.3914 57:12.4323 58:11.3337 59:11.0347 60:8.1098 61:6.0074 62:6.9256 63:6.6113 64:7.1209 65:8.6629 66:11.0988 67:13.1026 68:15.6777 69:17.5518 70:17.698 71:17.6508 72:17.9137 73:17.454 74:17.5014 75:16.8549 76:17.7151 77:17.9012 78:18.5284 79:19.3814 80:19.0122 81:20.2439 82:21.0327 83:21.9799 84:24.8403 85:23.6988 86:24.7487 87:26.3323 88:21.7565 89:19.2038 90:13.776 91:3.912 92:4.9467 93:5.5468 94:6.0638 95:6.8007 96:7.4158 97:7.4487 98:7.7672 99:7.9709 100:7.6837 101:7.0686 102:6.457 103:5.6413 104:5.0188 105:4.8236 106:5.0546 107:5.1612 108:5.6035 109:6.152 110:6.2552 111:6.7479 112:6.8313 113:6.9927 114:7.448 115:7.2728 116:8.3638 117:9.9471 118:9.866 119:9.9456 120:8.0332 121:3.4111 122:5.0415 123:6.1594 124:6.6966 125:7.2259 126:7.4033 127:7.3868 128:7.8187 129:7.8022 130:7.621 131:7.3195 132:7.1824 133:6.6782 134:6.3829 135:5.8444 136:5.9208 137:5.7524 138:5.7538 139:5.8553 140:5.3084 141:5.2062 142:5.2004 143:5.0819 144:5.3106 145:4.9374 146:5.2418 147:5.9676 148:5.783 149:5.7307 150:4.5982 151:2.5842 152:2.9054 153:3.0997 154:3.0354 155:2.8127 156:2.7237 157:2.657 158:2.6499 159:2.6378 160:2.3308 161:2.2394 162:2.3852 163:2.6909 164:3.0685 165:3.3943 166:4.0546 167:4.4851 168:5.0236 169:5.5063 170:5.8043 171:6.0629 172:6.0141 173:6.1106 174:6.3402 175:6.1892 176:6.6291 177:7.221 178:6.6742 179:5.6497 180:4.2444 
-0 -4 0 0 0 1:3.2412 2:4.3996 3:4.8849 4:5.0364 5:5.1166 6:4.942 7:4.4784 8:4.3037 9:3.8648 10:3.1631 11:2.8728 12:3.0261 13:3.2546 14:3.6771 15:3.7251 16:4.2173 17:4.2525 18:4.2442 19:4.3806 20:4.1541 21:4.4886 22:4.5602 23:4.8998 24:5.67 25:5.9059 26:6.6689 27:7.5958 28:6.606 29:6.1346 30:4.5386 31:4.0211 32:4.905 33:4.7295 34:3.956 35:3.0141 36:2.2156 37:1.7653 38:1.7513 39:2.2642 40:2.3385 41:2.6569 42:2.8907 43:3.0879 44:3.28 45:3.2804 46:3.5778 47:3.57 48:3.592 49:3.9583 50:4.1732 51:4.8633 52:5.6665 53:6.269 54:6.8564 55:6.2302 56:6.0723 57:5.9544 58:4.9086 59:4.177 60:3.0357 61:5.3184 62:6.6272 63:6.0761 64:5.212 65:4.9938 66:5.4372 67:6.2776 68:7.6229 69:8.8595 70:9.3348 71:9.7319 72:10.4679 73:10.6491 74:11.1022 75:11.1424 76:11.9697 77:12.3538 78:12.9013 79:13.557 80:13.7026 81:15.2134 82:16.3882 83:17.5634 84:20.1383 85:19.5026 86:20.3467 87:21.7048 88:17.8589 89:15.7849 90:11.2633 91:4.0833 92:6.0351 93:7.4008 94:8.2057 95:8.6369 96:8.6478 97:8.0361 98:7.6815 99:6.9429 100:6.1414 101:5.6911 102:5.7402 103:5.7249 104:5.7738 105:5.6145 106:5.8992 107:5.9473 108:6.0638 109:6.1826 110:6.0556 111:6.2611 112:6.2157 113:6.0285 114:6.0262 115:5.2578 116:5.1815 117:5.5738 118:5.258 119:5.2827 120:4.1034 121:1.0873 122:1.5561 123:1.8622 124:2.0068 125:2.1297 126:2.1787 127:2.11 128:2.1175 129:2.1068 130:2.0083 131:1.9145 132:1.8288 133:1.7361 134:1.6555 135:1.6377 136:1.6976 137:1.6498 138:1.6231 139:1.6312 140:1.5254 141:1.5843 142:1.6199 143:1.6631 144:1.7866 145:1.7308 146:1.9221 147:2.2361 148:2.0677 149:1.9851 150:1.568 151:1.9189 152:2.3547 153:2.3187 154:2.1326 155:1.9019 156:1.7523 157:1.7838 158:1.7116 159:1.8386 160:1.8339 161:1.7487 162:1.733 163:1.7119 164:1.6427 165:1.7432 166:1.9547 167:2.0266 168:2.2748 169:2.4892 170:2.5683 171:2.7531 172:2.952 173:3.2286 174:3.7519 175:3.8801 176:4.5359 177:5.5368 178:4.8864 179:4.5054 180:3.3449 
